0.038890
0.006055
0.051683
0.050384
0.037577
0.039700
0.039402
-0.063511
0.013840
0.044669
0.025119
0.023643
-0.046903
-0.040494
0.041895
0.013153
-0.007695
0.012261
-0.058619
0.028502
0.059934
0.024226
0.057811
0.044000
0.048980
0.044070
0.004111
-0.035827
0.052893
0.000719
0.017738
0.025128
0.040942
-0.051233
-0.034111
0.000608
0.061618
-0.003011
0.048059
0.018163
0.048760
0.048999
0.053890
-0.050027
0.045951
0.042506
0.055861
-0.029195
-0.049623
0.030413
0.000661
0.062613
-0.036567
-0.058856
0.020102
0.028215
0.005046
-0.017411
0.057214
-0.019007
-0.059907
0.020227
-0.044408
0.036759
0.001715
0.028352
-0.007357
-0.051267
-0.024964
-0.008214
-0.017458
0.022457
-0.038759
0.032292
0.002187
-0.049969
0.053816
0.041708
0.022664
-0.007406
-0.010330
-0.021992
0.025354
-0.052851
0.011226
-0.056286
-0.045115
-0.040024
0.056991
0.019080
0.034037
-0.048628
-0.000489
-0.010079
0.029552
0.026923
0.061278
-0.007001
0.028047
-0.046823
0.021034
0.011446
-0.041595
-0.023368
-0.042000
-0.047337
0.027689
0.040948
0.011311
-0.023334
-0.044904
-0.009290
-0.040883
0.051506
0.046967
-0.036844
-0.044091
0.015401
0.054570
-0.003023
-0.056401
-0.039535
0.029912
0.044610
-0.053542
0.007780
-0.001097
-0.023447
