-0.068539
-0.056427
0.002220
-0.023680
-0.002159
0.049741
0.078967
-0.046638
0.013342
-0.012614
0.067329
0.070245
0.022736
-0.002663
0.006600
0.016580
0.053807
0.049731
-0.003009
0.082249
-0.014747
-0.042071
-0.035736
0.041402
0.081844
-0.027451
0.062187
-0.052072
0.036953
0.014268
0.063250
-0.013875
0.001339
-0.085960
0.063520
-0.078968
-0.096381
0.082321
0.025525
0.017797
-0.060815
-0.030516
0.002402
-0.010735
0.035190
-0.085615
-0.017217
-0.061742
0.011992
0.067449
0.045350
-0.086269
-0.066616
-0.066792
-0.023524
0.046203
0.061761
-0.077255
-0.058549
-0.014978
-0.027878
0.006303
0.046359
0.012651
-0.093899
-0.049544
-0.064701
0.030699
0.073112
0.063850
-0.008182
-0.027602
0.081203
-0.049727
0.102817
-0.024559
-0.079049
-0.065333
-0.058468
0.059648
0.034806
-0.031094
0.051390
0.003450
0.015753
-0.069886
-0.057890
-0.011281
0.012113
0.047841
0.033435
-0.027251
0.010649
-0.046027
-0.062295
0.007564
0.081329
0.018465
-0.029995
0.039949
-0.006524
-0.065568
-0.010832
-0.015745
-0.021849
-0.043661
0.070648
-0.016041
-0.005283
-0.002413
0.076993
0.058561
0.067539
0.107048
0.082691
0.038933
-0.057949
0.000136
0.034057
0.080956
0.022780
-0.050531
0.039278
0.089544
-0.028090
-0.032322
-0.072581
-0.053275
0.074795
-0.087187
-0.084751
-0.070655
-0.080162
-0.025744
-0.023209
0.053302
-0.022592
0.071206
-0.067171
0.003603
-0.079455
0.032347
-0.015738
-0.086405
0.043411
0.015136
0.017652
0.073336
-0.045480
0.083715
-0.040108
0.067937
0.031483
-0.016465
0.014674
0.015102
0.027445
-0.011446
0.023146
0.024916
-0.087570
0.026767
-0.055553
0.026406
-0.073814
-0.031734
0.008399
-0.087288
-0.011390
0.033336
0.001599
0.016856
-0.018659
-0.073865
0.035988
0.076816
-0.008334
-0.024750
0.073788
0.029879
-0.008940
-0.049660
0.084457
0.083594
0.032549
-0.076921
-0.019051
0.013584
-0.052065
-0.052289
0.040207
0.043155
-0.004221
-0.070361
0.065258
-0.072668
-0.029484
0.068944
-0.077657
-0.020433
-0.020859
0.010093
0.049004
0.062924
0.073876
0.068203
0.049393
0.043810
0.000559
0.051847
0.026289
0.015848
0.013784
-0.045491
-0.039130
-0.067541
-0.049951
-0.001667
-0.010941
-0.009794
-0.086434
0.044510
-0.089320
-0.057936
0.013923
-0.073479
-0.069852
0.084590
-0.088852
-0.022693
-0.030118
-0.044508
-0.011088
0.030945
-0.038958
0.049846
0.083005
-0.017735
-0.012706
0.062721
-0.058037
0.055114
-0.066746
0.023035
-0.040552
-0.050848
-0.053031
-0.046158
-0.076741
0.080751
-0.047212
0.016235
0.061589
-0.000099
-0.041562
0.048151
0.018973
-0.049484
0.009024
0.010140
-0.058211
0.058309
-0.002294
-0.005666
0.081397
-0.076751
0.037786
-0.050013
0.048330
0.018369
0.036438
0.018823
0.073599
0.061386
0.033615
-0.034981
0.044536
-0.004128
-0.006263
0.082368
-0.014010
-0.063042
0.009168
0.004301
-0.060076
0.082290
0.007218
-0.079952
-0.009344
0.019197
0.060353
0.076673
-0.074564
-0.037779
-0.048833
0.010529
0.062148
0.003802
-0.085024
-0.081882
-0.014735
-0.059245
-0.060812
0.007889
-0.045455
0.012211
0.036288
-0.053050
-0.036363
-0.059745
0.014144
0.028187
0.072971
-0.082504
-0.059626
-0.069272
0.082600
-0.013386
-0.029343
-0.031298
-0.017555
-0.072301
-0.021366
0.055941
-0.034070
-0.008531
-0.025976
-0.050492
0.035052
0.019284
0.040536
-0.001480
0.054779
0.006384
0.058252
0.008093
-0.054446
0.019565
-0.020078
0.008772
0.068429
-0.033784
0.040134
0.028142
-0.053381
0.024736
-0.012702
0.082680
0.036783
0.025719
-0.042610
0.078153
-0.026937
-0.049268
-0.067958
0.087270
0.077307
0.053040
-0.022055
0.000438
-0.073916
-0.064807
0.020259
0.048814
0.062827
-0.053886
0.003426
-0.037420
0.031571
-0.065979
0.027614
-0.027778
-0.081433
-0.003111
0.048224
-0.010172
0.047187
0.075106
0.072985
0.044973
-0.061565
0.002981
-0.056438
0.078110
-0.106801
-0.005731
0.027365
0.004174
0.057214
0.072150
0.049537
0.016203
0.110366
0.082132
0.066818
-0.063785
-0.107797
-0.000065
0.032814
0.062792
0.077962
0.037306
-0.053949
0.078375
-0.020598
0.008186
0.008992
-0.057625
-0.010682
-0.069619
-0.045747
-0.025269
0.069213
-0.083309
-0.045924
0.057361
-0.004135
-0.082146
-0.037595
-0.051784
-0.044139
0.005116
-0.031586
-0.048278
0.079180
0.002123
-0.046575
0.053205
-0.042961
-0.018660
-0.007464
-0.050323
0.042153
0.095375
0.048411
-0.060858
0.063653
-0.069039
-0.104143
0.063136
-0.048489
-0.096878
-0.009494
-0.017508
0.013584
0.107191
0.011920
-0.027708
0.026617
0.061599
0.093194
-0.069551
-0.083563
-0.012254
0.044971
0.065728
0.114023
-0.079436
0.087245
-0.012851
0.062415
0.091241
0.020369
-0.014930
0.092597
0.010300
0.093241
0.000821
0.085742
0.001344
-0.012815
0.064717
-0.019949
0.065628
0.108688
-0.071480
-0.052660
-0.042388
0.040448
0.087482
-0.028920
0.071132
0.083954
0.081318
-0.050977
0.023178
0.059787
-0.061085
-0.057926
-0.027777
0.059556
-0.077691
0.085685
-0.021414
0.064964
0.055454
-0.054004
0.074901
0.069364
0.001633
-0.068129
-0.021030
0.090690
-0.007979
0.086675
-0.006120
-0.007243
-0.016415
0.007673
0.087229
0.013438
0.001068
0.056024
-0.013985
-0.036213
0.067785
-0.062578
-0.082433
-0.107182
0.011526
-0.121770
-0.015195
-0.070981
0.036841
0.076057
0.000189
-0.086707
0.024585
-0.025450
-0.065394
0.108437
-0.081559
0.025499
0.072486
0.050671
-0.039838
-0.011646
-0.038195
-0.069428
0.050809
-0.048909
-0.025877
0.041883
-0.053592
-0.034142
-0.034138
0.025987
-0.002631
0.070569
-0.038698
0.031681
0.004232
-0.037623
0.030480
0.003999
-0.067894
0.047033
0.035949
-0.002369
-0.048533
-0.017021
0.011106
-0.048390
0.066973
0.050110
-0.077975
0.102125
-0.084812
0.027638
0.087259
0.108229
0.015677
-0.061324
-0.064102
-0.012996
0.085824
0.099451
-0.081801
-0.049494
0.017567
-0.008244
-0.043421
0.108592
0.061601
-0.053150
0.091401
-0.099012
0.046925
0.095680
0.006965
-0.038433
0.009805
0.000926
0.067855
-0.057867
-0.023237
-0.056769
-0.013498
0.075325
-0.074876
0.042319
0.020531
-0.082260
0.070382
0.051982
-0.026109
-0.010208
-0.048990
-0.024519
-0.096339
-0.005222
-0.003965
-0.031127
0.013188
-0.048380
0.052508
-0.023798
0.100033
-0.020691
0.062535
-0.049091
0.104670
0.114373
-0.073599
-0.029037
-0.099452
0.086704
0.106459
0.078387
-0.071090
-0.114723
-0.103527
-0.007263
-0.050631
-0.034532
-0.042180
-0.002466
0.066497
-0.066688
0.017170
0.049193
0.099069
-0.037232
-0.026422
0.047979
0.103259
0.074090
0.062398
0.053697
0.067779
0.048762
0.028937
0.035880
-0.013466
0.079372
0.050047
0.021412
-0.035631
0.022458
0.046550
-0.044351
0.035303
-0.067354
0.052278
0.103484
-0.085998
-0.069137
-0.010821
0.033018
0.026074
-0.073475
-0.042027
-0.021256
-0.054649
-0.058503
-0.065552
0.021198
-0.064160
-0.109770
0.030667
-0.002033
-0.021589
0.014396
0.083556
0.008705
0.029339
-0.030149
0.066168
0.011467
0.011305
0.006952
-0.028251
-0.048113
0.066564
0.007337
0.070194
0.058746
0.029762
-0.100303
0.036592
0.073659
-0.030808
-0.035562
0.037971
-0.090123
0.072727
0.058879
-0.047614
-0.030875
-0.034619
0.003607
0.105800
0.126059
0.009209
0.022095
-0.002299
-0.082169
0.086575
-0.055867
-0.096388
0.100531
-0.092842
0.064871
-0.054214
0.009986
0.069136
-0.057030
0.002785
0.005385
0.083341
0.058356
-0.050484
0.081920
-0.074513
0.074399
0.080105
-0.020934
0.080103
0.054786
0.027124
0.009574
-0.017369
-0.055701
-0.041274
-0.073264
-0.061428
0.063991
-0.049444
0.024496
-0.065252
0.061085
0.098141
0.091188
0.029569
0.085364
0.033597
-0.067527
0.059710
0.057426
-0.058535
-0.049435
-0.022599
0.060298
-0.035684
-0.038969
-0.061410
0.084453
-0.075910
-0.046946
-0.076053
-0.003392
0.078010
0.066999
-0.015586
0.008525
-0.036262
-0.029510
-0.045829
-0.023413
-0.075795
0.043218
-0.083011
-0.051029
-0.001626
-0.069305
0.053156
0.055796
0.003153
0.011562
0.006192
0.035350
0.029887
-0.009393
-0.060954
0.040825
-0.024750
-0.014291
0.041321
0.056499
-0.049293
0.074426
-0.016676
-0.073747
-0.049461
0.041505
0.079794
-0.071544
-0.060309
0.035969
-0.027281
-0.006832
0.010332
-0.071314
-0.071598
-0.009322
0.011391
-0.006089
0.072680
0.073396
-0.019686
0.085048
-0.064544
-0.036964
-0.068602
-0.070160
-0.019061
0.031538
0.032787
0.061844
-0.005935
0.002226
-0.075709
0.073908
-0.031052
-0.080640
0.012965
-0.053346
-0.064343
-0.062452
-0.060038
0.081795
-0.051527
0.062913
-0.063070
0.071064
-0.017484
0.053142
-0.056900
0.033930
-0.033318
0.004109
0.053685
-0.079077
-0.013652
0.044590
-0.050536
0.033330
-0.007354
0.049420
-0.069244
-0.021084
-0.014574
0.051183
-0.043942
0.041743
-0.073406
-0.040831
0.005539
0.010117
0.024077
0.079729
0.002835
-0.085919
0.034580
0.082971
0.049010
-0.007368
-0.029057
0.025643
0.032705
-0.066313
0.048671
0.004348
-0.025330
0.058663
0.047077
0.048883
0.007629
0.010082
0.011296
-0.072759
-0.014307
-0.082287
-0.017856
0.043537
-0.056641
0.084568
-0.000353
-0.075629
0.088604
0.018405
0.053471
-0.111337
0.036241
-0.068540
-0.066916
-0.037470
0.002415
0.115781
-0.066237
-0.012128
-0.024277
-0.077084
-0.081018
0.074922
-0.052441
-0.034298
0.104612
0.010784
-0.007974
-0.099019
0.071562
-0.062394
0.064262
-0.035577
0.083119
0.060947
-0.086462
0.077533
-0.048752
0.063242
0.089592
0.084068
0.062234
0.074976
0.088201
-0.053361
0.000453
0.091711
-0.082540
0.098602
0.053905
0.052754
0.022605
-0.056578
-0.051352
-0.036775
0.072984
0.067936
0.032402
0.051151
0.002603
0.045828
0.059254
0.018007
0.014353
0.024509
0.018676
0.100936
0.050593
-0.051311
0.070142
0.056851
0.089574
0.066035
0.005661
-0.047389
0.030263
-0.063107
0.078823
-0.015015
-0.048815
-0.040031
0.058460
0.079917
0.099435
-0.033004
0.058649
-0.039357
0.073235
0.014855
0.073439
0.007447
-0.033095
0.053438
0.020639
0.009428
-0.036956
0.031980
-0.031904
-0.073431
-0.030305
0.045779
-0.005838
0.036558
-0.086473
-0.016462
0.109340
0.031702
0.099405
0.025009
0.084107
-0.046617
0.064165
0.078258
0.077268
0.003660
-0.015876
-0.028986
-0.110671
-0.070586
0.088680
0.052651
0.073115
0.038166
-0.073183
-0.030518
-0.070619
0.050722
-0.115866
0.007032
-0.028502
-0.020745
0.068460
-0.037739
-0.091710
0.047602
-0.024766
0.082565
0.049399
-0.022286
0.031586
-0.047130
-0.003739
-0.032842
0.049225
0.003217
0.055678
0.053829
0.105283
0.023091
-0.072259
0.102175
0.048919
0.048749
0.012652
0.087326
-0.019295
-0.081201
0.033602
-0.055685
0.047809
-0.027515
0.015697
-0.010814
-0.068375
0.023556
-0.069296
0.021456
0.060428
-0.053012
-0.003469
0.015371
0.058409
0.020001
-0.045396
0.074910
0.013902
-0.018521
0.097548
-0.017848
-0.015961
0.006201
0.003962
-0.080576
0.063509
0.043205
-0.087244
-0.012384
0.030944
0.064551
-0.018591
0.079437
0.087267
0.058372
-0.095149
0.030243
-0.041280
0.084234
-0.083772
-0.015649
0.070758
0.014384
0.042390
0.081885
-0.031251
-0.062119
-0.075686
0.011611
0.094908
0.088580
-0.012843
0.000285
-0.066033
0.064480
0.063322
-0.010170
0.092473
0.050106
0.016297
-0.015680
-0.002018
-0.035824
0.048541
-0.098443
0.009501
-0.093227
-0.051353
-0.045422
-0.087597
-0.065255
-0.013862
0.013906
0.061263
-0.062679
0.113289
0.041420
0.091645
0.102555
0.071903
0.024895
0.024442
0.061255
-0.027107
0.114731
-0.040676
-0.079952
0.016618
0.013885
0.051250
0.048867
0.017129
-0.068911
-0.070618
0.013465
-0.091898
-0.071113
0.017888
-0.016100
0.042080
-0.009128
0.112153
-0.069030
-0.054486
0.032257
-0.012249
0.031794
-0.058623
-0.045673
0.015559
-0.029572
-0.042027
-0.014510
0.074113
-0.066602
0.014964
0.044936
0.054137
0.080179
-0.030145
-0.020976
0.071273
0.016799
0.018599
0.014415
-0.009937
0.079664
-0.044941
-0.071883
-0.058385
0.077682
0.069223
-0.042532
0.060860
0.033576
0.028492
-0.006797
0.032038
0.029883
0.067930
-0.048314
0.025360
-0.043232
0.038002
-0.022144
-0.038565
0.074484
-0.031389
0.046014
0.009458
0.008904
0.082817
0.001151
0.061840
-0.084291
0.057691
-0.064622
-0.002493
0.060703
0.055913
-0.062396
-0.033346
-0.050609
0.082672
0.010918
-0.042000
-0.011318
0.055918
0.034136
-0.001331
0.017465
0.080119
0.031110
0.054676
-0.020398
-0.010344
0.074295
0.026858
-0.063218
-0.082004
0.018720
-0.042054
0.014272
0.063647
-0.051800
0.004674
-0.020736
0.019233
-0.017408
0.086201
-0.077369
-0.053662
-0.085909
-0.007485
0.005646
0.056333
-0.050868
0.044899
-0.071180
-0.065181
0.075346
0.040164
-0.015475
0.010276
-0.063693
0.086961
-0.020188
0.056409
-0.013914
0.049102
-0.082940
0.028400
0.021878
0.043017
0.072816
0.000340
-0.070631
0.080862
0.017010
-0.035813
-0.028823
-0.021709
0.066094
-0.091591
-0.069498
-0.072146
0.045363
0.015168
-0.044342
0.064702
0.073096
-0.043080
-0.026763
0.058693
0.077214
-0.066108
0.063247
-0.045384
-0.097412
0.025062
0.069498
-0.037515
0.114271
0.108099
-0.036307
-0.013814
0.079282
-0.061616
-0.055154
0.020340
-0.045387
0.117657
0.053220
-0.002563
-0.068036
0.023381
-0.055009
0.023741
0.056223
-0.015751
0.003626
-0.030967
0.037542
0.054983
-0.056718
-0.042025
0.029260
0.010175
-0.054384
0.106673
-0.053451
0.078659
-0.055038
-0.061827
-0.015591
0.101014
0.012319
0.057004
0.041900
-0.046447
-0.022656
0.074372
-0.050254
-0.055991
-0.045301
0.061163
0.001121
0.086804
0.065948
-0.051412
0.035806
0.076127
0.010270
0.030385
0.033770
0.072645
-0.080027
0.024861
0.081967
0.040668
-0.028889
-0.065992
0.010051
0.032686
-0.056651
0.104137
0.083202
0.008822
0.072812
0.044547
-0.008973
-0.012404
-0.001033
-0.064581
-0.015552
0.032225
0.016710
0.043635
0.031987
-0.093966
-0.081895
0.048454
-0.031314
0.043221
-0.071128
0.042912
-0.017437
-0.058199
-0.063550
-0.021290
0.046598
-0.013706
-0.049230
0.050273
0.084643
0.020273
-0.040259
0.025097
-0.017574
0.111837
0.015347
-0.050274
-0.072478
-0.082625
-0.008697
0.065812
0.049104
-0.089341
-0.036555
-0.049473
-0.065815
0.009224
0.060352
-0.077911
-0.085102
-0.080781
-0.029769
0.104459
0.038598
0.087604
0.020620
0.026104
-0.019251
0.018632
0.066688
0.012488
0.107087
0.056190
0.065763
-0.084355
0.025061
-0.081125
0.029921
-0.035057
0.086840
-0.014104
0.022040
0.084086
-0.023075
-0.098014
-0.108952
0.045110
0.010656
-0.062192
-0.020519
-0.091254
0.117927
-0.103963
0.043002
0.108305
0.044209
-0.040420
0.010553
-0.076964
-0.079172
-0.045485
-0.029641
-0.002330
0.081890
0.010525
-0.061215
0.026083
-0.101810
0.060056
0.063642
-0.000325
-0.026490
0.104692
-0.042379
0.005817
-0.019467
-0.039308
0.006082
0.012958
-0.016385
-0.072781
-0.021930
0.038326
0.065410
0.089701
0.008970
-0.061936
-0.013159
0.011830
-0.062387
0.042950
-0.059104
-0.043220
0.021453
-0.016242
-0.014456
0.026287
-0.016608
0.013303
-0.047691
0.076337
0.046517
0.059475
0.065478
0.023460
0.103185
-0.042947
-0.058381
0.083860
-0.080847
0.076374
0.030080
0.020325
0.066366
-0.034782
-0.014281
-0.069718
0.014839
0.016435
0.015739
0.077623
-0.035163
0.067783
-0.078360
-0.109090
0.018409
0.017587
-0.096777
-0.078848
-0.036828
0.078205
-0.058409
-0.103601
0.061440
0.087565
-0.006367
0.112454
0.027976
-0.054625
0.062660
0.001840
0.073308
0.058271
-0.077721
-0.039638
0.052754
0.061536
0.108848
0.081784
0.021563
0.006650
-0.031906
-0.022714
0.079752
-0.115653
0.064207
0.023910
0.031492
0.032796
0.085822
0.058310
0.034630
-0.027541
-0.023509
-0.096747
0.013908
-0.080230
-0.088777
-0.046161
-0.020084
0.108135
-0.023894
0.004650
0.003294
-0.063284
-0.006320
-0.007374
0.065938
0.001021
0.037771
-0.080908
-0.012185
0.091193
-0.111521
-0.041098
-0.015872
-0.090270
0.047497
0.083745
-0.083382
0.022535
-0.047794
0.042142
-0.092377
-0.059778
-0.051443
0.019974
0.077400
0.030998
0.050050
-0.010474
0.014802
-0.103709
0.100582
-0.001466
0.003135
0.036436
0.074805
-0.095612
-0.078831
-0.080590
-0.083144
-0.018169
-0.111622
-0.028298
0.047235
-0.026737
-0.076021
0.009927
0.045783
-0.005019
-0.081218
-0.029094
0.102774
0.035601
0.005341
0.028797
-0.045585
0.042591
-0.029305
-0.064897
0.058225
-0.066176
0.071908
0.027055
0.080075
0.053166
-0.055516
-0.003196
0.073377
0.099756
-0.055838
-0.048464
0.058210
-0.030131
-0.045392
0.068567
0.009124
-0.058758
-0.055057
-0.085762
0.063925
0.054916
0.069826
-0.056968
-0.008934
-0.041139
-0.071866
-0.058566
-0.061899
-0.109658
-0.007254
-0.019402
-0.030820
0.042684
0.061314
0.025137
-0.079687
-0.019678
0.091833
0.039105
0.013828
-0.012850
0.067050
0.037529
0.051206
0.036839
-0.008807
-0.015804
0.010078
-0.012777
-0.045566
0.020505
0.089193
0.049162
-0.002901
-0.006822
-0.084018
0.050555
-0.021968
0.058782
0.046554
0.031813
-0.024391
0.061858
-0.017420
-0.085214
0.101005
0.057254
-0.068819
0.043117
0.039565
-0.058243
0.036624
0.073549
-0.075456
0.101513
-0.024010
0.066200
0.020208
0.013071
0.020229
-0.070241
0.065870
0.033510
-0.055433
0.072486
-0.024648
0.054798
0.048139
0.090448
0.038427
0.023364
0.049537
-0.061158
-0.030023
0.034180
0.055696
-0.087656
0.067700
0.023112
0.035102
-0.057410
0.100645
0.043372
-0.027540
0.039617
-0.030374
-0.059704
-0.028604
-0.034853
0.091350
0.017086
-0.042379
-0.044276
0.004316
0.072684
0.108060
-0.024265
0.064843
-0.101406
-0.023017
0.092806
-0.080558
0.043969
-0.036889
-0.020496
0.037095
0.099929
-0.071283
0.012449
0.028142
-0.047229
0.056614
-0.057114
-0.030231
0.005781
-0.034489
-0.009747
-0.106334
0.080997
-0.023051
0.012129
-0.090178
0.046491
0.028652
-0.053304
0.063771
-0.000643
0.097920
0.007533
-0.033695
0.027052
0.081107
0.033540
0.042855
-0.005487
-0.069626
0.098575
0.070590
-0.079640
0.023705
-0.117465
-0.039724
0.109954
0.074823
-0.024614
-0.113826
-0.094908
0.038891
-0.062656
-0.004301
-0.092954
-0.048712
0.049609
-0.058286
-0.039689
0.001279
-0.047954
0.008627
-0.077747
0.082740
-0.037653
-0.041967
-0.052623
-0.030513
0.088227
0.044227
0.020494
0.045495
-0.026186
-0.065261
-0.048302
-0.032427
0.059503
0.029077
0.056785
0.017975
0.003150
-0.009649
0.050700
0.032908
0.074433
0.053703
-0.015818
-0.051530
0.062723
0.033418
0.038043
-0.064945
-0.021026
0.031832
0.020697
-0.016826
-0.004943
0.075474
-0.074051
-0.034192
-0.052839
0.036882
0.061458
0.062010
-0.023424
-0.036961
-0.086661
-0.051768
-0.015487
0.049156
0.036211
-0.039942
0.013495
0.035846
-0.070569
0.026491
-0.024547
0.043520
0.064209
0.051327
-0.063114
0.084950
-0.040776
0.081276
0.079699
0.017658
0.009775
0.068295
-0.016628
-0.030081
-0.076406
-0.031404
-0.048506
-0.001510
0.045100
0.018904
-0.029780
-0.030749
-0.027809
-0.005446
0.005547
0.036309
-0.041440
-0.054634
-0.005758
0.013527
0.076857
0.034523
0.085336
0.079649
-0.001803
0.055715
0.034120
-0.073631
0.082282
-0.063080
0.045396
0.024385
0.060174
-0.062440
0.061294
0.016200
-0.038366
0.047415
-0.013288
-0.032866
0.027584
-0.000391
-0.062921
-0.014292
-0.065690
-0.029750
0.078438
0.084928
-0.019331
-0.050657
-0.078683
-0.017347
-0.059002
0.020865
-0.036948
-0.006060
-0.021529
0.044455
0.079407
0.083922
-0.035268
0.040936
0.004051
-0.044090
0.084355
-0.017383
-0.019548
-0.045224
0.017444
-0.105136
-0.106691
-0.048633
0.018438
0.024658
-0.022143
0.045023
0.063240
0.057941
-0.073501
0.048522
0.014750
0.096665
0.042798
-0.029907
-0.004311
0.002242
0.004982
0.015144
0.095186
-0.069012
-0.054410
-0.006053
0.004003
0.041018
0.004934
0.025352
-0.032515
0.021928
-0.074243
0.045518
-0.052348
0.084350
0.095276
0.019175
0.014311
0.000412
0.101354
0.032220
0.089186
0.053854
-0.103601
0.001461
0.092111
-0.018110
-0.045259
0.072681
-0.018746
-0.080823
-0.031077
0.061417
0.007680
-0.048883
-0.026619
0.113459
0.031040
0.093715
-0.024494
0.047851
-0.053947
0.108396
0.054656
-0.039209
0.000409
0.017483
0.021916
0.055187
-0.003087
0.090681
0.050314
-0.068845
-0.017979
-0.043917
-0.011717
-0.088749
0.091772
0.023254
-0.047100
0.105285
-0.054002
-0.056637
0.008234
-0.019287
0.049292
0.051421
-0.074229
0.007142
0.004855
0.063903
-0.052581
0.082282
-0.056595
0.085062
-0.015528
0.019746
0.020112
0.058223
0.020375
0.070348
0.052636
0.044026
0.081094
0.071742
-0.018383
-0.003733
-0.120280
0.030515
-0.056502
-0.003614
0.024084
-0.083303
-0.005908
-0.080522
-0.055099
-0.082341
0.009906
0.038975
0.079715
0.042953
0.102324
-0.023973
-0.006013
-0.073847
-0.079157
0.016062
-0.003401
-0.067649
0.083504
-0.081553
0.010137
0.042382
-0.088070
-0.003817
-0.033858
-0.036529
-0.045851
0.058883
0.011534
0.058108
-0.049817
0.041266
0.002965
-0.017183
-0.027123
-0.063488
-0.031891
-0.023279
-0.025680
0.052224
0.054732
0.026252
-0.037837
-0.073601
-0.045589
-0.043088
0.028397
-0.068610
0.084333
-0.019656
0.023081
-0.077353
0.054894
-0.043838
-0.010326
-0.029757
-0.007271
0.054027
0.014281
0.082009
0.015344
0.010413
-0.007222
-0.090884
-0.009610
0.020637
-0.086097
0.040556
-0.036482
0.036456
0.053172
-0.027648
0.040273
0.041369
-0.017476
0.013935
-0.015521
0.019969
-0.064589
-0.026018
-0.042618
-0.014873
0.034863
0.051380
-0.033485
-0.059256
0.004993
0.039111
-0.064357
-0.009233
0.084434
0.038175
-0.004442
-0.067324
0.014996
-0.057382
0.024945
-0.073689
0.057995
-0.070092
-0.035270
-0.009085
0.006400
0.038736
-0.053492
-0.039469
-0.014749
0.055897
-0.021751
0.029948
-0.035011
-0.003580
0.077572
0.019593
0.028862
0.012776
0.053156
0.067284
-0.029809
-0.008766
0.034788
0.063686
-0.046510
-0.003681
-0.083352
0.051470
0.012912
-0.060435
0.026906
-0.073375
0.057210
0.051204
-0.086875
-0.062749
-0.088439
0.084328
-0.074547
0.059862
-0.064773
-0.055092
-0.040785
0.040334
-0.001872
-0.014080
-0.052974
-0.078031
0.022267
-0.117255
-0.076791
0.013594
0.037227
0.028453
0.044373
-0.030161
0.077747
-0.022922
-0.058218
0.070631
-0.036362
0.097978
-0.053510
0.062057
-0.057326
-0.083841
0.003291
-0.011488
-0.047450
-0.100744
0.049473
0.026807
-0.058056
0.017079
0.025084
0.067729
0.078802
0.014074
-0.018184
0.020527
-0.029829
-0.083311
0.110438
0.032523
0.084532
0.103138
-0.018248
-0.012264
0.015127
0.109009
-0.009867
0.039953
-0.000944
-0.081635
0.062912
0.097652
-0.044250
0.047073
0.016270
-0.047581
0.000438
0.068295
0.062877
0.010692
-0.010789
-0.029418
-0.006999
0.026516
0.045322
0.080331
-0.021470
0.065252
-0.042203
-0.110729
0.041645
0.010071
0.094622
-0.002916
0.009658
-0.052849
0.067641
-0.087120
0.079180
-0.003834
0.005590
0.057647
0.040440
0.036095
-0.023834
0.047943
0.024038
0.047823
0.041033
-0.049763
0.002341
-0.028843
-0.026467
0.097110
-0.081526
0.025704
-0.037521
0.051146
0.102804
-0.035059
0.017595
0.108302
0.114629
-0.044130
0.036895
0.081899
-0.060454
-0.020209
-0.027450
-0.020174
-0.008376
0.025869
-0.026378
0.040963
0.027605
0.017691
0.063075
0.079382
0.016949
-0.081017
-0.097043
-0.017050
0.059932
-0.078463
0.037862
0.048013
0.019647
-0.006387
0.043341
0.100155
0.007836
-0.018732
-0.032764
-0.117953
0.016078
0.051980
0.068850
-0.015177
0.102174
-0.059916
0.111338
-0.014670
0.053097
-0.012443
-0.073081
-0.040949
0.041997
-0.025019
-0.011276
0.007754
0.044383
-0.081666
0.035569
-0.054232
0.071307
0.077030
-0.018102
-0.020525
0.069489
0.057918
0.017062
0.015432
0.062392
0.113098
-0.016353
-0.041229
0.027125
-0.049363
-0.064925
0.105958
0.093303
-0.001621
0.093361
0.065295
-0.090195
0.044632
-0.042224
0.020498
-0.057094
-0.056568
0.035502
-0.007515
0.030534
0.014959
0.024961
-0.025787
-0.021694
-0.045126
-0.032618
-0.022638
0.027776
-0.027535
-0.011653
0.115347
-0.039740
-0.020273
-0.011753
-0.120109
-0.074947
0.038088
0.074720
0.059626
-0.035912
-0.023057
0.111228
0.028289
0.060661
0.017812
0.020440
-0.083304
-0.031502
0.078085
0.069566
-0.002181
-0.084243
-0.081036
0.100944
-0.075513
-0.059064
-0.016175
0.006374
0.000254
-0.062174
0.040183
0.032398
0.048956
0.014653
0.014581
-0.016378
-0.009642
0.052084
0.103951
0.077806
0.088113
0.093037
0.011924
-0.034247
-0.064169
-0.075691
-0.017087
-0.052231
-0.002577
-0.041774
0.051819
-0.012672
-0.065314
0.062339
0.043229
0.040360
-0.104337
-0.052162
-0.015106
0.091935
0.042665
-0.028852
-0.021315
-0.017533
0.032939
-0.040670
-0.031982
-0.042715
0.045599
-0.043933
-0.047118
0.032400
0.010357
-0.020088
0.059301
0.017389
0.086370
0.066136
0.010141
-0.015108
-0.032695
0.054514
-0.030441
0.036310
-0.034628
-0.039740
0.084443
0.021863
-0.083099
0.016894
0.106242
-0.063041
0.104528
0.056783
0.073952
0.062731
0.082922
0.040915
0.108843
0.063427
-0.025081
-0.019016
0.093857
0.044520
-0.001072
0.059768
0.038221
-0.016828
0.089603
-0.030735
-0.085241
0.049686
0.010205
0.040839
0.018371
0.003837
-0.062947
-0.022534
-0.043557
0.053957
-0.057618
-0.044675
0.099406
0.102693
-0.061398
0.021093
-0.056155
0.099203
0.055932
-0.076299
0.082573
0.007519
-0.065916
0.044053
0.025316
0.102333
0.022226
-0.065428
0.043674
0.023751
0.046461
0.101080
0.054001
0.067222
-0.035827
-0.040251
0.021054
0.014503
-0.039155
0.035868
-0.001914
-0.036892
-0.043797
-0.072876
-0.070647
0.062908
0.078256
-0.072613
0.068526
0.065142
-0.031867
-0.008697
0.031080
-0.041846
0.096244
0.090105
-0.005136
-0.007789
0.010321
-0.053618
0.002480
-0.068424
-0.066827
-0.054381
-0.043592
0.000576
0.013405
-0.000056
0.036237
-0.052322
-0.084582
-0.007572
0.005980
-0.102998
-0.024284
0.042465
-0.078962
0.025666
-0.037384
-0.089773
0.052506
-0.034227
-0.058560
0.008427
0.076432
-0.001805
0.021526
0.022336
0.061357
0.082780
-0.079535
-0.033929
-0.069777
-0.089803
-0.037503
0.068456
0.075212
0.073476
-0.061742
0.056653
-0.047836
0.015331
-0.028470
0.005251
0.001393
0.046580
-0.044446
0.021785
-0.075429
-0.037513
0.018126
0.085316
-0.058119
-0.004540
0.000568
0.028103
-0.035639
0.012227
-0.006115
-0.025165
-0.069383
0.007064
0.028731
0.000241
-0.078124
-0.087276
0.030839
-0.072690
0.051293
-0.073839
-0.087419
-0.043506
0.051949
0.035704
-0.063265
0.024674
-0.054407
-0.087150
0.043192
-0.068680
-0.032811
-0.068384
0.075022
-0.071211
-0.064136
-0.021431
-0.006923
0.007023
0.048072
0.037358
0.044776
-0.008106
-0.043840
0.008727
0.039319
0.077976
-0.082493
-0.053552
0.009260
-0.065117
0.044086
-0.061784
0.036990
0.048286
-0.010680
0.075089
-0.055008
-0.046220
-0.007268
0.068395
0.020874
0.084306
-0.017544
0.072262
0.059019
0.008493
-0.081214
-0.056488
-0.063615
0.009329
-0.014436
-0.061663
-0.051497
-0.001777
0.031804
-0.026219
-0.002792
-0.058516
0.029302
-0.010736
-0.055699
0.049466
0.021547
-0.013933
0.036935
0.035181
-0.042014
0.055998
-0.031491
-0.072966
0.078352
0.012443
0.050767
0.063104
-0.002991
0.079862
0.037804
0.003597
-0.018029
-0.052969
-0.041287
-0.007024
0.077278
0.000007
0.058817
-0.028717
-0.010261
-0.082578
-0.002483
0.025888
-0.074493
-0.080038
0.034826
-0.053764
0.029210
0.012227
0.037532
-0.047580
0.021926
-0.010273
-0.022455
-0.002618
0.063859
0.073516
-0.083715
-0.022455
0.021151
-0.038418
-0.021302
0.074253
0.070370
-0.055520
-0.037056
-0.070221
-0.007260
-0.001957
0.035972
0.013332
-0.059857
0.070516
0.037952
0.078691
-0.035478
0.030391
-0.081085
-0.074337
0.076812
-0.071270
0.044660
0.065371
0.027882
-0.010913
-0.033360
0.082561
0.011863
-0.020337
-0.048509
0.028087
0.072745
0.040073
-0.019983
0.056980
0.039988
0.069742
-0.049564
-0.079647
-0.030062
-0.039373
-0.034173
-0.072832
-0.075341
-0.028512
-0.064269
0.039368
-0.003506
-0.044374
-0.031006
0.012230
-0.030270
0.033018
0.009946
0.016321
0.041250
-0.023453
-0.081950
-0.042283
0.055165
-0.073325
0.020904
0.010533
-0.021182
0.016349
-0.051101
-0.070188
0.072839
0.067046
-0.016146
0.027693
0.016656
0.012590
0.040619
-0.086391
0.018801
0.000553
0.016689
-0.006765
0.011909
0.037936
0.029098
-0.079416
-0.082721
-0.053576
-0.003838
0.034092
-0.079204
0.011717
-0.036804
0.063318
0.007785
-0.082160
0.074939
-0.074043
-0.069177
0.076393
-0.001769
-0.057853
-0.091502
0.072812
0.073859
-0.036713
-0.058267
0.046155
-0.115091
-0.084808
0.044769
-0.029770
0.006579
0.076554
-0.102775
0.053392
0.004348
0.039635
0.064739
0.015747
0.057365
0.081529
0.035249
0.044938
-0.027251
0.053912
0.069669
0.112367
-0.091689
0.093965
0.079467
0.042393
0.078655
-0.066224
0.099856
0.098771
-0.028082
0.006215
0.075521
-0.022979
-0.010090
0.062745
-0.037540
-0.000700
0.114003
0.026046
-0.062107
-0.044452
0.001035
-0.022382
-0.030672
-0.010155
0.015585
0.025814
0.030517
0.018351
-0.040413
-0.063999
0.050009
-0.062856
0.035220
0.040985
-0.046655
0.036119
0.027166
-0.019295
-0.019912
-0.056064
0.034209
-0.067390
-0.019691
0.084554
-0.049480
0.010252
0.003710
0.107239
-0.007572
-0.083163
-0.052927
0.002970
0.065304
0.072912
0.024286
0.022718
-0.067746
0.084281
-0.046093
-0.030244
-0.057139
-0.074216
0.025932
-0.022647
-0.061656
-0.022968
-0.000539
0.008300
0.007592
-0.019474
0.048316
0.074961
0.109458
0.050045
-0.032909
-0.021966
0.027500
-0.006377
0.074350
0.066162
-0.083802
0.004811
-0.030555
0.047701
-0.088504
-0.098427
0.055498
0.042493
0.110118
-0.084296
-0.107699
-0.041362
-0.076204
0.007817
0.003261
-0.095087
-0.085788
-0.046443
-0.039359
0.094517
0.031677
-0.082720
-0.070361
0.092596
0.086262
-0.071530
-0.062958
0.025224
-0.079491
0.062615
0.080149
0.068387
0.093897
0.099745
0.029673
0.032532
0.020104
-0.047407
-0.012683
-0.076885
-0.067100
0.085514
0.071061
-0.074361
-0.012295
0.084891
-0.027354
-0.012707
-0.102905
0.076906
0.052102
0.022009
0.106900
0.087930
-0.002971
0.092229
0.039450
0.074832
-0.037507
0.085723
0.036142
0.089955
-0.022843
-0.066439
0.059026
0.018266
-0.023541
0.092984
0.094855
0.015300
0.045259
-0.005921
-0.005567
-0.064078
-0.034299
-0.011474
0.074763
0.015929
0.022331
-0.076254
0.028169
0.024518
0.094208
0.036985
0.007352
-0.076626
-0.092947
-0.033090
0.082943
-0.009443
0.112730
-0.031859
0.043244
0.041414
-0.089977
0.037932
-0.007815
0.044083
0.069243
0.082581
-0.104108
-0.024394
-0.001069
0.044008
0.050172
-0.057748
0.088541
-0.016149
-0.020376
0.063903
0.025832
0.102251
0.070171
-0.042237
-0.011395
0.048352
0.067242
0.050307
-0.066377
-0.039299
0.033101
0.081798
0.025042
-0.036617
0.079616
0.114802
0.087018
-0.055078
0.041286
0.106881
0.002546
-0.073249
-0.065528
-0.070368
-0.058989
-0.002261
-0.047419
-0.097053
0.022415
-0.059103
0.046495
-0.074693
-0.036175
0.006492
-0.047031
0.084603
-0.063393
0.095282
-0.048010
0.074265
0.003868
-0.084664
-0.038830
0.037032
0.081766
-0.043770
0.082465
0.044409
-0.060817
0.051486
-0.046506
-0.014704
0.107033
-0.056584
0.011233
0.046837
-0.085813
0.051902
-0.044298
-0.092880
-0.049429
-0.074279
0.100541
-0.049243
0.075737
-0.077580
0.053618
-0.019276
-0.043727
-0.040305
-0.028471
-0.013205
-0.074413
-0.076594
-0.030272
0.085445
-0.099413
0.022538
0.072994
0.009581
-0.094203
-0.009166
-0.112844
0.044264
0.040192
-0.034972
0.001305
0.004613
-0.077463
0.012306
-0.005533
-0.083629
-0.061037
-0.043362
0.042719
0.024583
-0.072275
-0.049170
0.031237
0.033983
-0.030372
0.065698
-0.054164
-0.083264
0.046581
-0.006079
-0.053745
0.095162
-0.057522
0.096648
-0.021952
0.090995
0.079017
-0.022246
-0.086026
0.093699
-0.080725
-0.024630
0.065413
-0.113310
0.033757
0.041460
-0.027579
-0.015410
-0.104688
-0.071099
-0.043843
0.096596
0.028463
0.063330
0.095775
0.012059
0.098606
0.086840
-0.092122
0.019329
0.055224
0.000415
-0.055513
-0.025743
0.056356
-0.031237
0.016769
-0.097962
-0.053434
-0.043998
0.056288
-0.083372
0.034855
0.089998
0.060136
-0.034292
0.000596
-0.038079
0.068169
0.041891
0.058803
0.090936
-0.014712
0.022511
-0.037641
0.089903
0.034869
-0.016642
-0.068636
-0.110617
-0.008987
-0.014778
-0.020915
-0.022895
-0.044920
-0.030353
0.101020
0.072360
0.029641
0.095104
0.076045
-0.023704
0.024628
-0.075590
0.040149
-0.073071
-0.060495
0.042565
0.032765
0.067818
-0.027435
-0.058079
-0.099251
0.027679
0.004243
-0.005008
0.001305
-0.019696
0.110171
0.059383
-0.069529
0.039890
0.056513
0.074516
-0.075725
-0.058044
-0.053154
0.071534
0.049718
-0.042902
-0.080366
-0.066462
-0.070544
-0.036766
0.015869
0.027516
0.088941
-0.051997
-0.032040
0.007473
-0.067530
-0.100338
-0.002998
-0.026764
0.063151
-0.037853
0.094044
0.006463
-0.055931
-0.024945
0.036059
0.033537
-0.106183
0.078215
-0.084593
0.074806
0.063838
0.070302
0.033071
0.046691
-0.047416
0.053781
-0.042319
-0.016732
0.080987
-0.004873
0.028235
-0.025578
-0.008082
-0.078984
0.067232
0.054383
0.094753
-0.069581
-0.046970
-0.015382
-0.068075
0.030881
0.029184
0.048626
0.047447
-0.060870
-0.030784
-0.082437
-0.070547
-0.015141
-0.023624
0.048779
0.035356
0.017459
-0.058062
0.009641
-0.017405
0.016776
-0.089725
-0.006953
-0.023774
-0.025664
-0.070667
-0.079125
-0.075760
0.090259
-0.059182
0.117586
0.078824
-0.024298
0.089323
0.097487
0.007409
0.059570
-0.002666
-0.001266
0.065862
0.103102
0.032806
-0.083062
0.073760
0.009213
-0.061589
-0.011918
0.113876
-0.027606
-0.090891
0.043750
-0.002993
0.021383
0.006124
0.015509
0.068800
0.026747
-0.034209
-0.029191
0.068729
0.058042
0.079068
-0.071435
-0.035812
-0.034764
-0.086732
0.010721
0.013938
-0.061287
0.103969
-0.035447
-0.071426
-0.047794
-0.027594
-0.057335
0.008797
0.038737
-0.101539
0.023496
-0.094665
-0.044458
0.063837
0.001728
-0.078426
0.066875
0.045816
-0.013796
0.006232
-0.039245
-0.051245
-0.040630
-0.062065
0.026179
-0.032838
0.092747
-0.017434
0.016221
0.089733
-0.002496
-0.086791
-0.027929
0.000774
-0.019443
0.023023
0.058111
-0.069863
0.102195
-0.063036
0.012167
-0.065828
-0.010220
0.094681
0.017049
0.022401
0.071712
-0.094025
0.049255
-0.003609
-0.071661
-0.018563
-0.055626
-0.097872
-0.027262
0.036805
-0.014154
0.071580
0.001949
0.098963
0.067620
-0.076252
0.052787
0.018288
-0.056443
0.073082
0.010801
-0.030140
0.029932
-0.019155
0.002429
-0.004672
-0.019777
-0.026512
0.019192
0.047532
-0.014158
-0.035526
-0.037261
-0.074540
-0.099078
0.066776
-0.047059
-0.096561
-0.067888
-0.006863
-0.064219
0.038262
0.112676
0.029671
0.075266
-0.069834
-0.090719
-0.071480
0.094966
0.092019
0.109176
0.059411
0.045734
-0.012473
0.042525
0.046247
-0.078702
-0.069748
-0.059647
0.012994
-0.052155
0.022838
0.035399
-0.028794
0.052104
-0.059221
-0.069382
-0.006128
-0.059235
-0.046886
0.053690
-0.055021
0.038283
0.053046
0.069941
-0.077697
0.015579
0.007229
-0.015331
-0.064666
0.087428
0.055146
-0.052057
-0.035579
-0.069882
-0.011364
-0.055400
0.041464
-0.013623
-0.049235
-0.072710
0.052436
0.041384
-0.028300
-0.060512
-0.011372
0.022080
-0.074939
-0.084703
-0.079759
-0.067697
0.008311
-0.056457
0.001567
0.024262
0.077260
0.061240
-0.027695
-0.046841
0.068901
-0.043533
0.060926
0.044595
-0.079283
-0.003082
0.057261
-0.081813
-0.038932
0.071498
-0.006412
0.043674
0.011945
-0.087633
-0.081666
-0.020541
0.030413
0.009371
-0.001552
0.061109
-0.020890
0.037184
0.073780
0.001601
0.066271
-0.044875
-0.042990
0.049604
0.047294
0.038584
-0.079604
0.001010
0.084192
-0.043188
0.082039
-0.026141
0.034707
-0.083858
-0.010546
0.024349
-0.030916
-0.010896
-0.075169
0.017851
-0.039195
-0.087243
0.043594
0.059028
-0.003232
0.059073
-0.012635
0.077248
-0.081257
0.041865
0.023592
-0.077465
-0.067379
0.082033
-0.019596
0.032945
-0.027787
-0.078108
0.008515
-0.078878
-0.071829
-0.005800
-0.059758
-0.046651
0.016149
-0.061181
-0.081331
0.026834
-0.076688
0.047264
-0.070715
0.044781
-0.041373
0.053256
0.007192
-0.012640
0.029732
0.011067
-0.017235
0.004480
0.069698
0.046072
-0.003467
0.040069
-0.015857
-0.001416
0.085668
-0.039534
-0.059640
0.034535
-0.084491
-0.079646
0.010370
-0.096251
-0.064983
-0.064620
0.071211
0.051261
-0.067575
-0.030753
0.035742
-0.090373
0.057839
-0.060438
0.048662
0.052395
-0.088570
0.081540
0.014939
-0.025894
-0.087167
-0.091613
-0.056422
0.074678
0.059325
-0.070268
-0.028195
-0.031548
0.016364
0.064905
0.067986
0.005462
-0.046341
0.040580
-0.049539
-0.041819
0.069192
0.002265
0.054058
-0.022470
0.054330
0.045747
-0.040538
-0.028492
0.035524
-0.032123
0.083682
-0.049299
0.087635
0.008523
0.033008
-0.048681
0.064339
0.042311
0.029865
0.042139
0.029916
-0.015085
0.008392
-0.065427
0.014490
-0.072714
0.032760
-0.011467
0.062247
-0.011083
-0.057076
-0.081304
-0.057250
0.005158
0.076072
0.022708
-0.027425
-0.080178
-0.026273
0.020381
-0.053160
-0.041239
0.021586
0.047535
0.038019
-0.068627
0.012378
0.008675
-0.088734
0.009251
-0.028490
-0.076629
-0.040044
0.008970
0.015365
0.062049
-0.045394
0.002376
0.023783
-0.041966
0.011216
-0.061830
-0.045523
0.035086
0.010116
0.000464
0.062012
0.054631
-0.010746
0.027681
-0.024085
0.041173
-0.093523
0.044453
-0.072452
-0.066302
-0.025491
0.016685
0.009885
0.013619
0.080460
-0.005435
-0.047928
-0.010546
-0.071397
0.027846
-0.052041
0.072859
0.031891
0.085072
0.071632
0.067470
-0.007655
-0.057233
0.021892
0.079315
0.056457
-0.035795
-0.009225
-0.069009
-0.000625
-0.010693
-0.078461
-0.059821
0.049826
0.022278
0.006096
0.003197
0.015639
-0.050039
-0.030368
-0.072839
-0.087979
0.058358
0.017645
-0.051121
-0.016819
0.005745
-0.031421
0.039604
-0.024280
0.018181
-0.037174
0.049572
0.071411
-0.002394
0.026209
-0.014199
-0.056765
0.049280
0.062384
-0.036367
0.011292
-0.035740
-0.074698
-0.074995
-0.019751
0.041845
0.069357
-0.073620
-0.010156
0.026984
-0.017660
-0.074277
0.086319
-0.044143
0.025662
-0.021403
0.069998
-0.062825
-0.070804
0.046905
-0.011834
-0.053261
-0.024262
-0.019015
-0.010916
-0.025346
-0.061102
-0.040642
-0.020182
-0.060823
0.049454
-0.019541
-0.055700
0.013340
-0.085292
-0.042155
0.082947
-0.016765
0.029683
-0.037845
-0.028782
-0.057874
-0.035078
-0.040809
-0.080741
-0.054349
-0.050559
0.063712
0.083020
0.034463
0.027879
0.034170
0.014931
0.083531
0.030237
0.047725
-0.082613
0.087507
-0.068178
-0.079088
0.075044
-0.052117
0.031274
-0.045360
-0.013700
0.008346
-0.023396
-0.045552
-0.032027
0.005275
0.023347
0.053963
0.102563
-0.067966
-0.029444
0.020286
0.100577
0.036741
-0.060235
-0.047430
-0.000666
-0.017621
0.083277
-0.016594
0.048129
0.069014
0.040539
0.085643
0.005949
0.016415
0.006340
-0.103902
0.082630
-0.037510
0.099239
-0.022831
-0.093924
-0.052856
0.076111
0.067349
-0.023028
0.095923
-0.061737
-0.071594
0.079941
0.032904
0.036403
-0.068131
0.115504
-0.076638
0.073533
0.053035
0.021551
-0.005277
0.084095
0.043512
-0.042220
0.033721
0.038489
-0.041711
-0.012751
-0.073329
0.076243
0.055812
0.052817
0.015402
0.061473
0.030617
-0.021593
0.097245
0.035185
0.033313
-0.063994
0.011111
0.071140
0.093646
0.042919
0.051632
-0.032883
0.105311
0.056230
-0.071612
0.058556
-0.003868
0.011859
-0.042825
-0.097202
0.051418
0.041246
-0.084488
0.035687
-0.006923
-0.007104
0.035526
-0.038263
0.097484
-0.030149
0.083609
-0.012403
0.062106
0.029824
-0.028582
0.015248
0.093938
-0.036853
0.014127
0.079720
0.041768
0.065048
-0.017079
-0.008089
-0.030771
0.065130
0.033753
0.065720
-0.033749
0.072256
0.029598
0.103978
-0.061049
0.059135
0.088183
0.092228
-0.085608
0.022890
-0.056690
-0.014292
0.107097
-0.039775
0.019804
-0.107436
-0.018127
-0.006637
0.041929
0.053841
0.016637
0.035406
0.015964
0.023517
-0.003999
0.036230
0.013870
0.082085
-0.097510
-0.078066
-0.040975
0.104368
-0.044400
-0.031124
-0.058665
0.007222
0.068145
-0.000118
0.001328
0.069538
-0.012313
0.075597
0.082604
0.059741
0.081076
0.005488
0.024169
-0.080570
0.027421
0.083201
0.040329
-0.079698
-0.094181
-0.015319
-0.065960
-0.025351
0.093683
-0.047676
0.054257
0.068928
0.033803
-0.092277
0.041816
-0.024133
-0.056166
0.056538
0.070201
0.055131
0.026905
-0.086821
-0.086257
-0.060800
0.004516
-0.054349
0.047121
0.079806
-0.026753
0.037033
-0.073387
0.006325
-0.039515
-0.003916
0.012024
0.056742
0.000425
0.039109
-0.065330
-0.094049
-0.002772
0.053751
-0.052710
-0.075320
-0.003409
0.016171
0.036978
-0.081712
-0.020892
0.066023
-0.045735
0.097441
0.007993
-0.071402
-0.014016
-0.016913
0.055464
0.011969
0.007550
-0.028443
0.064033
0.012504
-0.020974
-0.003356
0.017344
0.071961
0.037333
-0.008162
0.019165
-0.011900
-0.001740
0.021687
0.089982
0.026799
-0.029137
-0.031242
-0.047774
-0.092892
-0.053834
0.024114
0.038041
-0.051644
-0.078609
-0.000542
0.089195
0.018750
0.013559
-0.077954
0.074406
0.010142
0.059271
-0.084466
-0.091265
0.054465
-0.047845
-0.024014
0.063851
-0.044516
-0.013612
-0.066703
-0.001002
0.024285
0.001664
-0.021263
-0.100094
-0.008268
0.084859
0.039019
-0.037536
0.034654
0.056350
0.048541
0.069066
-0.037161
-0.054750
0.072603
-0.060568
-0.082377
-0.014187
0.093640
-0.028318
0.085858
-0.072921
0.002211
-0.048395
-0.063025
-0.090771
-0.035989
-0.083724
-0.020927
-0.096681
0.030186
-0.086956
0.028469
-0.046701
-0.069732
0.039556
0.016792
-0.028402
0.041766
-0.080478
0.017290
0.018188
0.034100
-0.097374
0.028258
-0.085865
0.060782
0.068359
-0.106066
0.002338
-0.041598
0.045725
0.022674
0.034172
0.038815
-0.071618
0.031115
0.002586
-0.071277
0.023199
0.058315
-0.078219
-0.096547
0.034545
0.059355
-0.021478
-0.103366
0.078308
-0.004760
0.050448
0.011046
-0.054026
-0.092472
0.025029
-0.099387
0.073254
0.090077
0.078244
-0.058340
-0.027495
0.068320
0.063062
-0.044360
0.076656
0.065097
-0.066688
0.010969
0.007464
0.015765
0.083813
-0.013335
0.074416
0.080433
0.092715
0.002496
-0.040815
0.043054
-0.023214
0.011290
0.011040
0.078156
0.009945
-0.022807
-0.047543
-0.081212
0.041533
-0.015220
-0.110528
0.044532
-0.084167
0.016340
-0.039480
-0.008277
0.033224
-0.040155
-0.049309
0.036500
0.056798
-0.072159
0.037202
-0.034638
0.073598
0.114973
0.010431
-0.051564
-0.062934
0.007776
0.098250
0.026663
-0.075480
-0.015826
0.036289
0.065128
0.037983
0.059696
-0.022341
0.019418
-0.015641
0.092692
0.042139
0.016053
0.068259
0.064070
-0.016084
-0.083965
-0.043733
0.093231
-0.052000
-0.081337
0.010388
-0.067694
0.104000
0.071776
-0.084059
0.016602
0.085083
-0.017261
0.051370
-0.044258
0.073863
0.103099
-0.030025
0.029526
0.001728
-0.008055
-0.032761
-0.069469
0.011631
-0.055006
0.048493
0.005046
0.072387
0.026107
-0.036613
-0.077675
-0.038827
-0.022533
-0.058965
0.034446
0.032123
0.023140
-0.013106
-0.020288
-0.076434
0.017673
0.038872
-0.022698
0.083444
0.013275
-0.070347
0.024482
-0.089865
0.078393
-0.016627
-0.103255
-0.051208
0.064372
-0.070727
-0.003548
-0.091042
-0.013448
-0.064205
0.005535
0.078362
-0.025442
0.065324
0.017747
0.052005
-0.090685
-0.055331
-0.083965
-0.062200
0.017425
-0.053750
0.067998
-0.004078
0.046147
-0.031713
-0.037699
-0.041412
-0.053405
0.039809
0.033153
0.026799
0.069754
-0.088315
-0.034990
-0.057062
0.026174
0.072885
-0.009477
0.075130
0.069257
-0.038524
-0.038024
-0.009768
0.004925
0.041860
0.003480
-0.048641
-0.045444
0.046933
-0.011639
-0.037268
-0.028138
0.092788
-0.049182
-0.032569
0.001141
-0.008789
0.029630
-0.067937
-0.077520
-0.004596
0.036646
0.012311
0.039168
-0.005574
-0.059161
-0.074749
-0.071711
-0.062756
0.082181
-0.073471
-0.079123
0.113183
0.043085
-0.030411
0.038266
0.090566
0.080357
0.000203
-0.048643
0.016344
-0.041188
0.055368
-0.029225
0.056986
0.032163
-0.026362
-0.070614
-0.076398
-0.027699
-0.067451
0.045637
-0.025657
-0.083975
-0.008320
0.097363
-0.020485
0.020759
0.052229
0.008260
-0.001001
-0.037172
0.059061
-0.030481
0.029319
0.044284
-0.025291
0.016275
-0.100188
-0.023745
-0.070361
0.059770
-0.055269
-0.031931
0.023733
-0.002563
0.111206
-0.007908
-0.045436
0.047884
-0.064191
-0.060652
-0.033919
-0.044497
-0.037116
-0.054713
0.089151
0.006671
-0.041451
-0.030390
-0.043968
-0.109016
-0.019095
0.040134
-0.061626
-0.031253
0.087227
-0.014221
0.089447
0.113771
-0.058145
-0.000777
0.060743
0.061041
0.091268
0.084941
0.053531
0.006067
0.003703
0.044976
-0.083925
-0.073421
0.058147
-0.079857
-0.023999
-0.007031
0.096343
0.009611
0.057710
-0.060507
0.003605
0.049795
0.095858
-0.012169
0.105260
-0.021688
-0.020391
-0.055102
0.004082
-0.036265
-0.086110
-0.101069
-0.095453
-0.028053
-0.017416
-0.059641
0.016004
-0.058620
0.044724
-0.035383
-0.002810
-0.057430
-0.046111
0.036712
0.057536
0.111849
0.034411
-0.055306
0.040221
-0.012919
0.056543
-0.027849
0.012676
-0.021628
-0.039694
0.033677
-0.041796
-0.007259
-0.016485
-0.020711
-0.058346
-0.036100
0.003190
-0.109154
0.003482
0.075734
0.005812
0.015237
0.071121
-0.108303
0.083059
0.004743
0.010394
0.007033
0.058063
0.012458
0.094876
0.013959
-0.038729
0.066631
0.113230
0.014735
0.062664
-0.052969
0.030684
-0.046559
-0.061550
0.072247
0.030995
0.032868
-0.066576
0.095678
-0.037240
0.039843
-0.042871
0.069654
0.057876
0.045014
-0.080602
0.049892
0.080011
-0.082633
0.080114
0.108336
0.035449
-0.011836
0.013821
0.013528
0.048420
0.057459
0.040911
0.053690
0.033704
0.068915
-0.008387
0.066327
0.052244
-0.009824
0.071624
0.090047
-0.044144
-0.070850
-0.047572
0.033858
-0.022732
0.044018
0.020270
0.007124
0.062343
-0.051081
0.020467
0.100205
-0.072987
-0.021315
0.033538
-0.054422
0.019069
-0.075540
-0.057432
-0.041598
0.077354
0.075573
0.089557
-0.054304
-0.103466
-0.097768
0.008515
0.000816
-0.017286
0.041669
0.030696
0.107035
-0.035463
-0.038610
0.034814
0.108747
0.111600
0.017999
-0.048265
0.105570
-0.006328
-0.062319
-0.001174
0.027661
0.034708
0.106935
-0.024514
0.030300
-0.018473
-0.056788
0.068182
-0.002643
0.014187
-0.081239
-0.083690
0.053921
-0.058652
-0.041249
-0.052753
-0.081545
-0.009151
0.007146
0.043869
-0.006228
-0.072011
0.025064
0.066804
0.000243
-0.019024
-0.010695
-0.063872
0.073065
-0.000559
0.006115
0.012818
0.037395
-0.015472
0.061188
0.020930
-0.018626
-0.047855
-0.048341
-0.072643
0.007110
0.075119
-0.085598
-0.014704
-0.074306
-0.047970
0.025198
0.091232
0.071162
-0.006530
-0.024647
-0.046615
-0.073659
0.047497
-0.033808
-0.054863
-0.031621
-0.050879
0.013346
-0.043399
0.050929
0.001693
-0.056540
-0.015130
0.004154
-0.079598
0.026517
-0.036855
-0.076882
-0.056744
-0.014869
0.050443
-0.002027
-0.015047
-0.078763
0.060737
-0.017026
-0.084866
-0.071322
0.050563
-0.056166
0.011234
0.025582
0.081513
-0.041379
0.086666
-0.008829
0.046479
0.066234
0.053875
-0.053156
-0.011315
-0.082668
-0.026538
-0.042085
-0.057944
0.069982
-0.011209
0.039086
0.028791
0.005751
-0.068756
-0.074953
-0.068505
0.019815
-0.079066
-0.064222
-0.029487
0.044960
-0.024262
-0.009886
-0.001024
0.081602
0.085361
-0.084317
-0.038688
-0.035093
0.063996
-0.076598
-0.042389
-0.076366
-0.057851
-0.007726
0.005682
-0.068751
0.021340
0.080926
-0.033018
0.058410
0.041895
-0.021275
0.047973
-0.030455
0.083159
-0.015709
-0.015265
0.080709
0.015064
-0.031147
0.067040
-0.081895
0.048515
0.085234
-0.086605
-0.035284
0.033275
-0.013450
0.016965
0.010256
-0.022767
0.084518
0.028525
0.052866
-0.006556
0.027164
0.003673
-0.024392
0.069015
0.085587
-0.009841
-0.029703
0.003763
-0.068383
-0.021025
0.050805
-0.061947
0.011665
-0.021414
-0.066657
-0.060436
0.032799
0.008718
0.070746
-0.013787
-0.024011
-0.028432
-0.067622
-0.043148
0.020128
-0.019227
0.026093
-0.000790
0.005022
0.059562
0.047796
-0.056714
-0.010550
-0.066397
-0.027251
-0.073776
-0.078910
-0.017382
0.042119
-0.034763
0.008930
0.060838
0.020851
0.036505
0.034033
-0.058722
-0.003677
0.016440
0.054758
0.079351
0.010841
-0.059306
0.028804
0.031892
0.081315
-0.027433
0.037146
0.003907
-0.077379
0.045623
0.055150
-0.086703
-0.004596
-0.075488
-0.008953
-0.028497
-0.055569
-0.000772
0.027078
0.087328
0.031642
-0.074787
0.039355
-0.077753
0.016214
0.076886
0.002330
0.034265
-0.037851
0.075120
0.057793
-0.079264
0.026001
0.084097
-0.079083
0.011835
-0.057570
-0.087283
-0.072101
0.012220
-0.062711
-0.043245
0.019101
-0.025793
0.027692
0.052702
-0.054247
0.008055
0.007471
0.020792
-0.047930
-0.062034
-0.055336
0.071619
0.015425
-0.059668
-0.014301
-0.072025
-0.028657
0.012683
0.044531
0.042629
-0.041408
0.010243
0.018211
0.036398
-0.011817
0.065415
0.026881
-0.057133
-0.070420
-0.048476
0.001825
0.072064
0.104074
-0.016048
0.063539
0.024656
-0.032821
-0.053875
-0.042354
-0.019087
-0.045119
-0.026058
-0.037067
-0.078101
-0.050574
0.021073
0.030287
0.077280
-0.031343
0.083740
-0.005852
-0.070186
-0.030138
-0.010286
0.106629
-0.081057
-0.022663
-0.032110
0.060784
0.037530
-0.014411
0.096674
-0.092576
0.023194
0.018369
0.011507
-0.084122
-0.020536
-0.067516
0.021428
0.075904
-0.074916
-0.023200
-0.062318
-0.067997
-0.004611
0.051058
0.017297
-0.028326
0.119969
0.080375
-0.022760
0.015610
0.091139
0.056629
0.077730
0.038322
-0.061479
-0.077119
-0.076871
0.055078
0.018733
0.034523
0.039463
-0.099743
-0.050183
-0.016886
-0.065825
-0.061026
-0.054699
-0.018012
-0.050763
0.029596
0.087413
0.033294
-0.052006
-0.006255
-0.050463
-0.022252
0.055432
0.035134
0.004674
0.048447
0.021944
0.046010
-0.037884
-0.103579
-0.065501
-0.053029
0.100693
0.050231
-0.061934
0.065697
0.006441
0.091743
0.109050
0.031556
0.017666
0.044714
-0.037354
-0.082875
-0.039146
-0.077407
-0.006913
-0.062354
-0.063722
0.027678
0.029514
0.011934
0.060175
-0.027577
0.069756
0.012569
0.106004
-0.002562
0.054442
-0.052359
0.001375
-0.006157
0.015271
-0.035071
0.071851
0.042034
-0.005955
-0.003116
0.046692
-0.036114
-0.089497
-0.098812
0.063227
0.027444
0.010391
-0.033273
0.108621
0.066304
0.060476
-0.020765
-0.026669
-0.012015
0.024161
-0.016112
0.044970
0.061731
-0.065269
0.069039
0.046846
-0.087068
0.074619
-0.014508
-0.041797
-0.009088
0.083656
0.069317
-0.102242
0.080841
0.037699
-0.016895
-0.078538
0.034228
-0.008795
0.012948
0.045447
0.055256
-0.081313
-0.088396
-0.075374
0.021433
0.054755
-0.056799
-0.057742
-0.048015
0.023824
-0.036157
-0.031427
0.029508
-0.024658
0.021856
0.061336
0.066218
-0.090204
0.038832
-0.027557
0.031655
-0.030713
0.041313
-0.026228
-0.000890
0.033673
-0.007593
0.019229
-0.018349
-0.060061
-0.005467
-0.085980
-0.062235
0.000984
0.020985
0.096419
-0.036742
0.031463
-0.034563
0.050512
0.094028
-0.075516
-0.087763
0.079269
0.027586
-0.024200
-0.055020
-0.104675
0.100099
-0.054088
-0.062461
-0.053202
-0.075795
-0.050665
0.011489
0.091658
0.086583
-0.065696
0.068964
0.056786
-0.008323
-0.045507
-0.069255
0.004983
0.017295
0.019777
-0.048082
-0.007261
0.036536
0.045487
0.036561
0.057743
-0.012559
0.037023
-0.063902
-0.060029
-0.000728
-0.017181
0.113675
0.066423
-0.046190
-0.026799
0.056001
0.034162
0.014967
0.103109
0.072489
0.055963
-0.070269
0.040071
-0.001209
0.008260
0.077348
0.051932
-0.005055
-0.019062
-0.027753
0.015553
-0.094871
0.031760
0.090243
-0.077083
-0.024069
0.040437
0.004154
-0.015440
-0.096127
-0.094500
-0.010399
-0.009821
-0.059798
-0.038445
0.001624
0.003294
0.022132
-0.106943
0.009671
0.079268
0.090266
-0.022801
-0.053315
0.040750
0.013886
-0.013333
-0.094793
-0.009825
-0.107155
-0.000738
0.001290
-0.071996
-0.006566
-0.060029
-0.072193
0.017925
0.081799
-0.026460
0.014182
0.080222
-0.073088
-0.037830
0.047106
0.029047
-0.053053
0.089610
0.005787
-0.095988
-0.046832
-0.048543
0.035102
0.020157
-0.042820
0.009140
-0.022886
0.002483
0.022186
0.054289
-0.005002
-0.022447
-0.104276
0.055706
-0.050920
-0.059984
-0.006544
-0.007167
-0.106280
0.073681
-0.046126
0.005681
-0.031743
-0.051665
-0.014435
0.006325
-0.017034
0.085093
0.094132
-0.024272
0.092587
0.039557
-0.074481
-0.067034
-0.062765
-0.043922
-0.039812
0.038418
0.004295
0.068205
-0.007875
-0.056086
0.042042
-0.068467
-0.050133
0.054452
0.008238
0.076770
-0.064233
0.031850
-0.032248
-0.034882
-0.034126
-0.020097
-0.007458
0.035277
-0.036896
-0.106624
0.016330
0.079978
-0.019106
-0.029709
0.003097
0.063685
0.036116
0.078794
-0.053181
0.079461
0.051313
-0.005061
0.055002
0.066935
0.008211
-0.071164
0.076499
-0.044974
-0.004053
0.047453
-0.066511
-0.013120
0.041299
-0.035370
-0.076468
0.043481
0.046943
-0.082698
0.037752
0.017177
-0.034616
0.033412
0.066322
0.075564
0.071594
0.006012
0.038614
-0.049620
-0.062608
-0.005174
-0.005091
-0.082807
0.026809
0.040574
0.038539
-0.074897
-0.062841
-0.055014
0.055344
0.021149
-0.035109
-0.009964
0.024444
-0.020176
-0.064220
-0.034734
0.011951
0.090801
0.027751
-0.011780
0.057739
-0.018824
-0.020491
0.026460
0.009769
-0.015661
0.010962
0.030608
-0.046034
0.022474
-0.053094
-0.034994
0.071184
0.071836
0.078139
0.038049
0.018746
0.082775
-0.004183
-0.049984
-0.062660
0.061577
0.070938
-0.033670
-0.027614
-0.002541
0.062039
0.000963
-0.018778
-0.016909
0.067684
-0.029278
0.019958
-0.067082
-0.008016
0.084365
-0.010167
-0.076040
-0.025883
-0.015895
0.059786
0.032873
-0.071559
0.054250
0.043784
-0.081220
0.022999
-0.053318
-0.012271
-0.078012
0.061215
0.065923
0.065120
0.071646
-0.012245
0.033556
0.029771
-0.087951
-0.078081
-0.033827
-0.041456
0.047946
-0.006096
0.014799
-0.050869
0.056936
0.011494
-0.037932
0.014259
0.031695
-0.036888
-0.048409
0.023200
-0.069027
-0.034510
-0.055136
0.009274
-0.076481
0.056266
-0.030715
-0.045429
0.076944
0.075399
0.067762
0.024423
-0.023860
0.022022
0.029980
-0.039958
-0.070592
0.016213
0.042255
-0.013779
-0.013420
0.087610
0.104662
0.038613
-0.086183
-0.005963
-0.023629
0.015696
-0.004864
-0.063098
0.004833
-0.079135
-0.057175
-0.012759
-0.029757
-0.093365
0.061440
0.018584
0.036191
-0.036242
-0.000265
-0.036202
-0.028712
0.008897
0.038139
-0.056303
0.012962
0.060879
-0.056593
-0.067494
-0.077673
-0.068516
0.030441
-0.058015
0.005971
-0.058032
-0.033848
-0.014123
-0.071589
0.065537
-0.079604
0.021993
0.090748
0.016967
-0.038196
0.029737
-0.000026
-0.068754
0.053793
0.011211
-0.051338
-0.058918
0.043054
0.069919
0.049185
0.057912
-0.065202
-0.010160
-0.062126
-0.000420
-0.085142
0.015165
0.078314
-0.059206
-0.014491
0.008031
0.011439
0.093616
0.033766
-0.086358
-0.041505
-0.027918
-0.014438
0.040445
0.007495
-0.000022
0.076207
0.077712
0.044798
0.036062
-0.062829
0.075835
-0.030134
-0.051962
-0.080533
0.045906
-0.026637
0.047568
0.057395
-0.022660
-0.050507
0.077633
-0.077530
-0.005998
0.001345
-0.071947
-0.070535
0.013094
0.002163
0.051108
0.047338
-0.041077
-0.061110
0.001209
0.054185
0.104136
0.023603
-0.050240
0.038395
-0.042255
-0.026750
0.065462
0.107451
-0.082119
-0.054077
0.053601
0.004171
0.036176
0.026674
-0.061932
-0.015052
-0.062016
-0.047270
0.059637
0.099599
0.042445
-0.109005
0.005485
-0.026643
-0.004210
-0.023263
0.088841
0.065884
-0.040897
0.066880
-0.069463
0.075490
0.020482
-0.007100
-0.032704
-0.027165
0.008183
0.086158
0.092996
0.023030
0.015754
0.046404
-0.080729
0.003963
-0.111401
0.112714
-0.049976
-0.093136
-0.015191
-0.078850
0.111310
0.008935
0.080712
-0.049523
0.044255
0.068501
-0.074187
0.081973
0.111917
-0.029680
-0.019628
0.086155
0.056631
-0.019446
0.023326
-0.060021
-0.069914
0.079675
-0.051650
0.063637
0.087958
0.066177
0.040180
-0.008030
0.063673
-0.078648
0.074312
0.007234
0.003200
0.032869
0.055095
-0.009024
0.072929
-0.015132
-0.033218
-0.010318
-0.054413
-0.024513
-0.091776
0.008917
-0.085498
-0.046570
-0.017455
0.043318
-0.028719
0.014506
-0.008695
0.074133
0.029442
0.061038
0.019280
-0.001803
-0.036245
0.033163
-0.013212
-0.046055
-0.095454
0.073519
0.044271
0.058905
-0.027143
0.033825
0.009528
-0.076187
0.036114
-0.028250
0.090918
0.003767
0.019508
0.109845
0.037104
0.021119
0.092321
-0.056480
0.052956
0.086919
0.054024
-0.056160
0.055690
-0.097688
0.079613
-0.051245
0.091367
0.061071
-0.064738
0.047386
-0.078305
-0.054616
0.045897
-0.106169
-0.066516
0.009468
0.058376
0.018300
-0.098720
0.056531
0.093643
-0.054948
-0.074814
0.047615
0.036145
-0.013556
0.005460
0.108889
0.015829
-0.039420
-0.038343
-0.035003
-0.053974
0.054277
-0.072694
0.072884
-0.047220
0.080839
-0.068094
0.010123
0.048476
-0.032456
-0.052543
-0.050033
0.013113
0.012202
0.084769
-0.003851
-0.103578
-0.004062
-0.077365
0.042969
0.066535
-0.025295
-0.055733
0.063697
-0.083108
0.045594
0.012112
0.028982
-0.034932
-0.076455
-0.049720
0.019387
0.005536
0.006259
-0.065615
0.096380
-0.060188
-0.060052
-0.002449
-0.037608
-0.063927
0.063632
0.006855
0.024621
-0.047590
-0.046993
0.072054
-0.026379
0.052962
0.086178
-0.029447
0.029699
0.011766
-0.014313
-0.073485
-0.063622
0.063463
0.084466
0.090400
0.098961
0.087299
-0.105323
-0.069406
0.098613
-0.009200
-0.079606
0.034506
-0.072838
-0.035042
-0.002277
-0.049295
-0.052584
-0.035259
-0.061999
0.056399
0.070166
-0.041467
-0.018468
0.102878
-0.023375
-0.054172
0.044957
0.012822
-0.042248
0.089556
0.078331
0.000967
-0.016535
-0.055956
-0.048652
0.022296
-0.072751
-0.095183
-0.078739
0.010680
-0.072545
-0.047079
0.017781
0.111095
-0.048836
0.052564
-0.017540
-0.064353
0.066967
-0.029748
0.067036
0.046708
0.029561
0.033003
0.092587
0.060571
0.051256
0.035038
0.054490
0.032748
0.054514
-0.024698
0.019737
-0.027731
0.017266
-0.054928
0.005243
0.006003
-0.056589
0.065812
0.027885
0.016305
0.062643
0.003068
0.110273
0.071499
-0.018098
0.042331
-0.119053
-0.023851
-0.040530
-0.048573
-0.027639
-0.006383
-0.025701
-0.044296
0.090038
0.004522
0.069134
-0.034647
-0.026749
0.035609
0.062036
-0.024111
-0.011902
0.020289
0.056619
0.077335
-0.061347
-0.021368
0.073191
-0.003123
0.030642
0.022355
0.078066
-0.041265
0.068207
0.086836
-0.009310
0.062599
0.016045
-0.080595
0.047671
-0.009643
-0.035230
-0.062853
0.013394
0.091751
-0.000338
0.072651
-0.028930
-0.053476
-0.030765
0.107856
-0.008879
0.031868
0.114898
-0.001664
0.042009
0.086572
-0.048901
-0.022378
0.074596
-0.082188
0.067960
0.040660
0.031337
0.074110
0.031349
-0.094959
0.091163
0.005232
0.029769
-0.061224
-0.002997
-0.015297
0.084893
-0.014696
-0.016574
0.010207
-0.053705
-0.069272
-0.023767
0.003595
0.059618
-0.014201
0.044931
0.089985
-0.072023
-0.044453
0.081881
0.040924
-0.007551
0.016913
0.030734
0.085915
-0.018116
0.027450
-0.018231
0.099949
0.011174
-0.021745
-0.078486
0.021577
-0.009265
-0.023729
0.066070
0.046824
-0.070270
-0.067248
0.010380
-0.054670
-0.039207
0.025049
-0.002636
0.023224
0.021849
0.107069
-0.084231
-0.073331
0.091542
-0.010553
0.055199
0.002331
-0.074599
-0.012600
0.059158
-0.002907
0.080831
-0.029009
-0.033283
0.064258
0.044618
0.022624
0.022801
0.080426
0.013007
-0.045491
-0.023035
-0.052624
-0.069224
-0.029391
0.056662
0.033161
0.109680
-0.066437
-0.055399
0.048452
0.076617
-0.001038
0.077069
-0.044223
0.045036
-0.040571
0.009912
0.007256
0.003044
0.025287
0.012729
0.083148
-0.044338
0.012704
0.066859
0.025491
0.058575
-0.003758
-0.046261
0.031487
0.043992
0.049318
-0.010946
0.034246
0.053210
-0.070069
-0.069746
0.070533
-0.027890
-0.073258
0.056235
0.097091
0.014574
0.028789
0.015731
-0.074613
0.078590
-0.037365
-0.039948
0.072384
-0.057782
-0.081213
0.100613
-0.024524
-0.007024
0.055644
0.060005
-0.075876
0.054599
-0.034814
-0.051747
-0.052984
0.039964
-0.019330
0.071814
-0.015054
0.014616
-0.056018
-0.071336
-0.071640
0.103975
-0.085155
0.019208
-0.074816
-0.065283
-0.012297
-0.014794
0.053432
0.062310
0.028109
0.014150
0.043181
-0.013676
-0.041475
0.095193
0.029221
0.068603
-0.004843
-0.031136
0.070868
0.057208
-0.074644
-0.061319
-0.034900
0.083863
-0.015500
-0.037936
-0.041661
-0.028489
-0.044987
-0.085105
-0.038872
-0.009750
0.021546
0.021719
0.071130
0.056030
0.072882
0.037482
-0.063378
0.071249
-0.064628
-0.068327
-0.111709
0.072153
-0.108087
-0.091668
-0.055126
-0.008355
-0.038113
-0.010975
0.005788
0.079400
0.023141
-0.073060
0.111130
0.036314
0.091902
0.038856
0.092381
-0.043798
-0.022192
-0.048520
0.041791
-0.036282
0.053400
-0.028937
-0.039964
-0.035515
0.050104
-0.071876
0.055778
-0.036035
0.108551
0.076195
0.052891
0.094178
-0.005342
0.007852
0.096794
0.036610
-0.017698
0.065176
-0.050134
0.017064
0.062984
0.055040
-0.045065
0.016840
0.051257
0.027525
0.006472
0.014781
-0.077970
0.031153
-0.051696
0.035247
0.094078
-0.067531
-0.047880
0.087285
0.047152
0.091740
-0.072301
0.026177
0.067291
-0.056106
0.116468
0.064594
-0.054416
0.051640
0.004898
0.063600
-0.043583
0.047275
-0.032887
0.087018
0.007934
-0.053872
-0.093459
-0.003023
-0.049434
0.017125
0.098633
0.030531
-0.080220
-0.057788
-0.061193
0.050191
-0.034708
0.002637
0.033002
0.006189
0.081858
-0.007997
0.070899
0.062698
0.102722
0.007952
0.009324
0.035069
0.013055
0.024871
0.079342
0.042343
-0.028548
0.021256
0.103052
-0.099534
-0.057022
-0.040202
-0.071386
-0.026036
0.079829
-0.002727
-0.038057
-0.005021
0.070632
-0.105864
-0.037487
-0.032287
0.026136
-0.048040
0.037637
0.074317
0.026008
-0.017453
-0.083106
0.020094
0.104387
0.000267
-0.003993
-0.037578
0.009012
-0.021441
0.076544
-0.023664
0.118238
0.023803
-0.065542
0.086246
-0.064089
-0.083578
0.001471
0.006272
-0.005661
0.041734
0.104779
-0.053885
-0.083723
-0.016347
0.050133
0.041763
-0.112244
0.086018
0.029361
-0.019830
0.118297
-0.037138
0.110784
-0.025929
0.045828
-0.006275
0.106744
0.030930
-0.077470
0.023172
-0.007615
-0.078044
0.045134
0.092511
0.014804
-0.020219
-0.020271
0.054690
-0.060536
0.059725
-0.055689
-0.021686
-0.018312
-0.011908
-0.002062
-0.000740
0.023841
-0.080889
0.002297
-0.003202
0.021860
-0.010689
0.046208
0.057955
-0.095070
-0.047842
-0.024397
0.001175
-0.035625
-0.057766
0.036464
-0.017567
0.058177
0.123275
0.028423
-0.042369
0.028036
0.013338
-0.097913
0.110399
0.067594
0.031422
-0.013022
0.045106
0.052559
-0.027404
0.067425
-0.020847
-0.083243
0.036571
-0.010769
-0.034608
-0.035014
-0.001234
-0.035526
-0.048187
-0.019416
-0.079497
0.035586
0.110956
-0.063639
-0.031401
0.105486
0.116734
-0.020702
0.032333
-0.061465
-0.029226
-0.028974
-0.064044
0.021185
-0.009549
0.009817
-0.040357
0.020187
0.010243
-0.082620
-0.034419
-0.025397
-0.093289
0.046053
-0.061673
-0.069303
-0.081284
-0.005582
-0.048984
-0.041080
0.062856
0.059626
0.008639
0.060095
-0.048838
0.073167
0.073295
-0.019281
0.007456
-0.019565
-0.012466
0.076860
-0.026036
-0.004607
0.067062
0.030660
0.075437
-0.057084
-0.038294
-0.030612
0.080854
-0.022676
0.009453
0.057547
0.026767
-0.044251
-0.052382
-0.026820
-0.026758
0.014334
0.041624
-0.021493
0.083809
0.023338
0.063151
-0.072130
-0.065313
0.025088
0.087555
0.070886
-0.042299
-0.024932
-0.064992
-0.067066
-0.000252
-0.061381
-0.001377
0.024227
-0.065593
-0.043189
-0.033942
-0.056218
0.001115
0.027954
-0.032648
0.029229
-0.041193
0.003426
0.035346
-0.056423
0.004262
-0.047408
0.039508
-0.075777
-0.070480
0.041199
-0.029263
-0.018578
-0.068585
-0.068095
0.048362
-0.045812
0.081106
0.066933
0.042571
-0.076665
-0.084370
-0.005615
-0.038125
-0.021413
0.019525
-0.084781
-0.049930
0.045150
0.014187
0.056147
0.088119
0.009552
0.006376
0.072235
0.028892
0.009636
0.082445
-0.079998
0.001360
0.067345
-0.088892
-0.057347
-0.050927
-0.033864
-0.089685
0.048822
0.046368
0.034788
-0.061768
-0.044321
0.068226
-0.046502
-0.030816
-0.016078
-0.024432
0.021251
-0.029864
0.070031
-0.056400
-0.045166
0.041282
-0.056655
-0.059222
0.068579
0.004744
-0.016574
0.074111
-0.024459
-0.063392
-0.019801
-0.014924
-0.039009
0.073279
0.102526
-0.032493
-0.018648
0.077048
0.059594
0.028359
0.007764
0.107327
-0.067131
-0.062016
-0.092114
-0.002229
0.045492
0.018323
0.013752
0.023920
-0.088917
-0.017101
-0.010521
-0.052629
-0.035868
0.024823
0.075123
0.013057
-0.017392
-0.084621
0.104288
-0.021695
-0.097112
-0.006669
-0.095864
0.038611
-0.067604
-0.026442
-0.089827
-0.004054
-0.020551
-0.094921
-0.027582
0.050898
-0.093651
-0.064220
0.029905
0.041844
-0.053582
-0.089987
-0.046996
-0.039879
0.086471
0.002775
0.075762
0.004190
-0.101969
0.037561
0.067751
-0.074215
-0.032989
0.006157
0.070462
-0.004746
-0.046616
0.074770
-0.026972
-0.037530
0.052626
-0.032846
-0.109528
-0.066891
-0.042499
0.062669
0.002873
0.070916
0.017647
-0.017825
-0.035363
0.038567
-0.005552
0.014386
-0.030716
0.044296
0.026921
-0.013210
0.082027
0.080546
-0.022271
0.083021
0.063807
0.031183
0.020767
-0.040420
0.092888
-0.081489
0.071271
0.071842
0.072958
0.059906
-0.020353
-0.051586
0.050795
-0.009253
-0.075999
-0.019298
0.019304
0.011635
-0.081256
0.066296
-0.083242
-0.086146
-0.081133
-0.013585
0.064982
0.031306
-0.026008
-0.081595
-0.052641
0.092482
0.111032
-0.052053
0.019925
0.015001
0.056928
-0.045276
0.036819
-0.026862
-0.000768
0.013188
-0.087079
-0.003847
0.053171
0.009296
-0.099349
-0.039335
0.013894
-0.074132
0.042622
0.032709
0.081287
-0.023294
-0.036388
0.012225
0.102093
0.055486
-0.067872
0.031599
-0.095332
0.067850
0.014630
-0.047887
-0.089661
0.065303
0.090404
0.039880
-0.047398
-0.112331
0.053972
-0.030153
0.039028
-0.054991
-0.087371
0.064333
-0.083716
0.053519
-0.029802
-0.024894
-0.031341
0.005795
0.039018
-0.077131
0.002241
0.040553
-0.017893
-0.014326
0.074419
0.048985
-0.075896
0.122741
0.064938
-0.092712
-0.047691
0.068281
-0.042874
-0.002908
-0.017771
-0.074596
0.030410
0.056235
0.012812
0.039340
0.013279
-0.099022
-0.039056
-0.051944
-0.060225
0.016504
-0.083756
0.092319
0.016686
0.060989
0.005838
0.077316
0.115542
0.021567
-0.001929
0.017618
-0.082820
-0.009851
-0.020376
0.043638
-0.037716
0.049681
0.076589
-0.007489
-0.021096
0.006965
0.052786
0.113797
0.093252
0.015896
0.109062
-0.056661
0.033389
0.000014
0.015664
0.090161
0.054397
-0.056748
-0.031460
0.025538
-0.081468
-0.101086
0.028708
-0.024958
0.047626
-0.084138
-0.001724
-0.066691
0.014462
0.044805
-0.022798
0.032440
0.033644
-0.039048
-0.004903
0.036332
0.009407
0.043959
-0.070231
0.019517
-0.034729
0.102568
0.095005
-0.082049
0.068017
-0.049054
-0.032936
0.032383
-0.019614
0.055873
-0.016572
0.065743
-0.101813
0.016128
-0.037750
-0.013702
-0.070418
0.029509
0.088930
0.070340
0.044011
-0.065278
0.006207
0.061772
-0.005999
-0.074829
0.094163
0.022964
-0.024855
0.079254
-0.045400
0.063142
0.049932
0.105201
-0.053120
0.005191
-0.027021
-0.043486
0.117917
-0.052622
-0.017195
0.058722
0.056308
-0.058573
0.059573
0.014621
0.058038
0.008263
0.024013
-0.006730
-0.011891
0.101631
0.079433
-0.005012
0.069582
-0.098881
0.077874
0.063413
0.032299
-0.073437
0.079030
-0.072134
-0.079546
0.018021
0.069874
0.046170
-0.064742
0.007456
-0.045702
-0.059307
0.038674
-0.079058
-0.047701
0.093825
-0.031687
0.006458
0.068939
0.019452
-0.062153
-0.014382
-0.030932
0.105806
0.108619
-0.026193
-0.020297
0.034762
-0.040675
0.059376
0.044942
-0.058607
0.012158
0.070626
0.088649
-0.002126
-0.007142
-0.074870
-0.051835
0.078738
-0.012641
0.043937
0.076438
0.019897
0.090114
-0.009352
-0.047668
0.011196
-0.000140
-0.062483
0.056322
0.050300
-0.060902
-0.029242
0.014259
0.014021
0.067501
0.053132
-0.023510
0.006520
-0.072944
-0.005424
-0.052000
0.087726
0.014993
0.025341
-0.083345
-0.024770
0.027916
0.021271
0.045063
0.044425
0.049822
-0.052275
-0.002215
-0.045187
-0.083760
-0.048793
-0.071865
0.016422
-0.064175
-0.079268
-0.070813
0.068268
0.057977
0.061836
0.085338
0.032941
-0.017576
0.061523
0.086036
-0.026669
-0.064418
-0.046208
0.026489
0.039465
-0.057734
-0.059226
0.026594
0.025107
0.079352
0.007924
0.011095
-0.048755
-0.045942
0.014819
-0.070125
-0.063494
0.048649
0.053390
-0.085781
-0.045474
-0.073074
-0.026064
0.029194
0.031226
-0.045390
-0.059121
-0.051789
-0.013981
-0.011840
0.070426
0.044749
0.033775
-0.018655
-0.067377
0.059565
0.033300
0.006437
0.083086
-0.045691
0.030423
-0.076208
0.080725
-0.009767
-0.025051
-0.088150
0.018345
0.008902
0.010414
-0.076123
0.013498
-0.081419
-0.000173
-0.029815
-0.004609
0.072896
0.027396
0.023276
-0.005599
-0.080760
0.027512
0.000456
0.034868
0.031845
-0.039684
-0.045159
-0.005936
0.001035
-0.033731
-0.085944
-0.072382
-0.056673
0.072722
-0.067113
-0.086166
-0.020776
-0.066627
0.007342
-0.082750
-0.084711
-0.018428
0.064750
-0.060728
-0.069130
0.020153
-0.021363
-0.073613
-0.056919
0.058495
-0.039025
-0.071395
0.018496
0.059065
-0.056643
0.043648
-0.074797
-0.060391
-0.012247
-0.007937
0.071961
0.031026
0.045307
-0.014500
0.015142
0.009062
0.072029
-0.035319
-0.007658
-0.064113
-0.082923
-0.047959
-0.070592
-0.067267
-0.022233
-0.008708
-0.011320
-0.005863
-0.087317
0.058433
0.003717
-0.011759
0.005484
-0.015642
0.076093
-0.047618
-0.025616
-0.055463
-0.019356
0.072334
-0.035916
-0.071198
-0.064973
0.046146
-0.021101
-0.094355
-0.068553
0.033131
0.004047
0.017001
0.026826
-0.010189
0.035478
-0.046932
0.010600
-0.008058
-0.043945
-0.046885
-0.025979
0.048925
-0.042662
0.067294
-0.076412
-0.051810
0.086588
-0.006048
-0.068346
-0.006955
0.013387
-0.028035
0.066255
-0.033463
-0.020228
-0.017748
-0.076850
-0.103898
0.073324
0.004748
0.021613
-0.068171
0.069782
-0.003853
0.063694
0.048086
0.024092
0.008953
-0.074573
0.067448
-0.055971
0.045856
0.040286
0.024938
-0.086741
0.016534
-0.097895
0.034434
0.044375
-0.006869
-0.031752
-0.068504
0.057436
0.086993
-0.033510
-0.052902
0.106579
0.033169
-0.002524
0.062099
-0.062466
0.047926
-0.054677
-0.040211
0.001082
0.089649
0.085812
-0.045224
0.037166
0.055518
-0.061071
0.058228
0.039773
-0.006299
-0.034750
-0.016211
-0.022035
0.031562
0.028285
0.042524
0.066081
-0.006841
-0.062463
-0.002006
0.001129
0.003854
-0.046302
0.067732
-0.021643
0.102974
-0.082660
0.013779
-0.029597
-0.021201
0.057220
0.071732
-0.051627
0.009860
0.013786
-0.025460
0.078367
0.016436
-0.087915
-0.088790
-0.057576
0.055153
0.006668
0.008154
-0.090400
0.064809
0.008554
0.046915
-0.062116
0.072172
0.070818
0.034442
-0.000728
0.069581
0.006437
0.068055
0.073642
0.045156
0.021302
0.083924
0.048248
-0.092563
-0.025999
0.026534
-0.018816
0.063536
-0.087615
-0.006315
0.035933
0.046446
-0.067131
0.103008
0.016797
-0.060491
0.011129
-0.038914
-0.055863
-0.041340
-0.084141
-0.018107
-0.075599
0.019509
0.007468
-0.002348
-0.037815
-0.019328
-0.002067
-0.090895
0.062207
-0.065007
-0.082026
0.005469
0.040745
-0.068723
-0.009662
0.026482
-0.024279
-0.067469
0.032811
-0.000140
0.035407
0.077603
-0.047529
-0.074132
-0.026431
0.010437
0.009767
-0.026230
-0.093380
0.047812
0.049039
0.067075
0.051161
0.047883
0.074958
-0.053983
-0.045958
0.072761
-0.071943
0.044316
0.091668
0.014429
-0.067516
0.002875
0.082341
-0.059535
0.016886
-0.027244
0.082208
-0.003684
-0.068433
-0.077006
-0.057004
0.008316
0.076053
0.068274
0.022824
0.070008
0.066855
-0.078165
-0.093491
-0.078538
0.045402
-0.083445
-0.059307
-0.030688
-0.042233
0.030486
-0.034586
-0.033996
0.007774
-0.012957
0.053912
-0.054247
0.009711
-0.061417
0.062080
0.041153
-0.050004
-0.025641
-0.004139
-0.036779
-0.004643
0.002395
0.052907
-0.022212
0.026147
0.018185
0.061801
-0.002466
-0.019499
-0.032859
0.016703
0.041304
-0.057393
-0.050520
0.064585
0.055903
0.021745
0.083968
-0.047221
-0.075968
0.099816
-0.058783
0.075392
0.037282
-0.061763
0.081926
-0.027390
-0.066365
-0.080174
-0.080499
0.031055
-0.062556
-0.057650
0.019831
0.004727
-0.083735
-0.081462
0.040077
-0.043455
-0.056177
-0.075458
0.060505
0.055964
-0.036410
-0.080788
-0.100342
-0.050425
-0.092921
-0.073162
-0.000696
-0.053828
0.010792
-0.000190
0.001397
-0.039904
-0.026329
0.029604
-0.015774
0.032076
0.047130
0.012671
0.034234
0.049972
-0.061603
-0.085037
-0.054974
-0.040871
0.019826
0.030214
-0.053968
-0.015817
-0.049541
0.000705
-0.037705
0.015673
0.010122
-0.078341
0.082164
-0.057373
0.081282
0.095532
0.010008
-0.038139
-0.052017
-0.077910
0.000536
0.078282
-0.087726
0.010101
0.024924
0.008752
0.026528
-0.087804
0.031572
0.020111
-0.048373
-0.011729
0.049474
0.000177
0.049101
0.083402
0.019175
-0.033596
-0.065659
-0.028137
0.030032
0.042262
-0.069678
0.001755
0.058845
0.073895
0.050641
-0.052018
0.070306
-0.020116
0.065048
-0.053038
-0.040177
-0.001542
0.096688
0.072929
-0.033745
0.072260
0.039032
0.089065
0.098912
-0.057990
0.094446
0.001864
-0.066758
0.063397
0.074030
0.055301
0.030517
-0.047291
-0.020296
-0.089342
0.038225
0.012976
0.043118
-0.011798
0.017392
-0.062170
-0.026029
0.006701
-0.051069
0.040130
-0.056854
0.025503
0.044088
-0.050946
0.008665
0.001148
-0.043295
-0.057810
-0.010051
-0.077795
0.076936
-0.087929
0.072082
-0.083336
0.018641
0.063123
0.013905
0.010947
0.054080
-0.084032
0.086801
0.002858
-0.005862
0.055398
-0.028778
-0.027670
-0.084428
0.039903
-0.033416
-0.054716
-0.005139
-0.012412
-0.082055
0.080826
0.070417
0.086989
0.043306
-0.086340
0.012419
-0.003084
-0.012826
-0.029851
0.050422
-0.060383
0.087430
0.000921
-0.063763
0.078975
-0.041380
-0.020629
-0.034047
-0.086047
-0.079406
0.057237
-0.046062
-0.080866
0.004666
0.082152
0.077853
0.018232
-0.001753
0.028189
0.060363
-0.003477
-0.025847
0.072380
0.044497
-0.091805
-0.062980
-0.005856
-0.056536
-0.079815
-0.032823
0.083701
0.041068
-0.055665
-0.046816
-0.004718
-0.055421
0.067514
0.013637
-0.044145
-0.086645
0.014188
-0.083544
-0.021964
-0.064093
0.057291
-0.003160
0.034093
-0.020746
0.070120
-0.011061
0.011388
-0.079415
-0.032383
-0.016661
-0.074582
0.006350
0.034871
-0.043067
-0.044083
0.033802
-0.062420
0.057625
-0.039648
0.082720
-0.021917
0.061935
0.055248
-0.003720
-0.036570
0.024201
-0.083924
-0.056434
-0.010048
0.014909
0.003513
-0.074530
-0.005548
0.060033
0.020568
0.054084
0.013355
0.072019
0.040578
0.023936
-0.046731
0.009914
0.044780
0.048400
-0.088345
0.043452
0.023680
0.006640
-0.024889
-0.073420
0.020405
-0.010516
0.002906
-0.036244
0.009191
0.078449
-0.012435
0.056077
0.085547
0.016145
0.047718
0.065597
-0.032273
-0.051104
0.010959
-0.002108
0.045176
-0.072960
0.018823
0.076033
0.060026
-0.085067
-0.079313
-0.081950
0.068149
0.073972
0.021405
-0.065848
-0.048967
-0.074007
0.026297
0.074972
0.031995
-0.031605
0.025848
0.043127
-0.020394
0.018114
-0.086270
-0.065626
-0.073144
-0.075939
0.052821
0.047829
-0.043048
-0.058559
0.004830
0.036960
-0.035714
-0.082153
-0.034588
0.012394
-0.010773
0.075159
-0.067297
0.046811
-0.066005
-0.058943
-0.065336
-0.011443
-0.078359
0.072031
0.015868
0.000475
0.007270
-0.025377
0.002464
-0.049589
-0.037778
-0.033799
0.014254
0.073425
0.042431
-0.014399
-0.011943
-0.052756
-0.077034
0.007158
-0.028383
-0.083095
-0.005634
-0.005015
0.025705
-0.056244
0.000523
0.043111
0.044239
-0.025006
-0.016596
0.032757
-0.029693
0.017252
-0.068036
0.008391
-0.081935
-0.049107
-0.049899
-0.035839
-0.040616
-0.083285
-0.087779
-0.003479
0.002417
-0.020930
-0.021200
0.007478
-0.041469
-0.007996
0.087927
-0.081026
-0.000141
-0.044076
0.002209
0.053521
0.082637
0.022729
-0.064725
0.062317
-0.013368
0.022865
0.039921
0.049662
-0.003720
-0.007102
-0.033542
0.099050
-0.032126
-0.000618
0.018410
0.006006
0.071628
0.027262
0.006735
-0.034947
-0.023132
-0.010306
0.023153
0.053959
-0.012427
-0.044145
0.026885
-0.035700
-0.040604
-0.026540
-0.105298
-0.103267
-0.042141
-0.019143
-0.087569
0.058133
0.012384
-0.071054
-0.026497
-0.027367
-0.020691
0.102234
-0.056324
0.021817
0.049871
0.084290
-0.002233
0.045302
0.087235
-0.089630
0.028076
0.066712
-0.088944
0.002711
-0.003907
0.035929
-0.107895
-0.027449
0.070609
-0.026473
-0.049287
0.043554
0.016875
0.039032
0.062448
0.054410
0.096309
-0.055539
-0.080958
-0.033625
0.012145
-0.089395
0.055345
0.052983
0.051161
-0.067033
0.018987
-0.064733
-0.009871
0.071512
-0.064271
-0.040607
-0.000292
0.023956
-0.061739
0.028823
-0.014197
-0.036272
-0.051221
-0.026625
-0.061583
0.088085
0.059575
-0.010988
0.003860
-0.097122
0.020377
-0.030273
0.041229
-0.055206
0.051015
0.015254
-0.018142
-0.037267
0.094402
0.073892
0.041145
-0.050775
0.036488
-0.079015
0.045811
0.102485
-0.010406
0.076641
-0.065471
0.110053
0.075652
-0.034709
0.073707
-0.038414
0.012579
0.090850
0.048334
-0.104044
-0.065932
-0.040778
0.030268
-0.054099
-0.018363
0.094328
0.034318
0.031442
0.040050
-0.017930
0.090851
0.076635
0.077342
-0.071030
0.010713
0.116702
-0.069532
-0.040834
-0.102240
-0.034737
0.084519
-0.004681
0.067404
-0.016251
0.040080
0.050036
0.023166
0.059924
-0.050818
0.006559
-0.085829
0.000073
-0.010394
-0.081413
-0.057363
0.011973
-0.000189
-0.024317
0.043124
0.062790
0.001547
-0.011559
-0.082248
0.026773
0.017381
0.014332
0.069654
0.056253
0.051567
0.076501
0.032731
-0.076240
-0.014837
0.056881
-0.015652
0.041308
0.045082
-0.021703
-0.075106
-0.053128
-0.104089
0.038055
0.031069
0.053993
-0.089469
0.024190
-0.042311
-0.050238
0.035921
-0.058450
0.032698
-0.088361
0.069838
0.024570
0.019893
-0.086044
0.073713
-0.044324
-0.016425
0.055217
0.062926
-0.076704
-0.111724
-0.049354
0.016645
0.036465
0.035822
-0.069565
0.081479
0.058030
-0.047020
0.010228
0.080229
0.043932
0.089552
0.009276
-0.000864
0.026200
0.056920
0.052665
0.055774
-0.097090
0.001315
0.066450
-0.076487
0.048319
-0.043864
-0.013422
0.066119
0.114681
0.052582
-0.041037
0.018451
0.046506
-0.003678
0.100381
0.017560
0.080117
-0.018392
0.055082
0.021259
-0.020146
-0.080395
-0.042477
0.086892
0.063779
-0.013715
0.072933
0.036648
-0.071743
0.000986
-0.039879
-0.079238
0.033826
0.061524
-0.031117
0.068027
0.017400
-0.023940
0.003006
-0.050513
-0.023203
-0.003725
-0.029061
0.071301
-0.020003
0.015950
-0.006995
-0.059970
0.097169
0.030467
0.069061
-0.029786
-0.051818
-0.006528
0.031037
0.084708
-0.012036
-0.002284
-0.014949
0.092390
-0.013032
0.072580
-0.065502
-0.033829
0.074955
0.022511
0.075592
-0.048992
0.098042
-0.007875
-0.049083
-0.043192
-0.034527
-0.028199
0.022443
0.078465
-0.028618
0.085179
-0.079521
0.018390
0.095904
-0.002380
0.009065
-0.046059
0.001079
-0.064642
-0.041612
0.020025
-0.036754
-0.073453
0.059532
-0.015616
-0.061959
0.109167
0.004163
-0.025048
-0.038534
-0.072901
0.081632
0.033058
-0.022740
0.028760
-0.007244
-0.041225
0.099681
0.010805
0.086001
-0.004584
-0.070132
0.073651
0.017680
0.022635
0.037596
-0.051383
-0.066622
-0.055453
0.053043
-0.065015
-0.075739
0.062074
0.081508
-0.071106
-0.064782
-0.029944
0.026916
0.004709
0.104360
-0.052185
-0.035372
0.021396
0.015963
-0.079880
-0.000553
0.091182
0.056587
-0.076984
-0.022554
-0.052771
0.067519
0.034696
0.009189
0.067354
0.049833
-0.003736
-0.001043
0.080081
0.061287
-0.001958
0.052592
-0.066272
-0.035215
0.027893
-0.086809
-0.007487
0.016530
0.107295
-0.016126
-0.056120
0.058022
0.014447
-0.127018
-0.012930
-0.002577
0.035077
-0.014151
-0.029565
-0.033976
-0.069595
-0.073342
-0.046843
0.002898
-0.035567
0.085912
0.037535
-0.010881
0.033481
0.021885
-0.064967
0.086751
-0.051938
0.103912
0.021028
-0.031919
-0.003895
0.053240
0.090389
-0.037502
0.107503
0.000274
0.067161
-0.038299
-0.015327
0.031918
0.038006
-0.005700
0.046671
0.082673
-0.023764
0.053966
0.089956
0.005487
0.046721
0.088981
0.002809
0.049486
0.023514
0.073893
-0.009265
0.104549
0.113728
-0.010494
-0.054631
-0.049089
0.040462
0.011643
0.006476
-0.051153
0.044262
0.105957
0.113928
-0.101565
0.083366
0.051523
-0.098764
-0.030557
0.038450
0.127451
0.016194
-0.003122
-0.066509
0.026087
-0.060325
0.081347
0.043290
0.043201
-0.049390
0.072061
0.048879
-0.041068
0.069365
-0.001571
-0.045191
-0.035401
-0.068420
0.005771
-0.055143
0.067554
0.087281
-0.115047
-0.056775
0.000937
0.061418
-0.024169
0.069219
0.023865
0.119802
0.025436
0.071489
-0.028902
-0.066311
-0.019634
0.014218
-0.007808
-0.089471
-0.115957
-0.036565
0.109576
-0.059103
-0.084601
0.050945
-0.035962
0.006528
-0.004044
0.083222
-0.030209
0.034855
0.002471
0.074317
0.106833
0.005265
0.070042
-0.041801
0.052718
-0.002490
0.017753
-0.105308
0.081179
-0.005912
0.066337
0.037426
0.018382
-0.034345
0.007867
-0.104814
-0.062324
-0.073166
0.011829
0.099214
-0.077498
0.086260
0.030035
0.078485
-0.070545
-0.042523
0.113514
0.065169
0.082042
0.003712
-0.053307
0.088517
-0.090730
-0.011978
-0.007415
0.060061
0.015723
0.008850
0.026634
-0.014812
0.021326
-0.022030
0.052437
-0.030371
0.069724
0.104004
-0.025268
0.058923
0.049986
0.047579
-0.082774
0.019932
0.097332
-0.025045
-0.085660
0.002007
-0.072575
0.073081
-0.002688
-0.000408
-0.020425
0.039539
0.049371
0.093530
0.098499
-0.029203
0.081631
-0.061395
0.093803
0.043698
0.043968
0.106793
-0.043043
0.033413
0.013484
-0.030202
0.003868
0.008436
-0.032604
0.041714
0.098103
-0.002697
0.070068
-0.098848
0.010913
0.080436
-0.081337
0.098405
0.004388
0.036597
-0.036439
-0.033917
0.104975
-0.011693
0.000225
-0.007815
-0.011611
0.027128
0.040940
0.000124
-0.061004
0.035287
0.020006
0.037451
0.098426
0.032699
0.031880
0.100240
0.013907
0.005785
0.079215
0.049403
-0.092393
0.008945
-0.056424
-0.014041
0.100044
0.046393
0.029254
0.045030
-0.080068
-0.067426
0.041075
0.014821
0.045693
-0.019508
-0.050649
0.017107
0.036845
