-0.012669
0.058109
-0.058355
-0.050895
-0.047625
0.009707
0.019702
0.006624
0.014085
0.059017
0.019730
-0.030313
0.014743
0.008899
0.008731
0.020841
0.015744
-0.025169
0.013011
0.025788
0.006496
-0.021315
0.030386
-0.019208
0.034677
-0.013591
0.002327
-0.014060
-0.052692
0.055034
0.028672
-0.015050
0.023722
0.053029
-0.028963
-0.042350
0.053088
0.040764
0.025668
0.016425
0.036948
0.060741
-0.034498
0.008497
-0.045380
0.015759
0.008272
-0.023089
0.047456
-0.051525
-0.014646
-0.023763
-0.054783
-0.048450
0.017076
0.059995
-0.044204
-0.045419
-0.036167
0.045663
0.039296
-0.022453
-0.047024
0.002294
-0.012411
0.040306
-0.049852
0.054635
0.049856
-0.003843
0.004805
0.045712
-0.009648
-0.053937
0.000274
0.003488
0.062224
-0.001456
-0.044699
-0.029719
-0.062084
-0.023614
-0.041080
-0.006503
-0.050861
0.028339
0.058429
0.022610
0.021259
-0.043002
-0.009314
0.036674
-0.005173
-0.053511
0.051863
0.029095
0.049794
0.005084
-0.024173
-0.060666
-0.030872
0.019581
-0.030988
-0.030935
0.060570
0.037390
-0.022091
-0.047689
-0.052728
0.001416
-0.030457
-0.028033
-0.037624
0.040179
0.000005
-0.023268
-0.012513
-0.010116
0.037346
-0.055179
0.000067
0.011336
-0.022545
0.003675
-0.045972
-0.052593
0.051360
-0.028237
0.030681
-0.059255
0.029356
-0.013277
0.020293
-0.067802
-0.004256
0.062755
-0.048387
0.035516
0.056280
0.065612
-0.016247
-0.065543
0.036869
0.000715
-0.009367
0.037170
-0.064021
-0.026047
-0.055710
0.026387
-0.054653
0.011070
-0.054668
0.044347
0.049122
-0.061508
0.025665
-0.048004
-0.082739
0.026309
-0.059900
0.038455
-0.045539
-0.018627
0.017258
0.023303
-0.068327
0.034075
0.063174
0.001999
0.035153
0.058483
0.034439
-0.019063
0.033186
-0.027788
0.009269
-0.052546
-0.003420
0.057193
0.001798
-0.043662
0.010748
0.041421
-0.025324
-0.013633
-0.030820
-0.001879
0.017991
-0.064661
-0.060363
0.015732
0.032389
-0.020385
-0.002289
0.029716
0.026997
0.066204
0.057138
-0.021116
0.039515
0.054576
-0.075207
-0.060786
0.000107
-0.034827
0.007293
-0.031625
0.006836
-0.017434
0.041222
0.062301
-0.072775
0.014437
-0.019700
0.020675
-0.034333
0.028414
0.008645
-0.025426
-0.068929
0.002093
-0.044517
-0.010871
-0.076671
-0.045406
-0.055249
-0.006514
-0.012481
-0.026298
-0.002603
0.010784
0.022061
-0.069469
-0.041721
0.041021
-0.006609
-0.037060
0.033807
-0.059017
-0.020117
0.038603
-0.024603
-0.071316
0.075545
0.002496
-0.070176
-0.065481
-0.014733
-0.047783
-0.016842
-0.030264
-0.050223
0.043298
-0.013885
-0.063371
0.054644
-0.044245
-0.011963
-0.008178
-0.017174
0.045642
0.056673
0.024629
0.047737
-0.004681
-0.043540
0.004860
-0.046302
-0.050249
0.002213
0.000472
0.012845
-0.018381
0.024896
0.043442
0.054382
0.050651
0.029724
-0.055271
0.038376
0.006643
-0.035167
0.006278
0.051248
-0.043086
-0.028321
-0.054091
0.057855
-0.027445
-0.020366
0.020955
0.003736
-0.007715
0.014937
-0.044753
-0.044236
-0.026703
-0.021535
0.039028
0.020437
0.019551
0.036900
-0.050584
0.022290
-0.035860
-0.029822
-0.020492
-0.033994
0.015033
-0.019684
0.025829
-0.016947
0.028169
-0.023481
-0.049703
-0.031920
-0.027134
-0.059684
0.058383
0.024305
-0.021888
-0.028788
-0.014877
0.043622
0.038374
0.020571
0.045497
0.024002
0.030450
0.057402
0.049835
0.017686
-0.060546
-0.018277
0.027997
0.010690
-0.000931
0.004069
0.016906
-0.030972
-0.021477
-0.047594
0.020706
0.027186
-0.026161
0.033390
0.022815
-0.020623
-0.040501
-0.028573
-0.034949
-0.009885
0.024304
0.060043
0.041674
0.050267
-0.051554
-0.054556
0.033045
0.030116
0.003947
0.046896
-0.023092
0.008855
0.026620
0.049211
0.044947
0.029732
0.021595
0.051475
0.013551
0.059909
-0.031294
0.053664
0.046429
-0.053397
0.045620
0.017113
0.032161
-0.007136
0.019758
0.058400
-0.027918
-0.051980
0.074300
-0.045712
0.032623
-0.023381
0.017670
0.005204
0.048409
-0.035694
0.013355
-0.056885
0.005142
0.049133
0.014869
-0.047355
-0.046475
0.033892
-0.001604
0.009532
0.026917
-0.045662
-0.048821
0.006411
0.032442
0.032852
0.046670
0.015905
0.046281
0.043174
0.033075
-0.023880
-0.007502
-0.016689
-0.045687
-0.021554
0.043539
-0.008582
0.011663
0.010519
-0.005607
-0.039352
-0.023139
-0.034343
-0.051118
0.009086
0.050902
-0.014949
0.044800
0.021439
0.070979
0.060713
0.003671
0.021384
0.028079
-0.057745
-0.031306
0.026876
-0.042581
-0.005731
0.067256
-0.041808
0.016287
0.019225
-0.005103
-0.017194
0.051908
0.023967
-0.023737
0.016018
0.031763
0.044454
0.045311
0.025497
0.034463
0.069256
0.044901
-0.024600
0.043880
-0.012032
0.044202
0.058127
-0.005977
-0.042997
-0.033101
-0.029981
-0.072008
0.033590
-0.026175
0.049406
-0.005850
-0.050806
-0.032195
0.010145
-0.016896
0.010633
-0.028746
0.065490
-0.027089
-0.060975
0.028019
0.039075
0.019344
-0.035348
0.019636
0.008779
0.051231
0.051104
0.046429
-0.006588
0.073613
-0.052531
0.021626
-0.009649
0.044670
-0.035573
0.070985
-0.029599
0.006124
0.048015
-0.017902
-0.003513
0.017638
-0.039175
0.005579
-0.009877
-0.022358
0.012636
-0.008348
0.054718
-0.041100
0.056688
-0.031290
0.000183
-0.049415
-0.052594
-0.040956
-0.022226
-0.031018
0.002221
-0.021979
0.051145
-0.002767
-0.031879
0.036946
0.046620
-0.058116
0.064018
-0.009234
0.001798
-0.065364
0.065660
-0.042858
-0.005695
-0.011597
-0.046895
0.015280
-0.015610
0.041720
0.001941
0.051972
0.003832
-0.055140
0.001245
-0.051470
-0.044318
0.021412
-0.016292
0.020929
-0.059447
0.019590
-0.063613
0.034707
0.018970
-0.003514
0.046888
0.002941
0.039081
0.024621
0.023322
0.027088
0.049701
0.047223
0.031871
0.002155
-0.029819
-0.045682
0.000573
-0.050257
0.052597
0.045503
0.011272
0.041803
-0.004112
-0.013873
0.001246
-0.006796
-0.024944
0.049382
0.041913
-0.034978
-0.019045
-0.051024
0.037250
-0.004921
-0.063116
0.012363
-0.012996
-0.004871
0.045081
-0.044538
0.003402
-0.031553
-0.044071
-0.007121
-0.010003
0.047098
0.015516
0.049986
0.040681
-0.018974
-0.006030
0.011962
0.004358
0.064426
0.043068
0.017024
-0.038181
0.054770
0.009198
-0.033275
-0.045699
0.009711
0.030164
-0.015802
-0.004333
0.019167
0.013520
-0.016047
0.040526
-0.020165
-0.019263
0.010735
0.045257
-0.036767
-0.029020
0.011653
-0.002034
0.000107
-0.005793
-0.005787
0.049435
0.047823
-0.022469
-0.036643
-0.041103
-0.003483
-0.005642
0.025106
-0.044435
-0.071808
0.044619
-0.005754
0.016158
-0.020322
-0.033401
0.022671
-0.047105
-0.071036
-0.007112
0.028771
-0.019761
-0.029397
0.056845
-0.059235
-0.019825
-0.067866
0.008381
-0.028579
-0.007456
-0.025586
0.043989
0.026752
-0.039474
0.062666
0.039326
0.007667
-0.010584
-0.056863
-0.026365
-0.019060
0.019026
-0.023080
-0.059770
0.006168
0.026379
0.014457
-0.047617
-0.018290
-0.054328
-0.022369
-0.046251
-0.035261
-0.033710
0.049942
-0.046902
-0.042505
0.058903
0.007679
0.082582
-0.022560
0.029657
-0.074108
-0.034329
0.050628
-0.034455
0.011334
-0.036681
-0.018317
0.029046
-0.089918
0.022651
-0.059021
-0.013923
0.055211
0.035501
-0.011209
0.039396
-0.035908
-0.033358
-0.058780
0.014799
-0.007857
0.007353
-0.043583
-0.029231
-0.015532
0.032256
0.009841
-0.027674
0.009624
0.002626
0.024028
0.027873
-0.053058
-0.035257
0.049739
-0.004925
-0.000617
-0.045306
0.058126
0.019238
0.006955
0.023295
0.017960
-0.031117
0.005365
0.001957
0.022700
0.083491
-0.013532
-0.015414
0.051668
0.092820
-0.033502
-0.048391
-0.029276
-0.002428
0.065149
0.015825
0.060860
-0.010421
0.077354
0.031342
0.020168
0.056399
-0.003086
0.040606
-0.010801
-0.037074
-0.000790
0.046369
-0.036257
-0.042408
0.061094
0.041689
0.018259
0.047172
-0.033779
-0.009917
0.041580
0.034158
0.044570
-0.049325
-0.004387
-0.010182
-0.027589
0.010482
-0.041517
-0.020322
-0.033512
-0.004290
0.005946
0.001736
-0.027548
0.001689
-0.056911
-0.052692
0.044530
-0.049015
0.058040
0.013781
-0.005244
-0.040013
0.047575
0.038457
-0.043797
-0.038674
0.048131
0.035320
0.005235
0.017860
0.063099
0.024736
-0.037230
-0.005683
-0.028434
0.052665
0.052676
0.054638
0.047746
0.058766
0.010744
0.018289
0.026300
0.033046
-0.009459
0.051397
0.028219
0.026116
0.011892
0.027049
0.019662
-0.011380
0.019743
0.032689
-0.017389
-0.027841
-0.036293
-0.000187
-0.026500
-0.043753
0.035803
-0.031110
-0.016250
-0.009872
0.035591
0.007416
-0.009772
-0.055232
0.005424
-0.021120
0.049412
-0.053647
0.031880
0.007770
-0.020922
-0.056707
0.001955
0.015660
-0.065489
-0.053046
-0.020094
0.057326
-0.042789
-0.010156
0.060720
0.059450
0.018558
0.020264
-0.022343
0.031251
-0.008663
-0.037308
-0.043981
0.027757
0.024825
0.013262
0.028272
-0.000854
-0.024825
0.054783
0.002651
0.028533
0.052287
0.022980
-0.008991
0.018756
-0.031163
0.006536
-0.062292
-0.040499
-0.047178
-0.005221
0.031545
-0.042135
-0.041412
0.038267
-0.032584
0.047175
-0.015163
-0.034400
-0.026927
-0.008850
-0.062587
-0.033011
0.074522
-0.033608
-0.044872
-0.008752
0.009715
0.037519
-0.057387
0.060391
-0.040146
0.020092
-0.077093
0.037992
0.000090
0.007193
0.029627
-0.001617
0.023626
0.022730
-0.006070
-0.011074
0.008408
0.042601
-0.026792
0.030035
-0.039218
0.065471
-0.033891
-0.080797
0.013246
-0.080927
0.007028
0.026273
-0.058232
-0.035514
-0.060493
0.002205
-0.026874
0.031682
-0.018287
0.071766
-0.015370
-0.029424
0.007045
0.065615
-0.062510
0.040918
-0.052921
0.035763
-0.022027
0.009098
-0.034771
-0.044039
-0.043528
0.053853
-0.038304
0.008182
-0.030023
0.005769
-0.071878
-0.039643
0.087326
0.011278
0.033872
0.007173
-0.024037
0.077511
-0.015979
0.040056
-0.054201
-0.040933
-0.049287
-0.058470
-0.002810
0.071205
-0.041924
-0.002930
-0.032750
0.019444
0.055259
-0.022754
0.035628
0.003102
-0.026274
-0.042688
0.022668
-0.003339
-0.009079
0.034560
-0.059217
0.051662
-0.057175
0.069706
-0.031860
-0.029244
-0.053863
-0.028158
0.044806
0.009869
0.002828
0.001362
-0.061276
0.016020
-0.054227
0.023621
0.060365
-0.044998
-0.069198
0.028880
-0.054219
-0.045031
-0.045927
-0.018419
-0.038794
0.058263
-0.017896
0.000718
-0.015421
-0.083705
-0.034848
0.004989
0.019245
0.030038
-0.048049
0.015431
0.035783
0.035682
0.023455
-0.033857
-0.058452
-0.001525
-0.023922
0.029841
0.037584
0.041293
-0.002825
-0.010811
0.057757
-0.041795
0.063221
-0.010115
-0.035156
-0.045806
-0.046447
-0.050148
-0.008953
-0.051500
0.019794
-0.054525
0.041068
0.028371
0.039261
-0.032314
0.048130
-0.032352
-0.014275
-0.014412
-0.053993
-0.064189
0.000091
-0.023307
0.013813
-0.026812
0.029900
0.011744
0.015382
0.003114
-0.050301
-0.036456
-0.027361
0.040210
-0.015933
-0.027340
-0.004728
0.003177
0.023329
-0.056544
-0.053456
0.023042
0.052894
-0.008384
0.002688
0.018361
-0.036324
0.059536
0.000186
-0.003990
0.013438
0.058675
0.028219
0.004537
-0.033556
0.024830
0.008937
0.058847
0.002475
-0.011146
-0.055688
-0.027438
-0.001601
0.016308
-0.059329
0.004342
0.031383
-0.035862
-0.023656
-0.045143
0.010660
0.028796
0.033252
-0.030253
0.051307
0.056493
-0.023651
-0.002001
-0.018557
-0.000620
-0.013115
-0.001800
-0.001337
0.047352
-0.036929
0.036906
-0.030226
-0.048274
-0.012224
-0.053836
-0.032979
0.046169
0.040111
0.007757
0.025681
0.054055
0.002056
0.057845
-0.062544
-0.000993
0.047460
0.005006
-0.035494
0.024329
-0.011566
0.009190
0.041662
-0.025276
0.033485
-0.000761
0.045472
-0.010972
0.039719
0.028769
0.058220
-0.053784
0.027724
-0.048855
-0.063447
-0.014465
0.015720
-0.050446
-0.069413
0.072237
0.068807
-0.013784
-0.059483
-0.026444
0.058864
0.005288
0.011090
-0.041291
-0.046249
0.001329
-0.029973
-0.000737
-0.049297
-0.046070
-0.026108
-0.065638
0.005172
-0.037668
0.036023
0.028812
-0.033951
-0.038100
-0.003246
0.032617
0.059691
0.025210
-0.001029
-0.035816
0.024060
-0.004580
-0.008116
0.005349
0.049817
-0.036942
0.036045
0.038587
0.062314
-0.029120
0.071251
0.058784
0.038218
0.021591
0.031833
0.001773
0.072980
-0.041562
-0.057544
0.013396
-0.010538
0.077627
0.046089
0.011241
-0.069367
0.049362
-0.044172
-0.009346
-0.033496
0.023128
-0.035871
-0.071410
-0.063859
-0.003747
0.060614
0.069445
-0.062481
0.002914
0.067317
-0.013056
0.040059
-0.002691
-0.032955
-0.017086
0.008439
-0.018440
-0.007159
0.039031
0.027829
0.043985
-0.026652
0.004981
0.011714
-0.052491
0.034824
0.048634
-0.010897
-0.020906
0.028795
0.007124
-0.001260
0.030927
-0.061360
0.026525
0.011051
-0.077110
0.042761
0.011561
0.016093
0.040972
0.004000
-0.032126
0.015182
-0.038510
-0.011640
0.060195
-0.027560
0.061528
0.023559
-0.017067
-0.061511
0.007016
-0.005868
-0.077976
-0.066560
-0.007225
0.002559
-0.053243
0.023470
0.006383
0.017623
0.027617
0.008717
0.017119
0.032274
-0.022497
0.042584
-0.051171
-0.046442
0.039592
-0.032285
0.061298
0.004610
-0.018361
0.026801
-0.038637
0.056738
-0.037353
-0.027555
-0.020124
0.035315
-0.027521
-0.054534
-0.060910
-0.029177
0.006015
0.029155
-0.033272
0.057374
0.026722
0.033604
0.035039
-0.043804
0.039709
-0.062003
0.043952
0.049825
-0.031475
-0.008188
0.043844
0.033848
0.019990
-0.011815
-0.042920
-0.038450
-0.060496
0.061973
0.039306
0.050265
-0.043314
0.013677
-0.051880
-0.067080
0.066514
0.055396
0.055424
0.010720
0.041255
-0.030123
-0.047219
-0.005496
-0.010181
-0.037287
0.006869
0.029425
-0.013530
0.063617
-0.035576
0.005780
-0.048801
-0.038277
-0.008833
0.026932
0.010990
-0.032183
-0.040848
0.043288
-0.012491
-0.002419
-0.002587
0.022050
0.017750
-0.031822
-0.061586
0.002396
0.029668
0.044866
-0.004999
-0.042889
-0.047769
0.037258
-0.012350
-0.010799
0.016134
0.052950
0.032641
0.009054
0.025667
-0.025536
-0.008813
0.041423
0.010121
0.013100
-0.059152
-0.017913
0.004720
0.000628
-0.035606
0.019323
0.001014
-0.041755
-0.035432
0.042337
0.045421
-0.011088
0.004320
-0.001604
-0.015575
-0.067511
-0.037970
0.015132
-0.021783
-0.047130
-0.012644
-0.017201
0.024980
-0.059829
0.057184
0.029833
-0.057238
-0.025945
-0.004521
0.026967
0.046354
-0.042565
-0.017405
-0.006551
-0.001699
-0.042837
-0.020826
-0.035652
-0.043324
0.022883
0.011334
0.052680
0.044752
0.050601
0.056247
0.022784
0.003838
-0.070631
0.001668
0.011391
0.018630
-0.022981
0.001898
-0.012242
-0.035093
0.066534
0.011413
0.004190
-0.016999
-0.053816
0.073311
-0.045164
0.017998
0.002557
0.016710
0.022050
-0.026148
-0.026679
-0.045112
-0.060561
-0.010585
-0.021048
0.039655
-0.015948
-0.035205
0.024185
-0.047331
0.053795
-0.004694
-0.046120
0.074577
0.000062
-0.048677
0.031042
-0.018392
-0.040299
-0.069204
0.051175
-0.081243
-0.041980
0.069191
-0.030517
-0.069052
0.005487
0.063974
0.072563
-0.067454
-0.037691
-0.023721
-0.023228
-0.013537
0.043942
0.025959
-0.039763
-0.017191
-0.033565
0.036403
0.038286
-0.043167
-0.044905
-0.002595
0.007977
0.042130
0.000947
0.061142
-0.052544
0.071471
-0.050768
0.017612
-0.044426
0.033651
-0.043977
-0.048498
-0.058473
0.052896
0.047863
0.017981
0.038151
0.074114
-0.004598
0.032781
0.074030
0.037074
0.051768
0.021464
-0.050304
0.023917
0.070323
-0.070907
0.027637
0.009022
-0.030089
-0.049817
-0.010132
-0.028370
0.018234
0.045195
0.008047
0.022949
0.019606
0.044631
-0.029916
-0.035280
0.002493
-0.029476
0.002088
0.054779
0.051244
-0.044962
-0.052802
-0.002308
0.027732
0.025366
0.035932
0.032119
0.042141
-0.027039
0.012782
0.005438
-0.017256
-0.020429
-0.046615
-0.027532
0.038245
0.006774
-0.045542
0.004314
0.043818
-0.004042
0.038651
-0.038436
-0.057299
-0.009951
-0.040241
0.006530
0.045796
-0.015659
0.024404
0.019117
0.053770
0.040498
0.038825
0.030396
0.005444
-0.001698
-0.023076
-0.012865
0.001873
0.001770
-0.013942
0.045496
0.064722
0.054818
0.037632
-0.062845
0.034789
-0.040621
-0.057190
0.009158
0.024601
-0.032740
-0.012512
0.039084
-0.035693
0.051669
0.065495
-0.052680
0.037842
-0.043694
0.032130
-0.024256
-0.065361
-0.050985
0.000125
-0.026656
0.038086
0.018451
-0.027049
-0.038194
-0.011416
-0.003110
-0.044146
0.035443
-0.062867
0.015683
-0.032995
-0.017570
0.026066
-0.048394
-0.059571
-0.061352
0.050088
0.022723
0.062625
0.028191
-0.007847
0.049292
-0.036701
0.025817
0.019378
-0.021915
-0.033452
0.019609
-0.019116
-0.011285
-0.031234
0.044240
0.052132
-0.021684
0.024557
0.008600
0.051148
0.054430
-0.048854
-0.018616
-0.019759
-0.007747
-0.011720
-0.026692
-0.036594
0.051629
-0.038186
0.056776
0.023879
-0.044825
-0.012562
-0.008613
0.021140
-0.043235
0.039544
-0.057222
-0.003383
0.065558
0.015973
0.013581
0.011570
0.074874
-0.041222
0.056660
0.002732
0.043025
-0.061711
-0.074134
0.051622
0.009824
0.003081
-0.047197
-0.028289
0.037363
-0.004229
0.025151
-0.024790
0.011348
-0.016761
0.049887
-0.042575
-0.033894
-0.026653
0.020851
0.053590
0.069505
0.022027
0.027426
0.025960
-0.027033
-0.019464
0.048000
-0.002558
0.054631
0.006756
0.039944
-0.004534
0.051606
-0.034327
0.032509
-0.056173
-0.038626
0.012953
-0.050634
0.016591
-0.051479
0.056112
0.015606
-0.048584
0.062983
-0.028816
0.014810
0.061606
-0.029760
-0.055221
-0.061478
-0.010808
-0.004430
0.062130
-0.081670
0.056283
0.026823
0.009167
-0.012370
-0.001598
0.017260
-0.003384
-0.026191
0.035162
-0.013281
0.067383
-0.004958
-0.022076
0.020976
-0.041691
0.032981
-0.015843
0.037288
0.047099
-0.042163
-0.018048
0.051137
0.012287
-0.016510
-0.053272
0.029145
-0.068486
-0.006536
-0.044410
-0.009021
0.012911
0.008892
-0.049456
-0.019398
-0.035863
0.000783
0.056203
0.052436
-0.012621
0.063059
0.063355
0.009626
0.027381
-0.033550
-0.037492
0.007653
-0.043455
0.043122
0.050424
-0.064517
0.053509
0.065308
-0.030252
-0.043139
0.003191
-0.043447
0.054450
-0.037887
0.078358
0.078449
0.046598
0.023204
-0.012714
0.036539
-0.015031
-0.009899
0.054180
-0.002386
-0.060771
-0.057668
-0.060792
0.032519
0.017725
-0.029452
0.004990
0.056038
-0.036824
0.029983
0.013353
-0.057941
0.049130
0.055449
0.027464
-0.020603
0.039626
-0.055747
-0.000479
0.032182
-0.041029
-0.022331
0.046438
-0.062892
-0.050715
-0.031670
-0.001163
-0.039696
-0.047847
-0.041388
-0.006035
-0.057460
-0.039457
-0.045688
-0.037981
0.051967
0.018811
0.044888
0.040332
-0.030861
-0.005253
0.011870
-0.027327
-0.013111
0.001690
-0.063765
0.031943
-0.018847
0.053046
-0.057331
-0.044628
-0.038112
0.050179
-0.000829
-0.052414
-0.017396
-0.001836
-0.043204
0.052414
0.044785
-0.031551
0.004307
0.059684
-0.031721
-0.024550
0.028341
-0.059352
-0.029126
-0.004174
0.015956
-0.055862
-0.028666
0.053432
-0.039512
0.007068
0.055548
0.021587
0.018428
-0.011969
0.048933
0.052611
0.011529
-0.048598
0.015966
-0.040624
-0.025960
0.029223
-0.027911
0.020213
-0.031216
0.017681
0.019916
0.024989
-0.041206
0.055132
-0.039960
-0.017932
0.040213
0.013774
-0.001633
0.005346
0.000661
-0.048353
-0.057006
0.018739
-0.060457
-0.057231
0.002593
0.043954
-0.045294
0.027634
0.056316
0.044065
-0.035497
-0.034421
-0.025802
-0.054631
0.037758
-0.036197
0.020244
-0.051135
-0.041199
-0.020746
-0.060560
0.035851
0.045374
0.037842
0.032186
0.006253
-0.046742
-0.039431
0.018013
0.042248
0.019073
0.056248
0.007163
0.049773
0.011977
0.007015
0.005457
0.052930
0.006526
0.011354
-0.032576
-0.063124
0.042345
-0.020881
-0.011730
0.029094
-0.053454
-0.048719
-0.040871
-0.046799
-0.056239
0.036593
0.025990
0.019237
-0.011150
-0.006480
-0.023999
-0.036875
-0.013388
0.002695
-0.015618
0.021459
0.042305
-0.058652
-0.049153
0.044684
0.058170
-0.012128
-0.033209
-0.037040
0.040913
-0.020639
0.057428
0.030277
-0.017012
-0.051523
0.000171
-0.030621
-0.029693
-0.017739
-0.060095
-0.031504
0.005890
0.026133
0.058666
0.011090
0.057409
0.020119
0.054547
0.060456
0.027365
-0.001418
-0.051471
0.052102
-0.022146
0.004536
-0.032528
-0.038710
0.034838
-0.000704
-0.052605
-0.018846
-0.056354
-0.049751
0.038195
-0.058540
-0.004087
0.011830
-0.029270
-0.055577
-0.060815
-0.010024
0.007178
-0.010834
-0.053624
0.037377
0.024415
-0.013011
-0.050398
0.053107
-0.024413
0.014845
0.055665
0.036477
0.037391
0.022677
0.027622
-0.012583
-0.017298
-0.045673
-0.020763
-0.011443
-0.058835
-0.028193
-0.052383
-0.037541
0.041312
0.055427
0.001245
0.040362
-0.018900
0.016650
-0.055268
-0.044431
-0.029686
0.020430
-0.035024
0.060551
0.051696
-0.051840
0.022086
-0.029949
0.045819
-0.019916
-0.044693
0.022136
-0.003880
-0.013612
0.000086
0.006509
0.025239
-0.048125
-0.023195
0.063217
0.043597
0.032150
-0.055570
-0.033201
0.042816
-0.019893
-0.041686
-0.058612
0.054212
0.015252
-0.027017
0.015721
-0.029931
0.025881
0.015048
-0.048673
0.063631
0.007440
0.001269
-0.027063
-0.064727
-0.058146
0.017646
0.006351
-0.059129
0.043480
-0.003026
0.002704
0.034908
0.035756
-0.059493
-0.036332
0.022138
0.026419
-0.034316
-0.052062
0.015218
-0.025570
-0.056471
0.045657
-0.013432
-0.029714
-0.032098
0.055213
0.063262
0.036543
0.035069
0.055154
-0.025859
-0.045757
0.051945
-0.004717
0.014205
0.039354
0.040846
0.018568
-0.000402
0.014413
-0.029719
0.024242
0.031893
-0.034317
0.038246
0.034936
0.004977
0.054028
0.025579
0.033866
0.021356
0.036102
0.047696
0.047668
0.056839
0.025688
-0.029642
0.008520
-0.061896
0.064711
0.006455
0.042320
0.030964
-0.060058
0.057155
0.057254
0.030384
0.053195
-0.058168
-0.041721
-0.060058
0.045320
0.010696
0.006555
-0.045910
-0.002921
-0.002548
-0.006906
0.012037
-0.029522
-0.012868
-0.009084
0.011205
0.060207
0.017541
0.048608
-0.010566
-0.007895
-0.000659
0.054290
0.004655
0.021224
0.006418
-0.026179
-0.051833
-0.021333
-0.053236
-0.004899
-0.069251
-0.009457
0.005999
-0.033247
0.049142
0.026053
-0.015212
-0.061250
-0.063054
0.039359
-0.019923
-0.048452
0.037593
0.041002
0.015940
0.049298
-0.043831
-0.052017
0.012910
-0.033422
-0.011297
-0.023459
-0.008877
-0.032602
-0.051069
-0.038111
0.041419
0.049309
0.040983
-0.045283
0.057233
-0.056657
-0.015353
-0.020292
0.018895
-0.006464
-0.059165
0.029158
-0.016076
-0.025863
-0.035267
0.027130
-0.068603
-0.004663
-0.002270
-0.075945
-0.038828
0.047695
0.006985
-0.030264
-0.020556
-0.076408
-0.009701
-0.008395
-0.040972
-0.044993
-0.047293
0.031647
-0.078549
0.056307
0.020860
0.069889
0.025578
-0.052959
0.011911
0.029771
-0.001997
-0.013575
-0.007921
-0.039300
-0.017234
0.048122
-0.074884
-0.054620
-0.009015
-0.043223
-0.053050
0.037592
-0.010858
-0.023656
0.025403
-0.015311
-0.005475
0.026161
0.025773
0.004265
-0.037031
-0.033778
0.027993
-0.051171
-0.025739
0.037009
0.058514
-0.047836
0.000024
0.047366
0.000414
-0.034576
0.040610
0.011855
0.057992
-0.043064
0.017543
-0.022149
-0.022637
-0.002577
0.026260
0.035040
0.030410
-0.023300
-0.061064
0.009979
-0.046364
0.036345
0.020956
0.022197
0.031124
0.024566
0.059965
0.059665
0.037983
0.038061
-0.005735
-0.058539
0.052654
0.044937
-0.021662
0.019839
0.065813
0.000789
0.046158
0.030139
0.025816
-0.049551
0.005973
-0.016619
0.014633
0.034940
-0.017842
0.022433
-0.052771
-0.049313
0.029473
-0.007359
0.023407
0.037507
-0.014527
-0.034352
-0.038544
-0.057073
0.050294
0.043916
-0.044597
0.044258
-0.027437
-0.043772
-0.035348
-0.042883
0.008574
0.017669
0.053174
0.045573
0.046669
-0.004698
0.029125
-0.061221
0.050053
0.065449
-0.034038
-0.040584
0.053432
0.066634
0.012410
0.071340
0.024049
-0.024994
-0.058370
-0.041526
-0.029253
0.033107
-0.015028
0.004872
0.017876
-0.047412
0.042790
-0.064820
0.066453
-0.019574
-0.061194
-0.037451
-0.007178
-0.046145
0.032952
0.032386
0.011789
0.006440
-0.036181
-0.059217
0.018058
0.054109
0.018907
0.045978
-0.040352
0.006934
0.014972
-0.064395
0.043924
-0.015363
0.004869
0.001663
0.042302
-0.040727
-0.018765
-0.056882
-0.001902
-0.048273
-0.057680
0.046878
-0.042385
0.007922
-0.021595
-0.025133
-0.007326
0.027890
0.026897
-0.036330
0.009816
-0.038549
-0.058406
0.041178
0.006605
-0.039032
0.007937
0.005836
0.012275
-0.009496
-0.037245
-0.053663
0.015490
-0.065663
-0.027846
-0.007356
0.034431
-0.001578
0.051266
0.019334
0.007583
-0.008160
0.014246
0.063987
0.011328
-0.042811
0.036947
-0.053979
0.044105
0.020417
0.019753
0.075596
0.026971
-0.061876
-0.019786
0.004868
-0.043744
0.018384
-0.044569
-0.028877
-0.045099
-0.055020
-0.074824
-0.021619
0.068352
-0.013865
-0.010577
-0.060935
0.000344
-0.018359
0.042958
-0.061477
-0.011819
-0.025113
-0.010701
-0.026740
0.078689
0.015207
-0.068657
0.029281
0.035760
-0.059610
-0.038453
-0.074442
0.042407
0.044065
0.006976
0.047680
0.070419
-0.026298
-0.019765
0.047262
-0.059157
-0.065062
-0.034418
-0.018816
-0.058334
0.029079
0.026124
0.039356
-0.001638
-0.066464
0.049907
0.058957
0.001288
-0.060659
-0.065674
0.046318
-0.030943
0.050945
-0.056553
0.029979
0.050538
-0.057756
-0.037943
-0.045362
0.073346
0.011125
-0.053718
-0.047287
-0.005767
-0.042013
-0.048439
0.019328
0.015689
-0.048095
0.002105
-0.005832
0.015622
-0.061308
-0.012512
-0.032440
-0.008929
0.044224
-0.052619
-0.069889
0.014221
0.046543
0.053271
-0.026820
-0.066852
0.067873
0.048640
-0.030485
-0.038938
-0.026911
0.039300
0.013438
-0.030529
0.042366
0.016471
0.018387
0.070793
0.075310
-0.009951
0.054133
0.082723
-0.033850
-0.055354
-0.033011
-0.077326
-0.036952
0.017616
0.063309
-0.033575
-0.021281
0.009754
0.011785
0.024491
0.073396
0.044549
0.054251
-0.031194
0.032905
0.081570
-0.042856
0.053249
0.043445
-0.054479
0.033784
0.042354
0.037944
-0.000918
-0.054831
0.028872
0.047511
-0.049797
0.014235
0.019118
-0.012817
-0.005291
0.057073
-0.046964
0.036848
0.058522
-0.037555
0.011930
-0.011452
-0.001932
0.056536
0.046202
-0.044685
0.031630
0.035478
-0.029236
0.002225
-0.041598
0.025214
-0.005242
0.008344
0.004043
-0.036263
0.020472
-0.014796
-0.031476
0.032529
-0.049172
0.017371
-0.005011
0.057871
-0.059298
0.008389
-0.014268
-0.041192
0.058996
-0.046816
0.050495
0.010851
0.008354
-0.035163
0.057616
0.038437
-0.049173
-0.055387
0.029708
0.003181
-0.060830
-0.056188
-0.005730
-0.018991
0.052557
-0.042352
0.027143
0.004244
-0.025885
0.046447
-0.044842
-0.004839
0.004981
-0.033385
0.001424
-0.025856
0.026952
-0.062481
-0.017583
-0.015460
-0.025478
-0.029926
-0.010054
-0.039464
0.015927
-0.040127
0.064299
-0.047004
-0.027945
-0.031646
-0.044351
0.005590
-0.053201
-0.034305
-0.015489
-0.058447
0.051730
0.025726
0.002067
0.026931
0.040621
0.042773
0.032577
-0.055994
-0.055967
0.019716
-0.009177
-0.002037
0.013433
0.009962
-0.036069
0.056080
0.033577
-0.010170
0.042213
-0.007087
0.014444
0.011724
-0.004356
-0.049603
0.000896
0.002930
-0.029950
-0.032706
0.006642
-0.023831
-0.034617
0.055420
0.058028
-0.046069
-0.045952
-0.056413
0.005131
-0.013481
-0.053449
-0.037837
0.006742
0.050768
0.025097
0.041579
0.059146
-0.027428
0.054935
0.013093
-0.049504
0.039606
-0.044398
-0.051300
0.020112
-0.039802
0.001375
0.011968
0.021995
-0.007316
-0.064635
-0.047218
-0.010936
0.055448
-0.002566
0.002554
0.052873
0.018546
0.016637
0.024238
0.033489
-0.037594
0.046203
0.015215
-0.034546
-0.059475
-0.001779
0.046078
-0.003174
-0.015743
-0.016526
0.000371
0.010401
-0.002602
0.012626
0.024373
-0.053421
-0.055832
-0.037889
-0.043989
-0.008510
0.026411
0.021159
0.063840
0.049762
-0.006144
-0.020404
-0.021160
0.024319
0.013865
0.024923
-0.011768
-0.041521
-0.054843
-0.064720
0.019213
-0.061301
0.020611
-0.042098
-0.036069
0.002616
-0.027625
0.049744
0.020471
-0.024670
-0.058325
-0.061455
-0.018433
-0.037152
-0.003073
-0.030520
0.026023
-0.016935
0.030490
0.043731
-0.028201
-0.040057
0.046683
0.016910
0.023457
-0.040288
0.047541
0.035726
0.046392
0.010857
-0.042189
0.057973
0.039975
-0.042948
0.009281
0.003584
-0.049919
0.048926
0.027532
-0.037743
-0.003912
0.053083
-0.057815
-0.001682
-0.048490
0.006307
-0.025204
-0.010130
-0.020707
-0.027829
-0.032038
-0.028889
0.033903
-0.026495
0.036625
0.023505
-0.030071
-0.047317
0.046405
0.035678
0.020854
0.063441
-0.020617
-0.015242
-0.038547
0.039035
-0.024073
-0.013993
-0.021124
0.019740
0.057713
-0.025054
0.032429
0.008139
-0.002382
0.006781
0.047518
-0.040555
-0.023632
-0.051450
0.049641
0.040486
-0.025549
-0.032130
-0.032632
-0.029222
-0.016313
-0.051468
0.017855
0.005460
-0.051212
0.017442
-0.003310
-0.056360
0.000109
-0.012523
-0.050775
-0.049200
0.044950
-0.056710
0.013800
-0.058011
-0.030994
0.022163
0.032185
-0.006140
-0.012497
-0.049798
0.044016
0.004922
-0.051418
0.021877
0.047505
-0.020069
-0.053243
-0.018216
0.061953
0.042787
-0.055543
-0.036323
-0.024481
-0.017834
0.034074
0.010922
0.037558
-0.051879
-0.012876
0.025441
0.065838
0.030375
-0.035495
0.062033
-0.004008
0.021292
-0.043456
0.051543
0.057582
0.006622
-0.031694
-0.009120
0.008582
-0.020309
-0.052241
-0.003848
-0.021365
0.040312
0.038839
0.006893
-0.052389
0.020026
0.002407
-0.044933
-0.044431
-0.056732
-0.050240
0.033807
0.021876
-0.009005
-0.008941
-0.011439
-0.045649
-0.056841
-0.019639
-0.052872
-0.051157
0.036184
0.014498
0.005191
-0.016458
0.037003
-0.055281
0.027225
-0.047482
0.010467
-0.016056
-0.051018
0.020650
0.030995
0.047508
-0.003780
-0.025893
0.051317
-0.029529
0.033248
0.020827
0.042691
-0.054525
0.022844
0.043109
-0.047620
-0.008241
0.009957
0.053214
0.007451
0.057965
-0.043190
-0.046142
-0.045522
-0.052303
0.010704
0.046315
0.050231
0.033907
-0.049107
-0.030676
0.007715
-0.016306
-0.036846
0.038027
0.046444
0.056596
-0.034635
0.003056
-0.004617
0.017884
0.051229
-0.027581
0.046699
0.030214
0.034171
-0.055597
-0.000951
-0.000313
0.001000
-0.049451
0.057348
-0.035592
0.031404
0.047393
0.003918
0.039200
-0.063444
0.026810
-0.035857
-0.009470
-0.006855
0.044188
0.007318
-0.012955
-0.056950
0.013191
-0.025635
-0.052769
-0.050837
-0.033141
0.033193
-0.038950
0.037201
-0.041320
0.000904
0.058430
-0.005704
-0.044427
-0.002316
-0.013775
-0.060277
-0.049807
0.040059
-0.006682
-0.000663
-0.014493
0.049696
-0.045250
0.015313
0.036505
-0.023671
-0.034843
-0.005736
0.041066
0.005942
-0.038038
-0.058676
0.007889
0.040227
0.023496
-0.001726
0.058930
0.016857
-0.050921
0.059923
-0.029503
-0.011508
-0.019092
-0.010306
0.042490
0.054497
-0.024240
-0.044647
0.041077
0.059015
-0.017050
0.020333
0.020710
0.037052
0.030489
-0.003116
0.033642
0.026217
-0.051969
0.054940
0.000615
0.007064
0.050127
-0.054314
0.023032
0.044463
0.029580
0.034308
0.062940
-0.045908
0.048001
0.020915
-0.026154
0.008048
0.004354
-0.058364
0.016192
0.037040
0.016580
-0.012526
0.043395
-0.021183
-0.011976
0.038918
0.046807
0.015922
-0.053179
0.029729
-0.005672
0.001157
0.035000
-0.023562
0.056197
0.044489
0.030584
0.024474
0.052885
0.025001
0.011017
-0.051213
-0.021906
-0.051849
-0.054466
0.048889
0.010727
-0.017404
-0.029547
0.048181
-0.022412
0.064089
0.001319
-0.013122
-0.003176
-0.037586
0.018051
0.052917
-0.000012
-0.013491
-0.051003
0.042300
-0.058227
-0.046397
-0.031576
-0.003529
0.018127
-0.023486
-0.043745
0.016782
-0.026671
0.041050
-0.020196
0.001531
0.009868
0.055146
0.009042
0.000861
0.005653
-0.045861
-0.054893
0.057147
-0.047743
0.061438
0.001737
-0.037488
-0.035938
0.033104
-0.059946
-0.062429
0.014499
0.061312
-0.038098
-0.040715
-0.050048
-0.026663
0.055090
0.002734
-0.018738
0.006176
0.045098
-0.064470
0.020990
-0.061463
0.003877
-0.003912
0.021584
0.024378
-0.039708
0.056775
-0.048865
0.041028
0.039147
-0.056862
0.006438
0.016498
-0.024070
-0.061110
-0.026455
-0.006678
-0.011214
-0.005669
-0.027171
0.062228
-0.017387
-0.000558
-0.015851
0.020221
-0.015147
0.028558
-0.031266
0.054330
-0.014817
0.030261
0.009870
0.056900
-0.026017
0.030934
-0.002755
-0.009993
0.016567
-0.039311
-0.046416
0.058514
-0.045577
0.028720
-0.073885
-0.012031
0.053513
0.025664
-0.009687
0.047956
-0.024175
0.034390
-0.028038
0.004571
0.053561
0.040281
0.023103
-0.019214
-0.025825
0.033410
0.017527
-0.057218
0.037150
-0.061973
0.034398
-0.000917
0.020012
0.035337
-0.023361
-0.060589
-0.028329
0.069391
-0.028294
-0.034914
-0.001502
-0.068588
0.051940
0.030742
-0.008369
0.031447
-0.059704
-0.056124
-0.011373
0.000542
0.049320
-0.041975
0.040703
0.072631
0.034432
0.065345
-0.035983
0.084907
-0.067118
0.022421
0.080011
0.003841
-0.073572
0.026021
0.004644
0.073202
0.016012
0.007285
0.006391
0.020423
0.041007
-0.049528
0.018626
-0.017639
0.009600
0.030150
0.014960
-0.036907
0.062362
0.034047
0.040066
-0.015817
0.061550
-0.074617
-0.030920
0.074766
-0.032784
0.002577
-0.007506
-0.049646
-0.030712
-0.026550
-0.012987
0.021030
0.023784
0.007370
0.011796
0.001355
-0.068466
0.047721
0.004173
0.020932
0.009777
0.034421
0.073222
-0.073387
0.043554
-0.008071
0.051277
-0.008571
-0.060672
-0.018900
0.047591
0.059937
-0.058505
-0.078043
0.016840
-0.024794
0.018493
-0.030592
-0.078388
-0.033648
-0.041492
-0.038675
-0.019154
0.008678
-0.048351
-0.053977
-0.049483
0.025369
0.005292
0.036888
0.009652
-0.062459
-0.036825
0.052714
-0.029270
-0.042207
-0.001467
-0.048742
0.054478
-0.056959
-0.011927
-0.037213
-0.048132
0.043160
-0.017176
0.000157
-0.057602
0.004776
-0.054170
-0.005158
0.038454
0.046786
0.054130
0.058022
0.047138
0.013772
-0.055817
0.023038
-0.053971
0.000800
-0.046798
-0.039965
0.038890
-0.034740
-0.046879
-0.038018
0.052236
0.057274
-0.028347
0.014393
0.020445
0.064639
-0.053514
0.002878
-0.008401
0.049392
0.024884
0.017039
0.022529
-0.022242
0.015565
-0.018972
-0.045128
-0.000768
0.032210
0.030307
-0.047210
0.017428
-0.018030
0.025476
0.062526
0.043239
-0.027628
-0.047590
-0.043005
-0.059687
-0.005939
0.007616
0.020023
0.007662
-0.058616
-0.029280
0.011198
0.023557
0.010062
-0.048249
-0.016673
0.001987
0.020623
0.014243
0.013791
0.041499
0.015601
0.027215
0.014925
-0.063155
-0.041937
0.007866
-0.014459
0.028985
-0.055419
0.035403
0.017617
0.031602
0.055709
0.058012
-0.034798
-0.049703
-0.015095
0.002951
0.037947
0.033936
0.058321
-0.054847
-0.057087
-0.002944
0.036574
-0.045104
0.000319
-0.038839
0.023248
0.052066
0.040357
-0.037743
0.014765
0.013280
0.036288
0.054338
-0.033189
0.005561
-0.028818
-0.058651
0.043514
-0.045375
-0.009978
-0.028591
-0.000946
-0.048058
-0.060930
0.032302
-0.000918
0.035940
-0.003064
0.047285
-0.067212
-0.024896
0.029246
0.039204
0.010377
-0.043534
-0.061182
-0.035303
0.055869
0.044580
-0.019925
-0.010663
0.001392
-0.012216
-0.027304
0.036934
-0.010343
-0.054005
-0.023268
0.054047
-0.035472
-0.044294
0.040563
-0.005044
-0.047294
-0.005631
-0.020520
0.032316
-0.069780
-0.025824
0.046763
-0.048497
0.026825
0.006384
-0.067232
0.046174
0.054591
-0.077136
0.051444
-0.036024
-0.061969
-0.050544
-0.025878
0.074758
0.028855
0.027491
-0.069460
0.089843
-0.060713
-0.012492
-0.049321
-0.038486
-0.001148
0.041695
-0.003950
-0.012172
0.037170
0.003920
0.020308
0.044993
-0.002054
0.009207
0.041684
-0.006208
-0.043349
-0.027609
-0.026265
0.069321
0.068742
0.065855
0.019834
0.011555
-0.005513
0.033123
0.025245
0.016843
-0.070214
-0.044572
-0.040046
0.049418
0.043623
0.051107
0.053092
-0.032359
-0.043513
-0.038190
0.014478
-0.010764
-0.030392
-0.040033
-0.046864
-0.062348
-0.021957
0.060327
-0.006710
-0.072777
-0.049310
0.030679
0.029149
0.002418
0.039332
-0.014805
-0.032002
0.072391
0.020860
-0.026835
0.056944
-0.034637
-0.039982
-0.028126
-0.035099
-0.041237
0.012017
0.025033
-0.028020
-0.048130
0.026092
-0.077943
-0.010962
-0.048685
-0.031206
0.035282
-0.006387
-0.027094
0.046187
0.004217
0.009211
-0.011011
0.025275
-0.050525
-0.023757
0.012278
-0.062281
-0.065206
-0.044968
0.060771
-0.006221
0.015071
0.006926
-0.020571
0.065627
-0.035345
0.026599
0.054070
-0.066893
-0.004246
0.055608
-0.020942
-0.041052
-0.008486
-0.053722
0.000879
-0.016089
0.003994
0.053936
-0.030308
-0.022983
0.020301
0.020613
-0.015080
0.015356
0.021447
-0.041559
0.030339
0.002359
0.018481
0.062810
0.035569
0.052216
-0.039674
0.020740
-0.035210
-0.027266
0.053859
-0.027215
-0.040624
0.006727
-0.054657
-0.015945
-0.037631
0.017221
0.043815
0.031606
0.053986
0.018565
-0.041286
0.003742
0.015562
0.015321
-0.043363
-0.042990
-0.001137
-0.009768
-0.012369
0.001073
-0.052401
-0.032503
-0.015920
0.035134
-0.063354
0.029531
-0.045467
0.051897
-0.027008
0.004846
0.053946
-0.049907
-0.012076
0.057529
0.017349
0.000232
-0.050864
0.035434
-0.019152
0.001033
0.003543
-0.029222
-0.040178
-0.018397
-0.021828
0.039421
-0.040181
-0.003457
-0.023904
0.052665
-0.050383
0.009697
-0.009560
0.012266
0.047632
-0.068027
-0.024230
-0.048634
0.019295
-0.038408
-0.055233
0.014096
-0.039072
0.011671
-0.040750
-0.047239
-0.015779
0.019144
-0.051662
0.044975
-0.052845
0.054442
0.024540
0.038684
0.050854
-0.003333
0.031675
0.038149
0.013598
-0.066229
-0.036318
0.009547
0.010262
-0.077730
-0.039165
0.009747
-0.046667
0.013355
-0.079412
-0.030580
-0.019144
-0.000923
0.022784
-0.024743
0.057786
0.014552
0.010984
-0.043788
0.030718
-0.057191
-0.000887
0.004288
0.008089
0.023352
-0.003498
0.044398
0.052393
0.022029
-0.049331
-0.024862
0.069609
-0.002197
0.059258
-0.038868
0.031637
0.060472
-0.002538
0.066932
0.001137
0.016634
0.029382
-0.021303
-0.027908
-0.057290
0.014678
-0.034615
-0.033039
0.042868
-0.039760
-0.007244
0.004816
-0.016226
-0.023876
0.021551
-0.035252
-0.029466
0.041013
-0.006326
0.042260
-0.022846
-0.056815
0.064699
0.048770
0.034196
0.007148
-0.013196
0.000393
-0.025936
-0.000956
0.020655
-0.029735
-0.035109
-0.017407
-0.063236
0.059217
0.021161
0.047600
0.042249
0.043311
-0.039630
-0.014659
0.020671
0.051201
-0.015064
0.048145
0.019776
0.053075
-0.069018
-0.020060
0.048820
-0.045503
-0.012397
0.037042
0.043358
0.038673
-0.026201
-0.022249
-0.011210
-0.048725
0.018872
0.032063
0.025123
0.026040
0.006747
-0.015938
0.004261
0.042788
-0.000589
-0.066028
0.063454
0.007587
-0.021629
0.059305
0.020002
0.020426
-0.009539
-0.035991
-0.006176
-0.004680
-0.008899
-0.013699
-0.001595
0.051300
-0.068544
0.049299
-0.055499
0.017619
0.055079
0.005245
-0.053468
-0.055664
0.016044
-0.033524
0.026551
0.019878
-0.037814
0.016656
-0.006897
-0.003198
-0.045227
-0.008754
0.020051
0.042106
-0.016401
-0.027799
0.007201
0.063991
-0.022762
-0.013157
-0.006679
-0.059176
0.001664
-0.037518
0.029261
-0.019246
0.051846
-0.019101
0.057372
-0.031139
-0.056811
-0.016459
-0.045992
-0.035252
-0.018645
0.048362
-0.041873
-0.019176
-0.043045
0.014164
0.061130
0.051042
0.042545
0.037678
0.043678
-0.054104
0.044339
0.042264
-0.053939
-0.022534
0.011653
-0.018799
0.054242
-0.046337
-0.043393
0.057943
-0.000902
0.012466
0.026922
-0.032093
0.060651
-0.004514
-0.046796
-0.040842
-0.049385
-0.011275
0.012395
-0.031829
0.038234
0.045357
0.037391
-0.016093
0.011731
0.070612
-0.013301
-0.009954
-0.039685
0.052401
-0.001469
-0.046138
0.051243
0.011750
-0.055434
0.022921
-0.054789
-0.024886
-0.026637
0.043716
0.056563
0.034189
0.038384
-0.060182
0.018220
0.044081
0.064836
-0.042234
-0.052412
-0.005852
0.040360
0.011750
0.038047
-0.049003
-0.055479
0.070132
-0.029149
0.031669
-0.054682
0.003113
0.038259
0.029526
0.036233
0.008037
-0.031675
-0.001321
-0.012583
-0.020319
0.049061
0.046252
-0.002800
-0.035539
-0.000862
0.062331
-0.034828
-0.007513
-0.052953
0.059485
-0.039490
0.010827
0.040705
0.024883
-0.023370
-0.037408
-0.046359
-0.004118
0.018677
0.025256
0.005355
-0.045833
0.068877
0.012246
-0.012456
-0.014357
0.024065
-0.008523
0.014788
0.054129
0.014090
0.024069
0.055549
-0.018543
-0.042286
-0.034006
0.005965
-0.026990
-0.009629
0.047552
0.011806
-0.075192
-0.030566
0.022842
0.039379
-0.007547
-0.029964
0.045017
0.043346
0.028773
0.069310
0.012491
-0.045854
0.003056
0.028828
0.015115
0.040299
0.045695
0.031209
0.072471
-0.061769
-0.047649
0.015669
0.025402
0.027498
0.020077
0.068488
0.079051
-0.015637
-0.038943
-0.028187
-0.012057
-0.051087
0.030551
-0.009517
-0.009906
0.049618
0.003499
0.024534
-0.026856
0.027188
0.045435
-0.050071
0.037309
-0.050134
-0.052838
-0.027321
0.003461
0.036852
-0.056534
-0.057897
-0.029401
0.031206
0.029588
0.070930
-0.003606
0.030069
-0.023863
0.025829
-0.051210
0.003788
-0.008803
-0.002596
-0.067157
-0.048807
0.044010
0.029792
-0.001687
-0.042918
-0.055708
0.034496
0.028452
-0.068194
-0.079756
-0.005610
-0.038682
-0.007121
-0.060583
0.057852
0.012525
-0.027397
-0.021807
0.003024
0.061633
0.032712
-0.060621
-0.048495
0.043095
-0.075994
0.042986
0.012542
-0.026635
-0.049870
0.034045
0.041909
0.027306
-0.016591
0.038257
-0.042303
-0.002948
-0.064898
0.043915
0.003166
0.044355
0.038792
0.001942
0.043257
-0.022569
-0.001041
-0.038159
-0.007195
-0.031031
0.029603
0.034099
0.044666
-0.033170
0.059550
-0.044828
0.041468
-0.001929
0.017354
-0.010610
-0.009629
0.011270
0.058348
-0.060773
-0.032299
0.024430
0.002001
-0.000668
0.006837
0.025658
0.025378
-0.041479
0.014837
-0.004524
0.057228
0.026193
-0.048878
0.005165
0.003947
-0.055332
-0.061240
-0.047725
0.011376
0.001303
-0.056855
0.055601
-0.040059
-0.049669
0.057459
0.033359
0.033286
-0.002845
-0.000186
-0.058264
0.001981
0.036434
0.057417
-0.002945
-0.051833
0.003143
-0.038894
0.026180
-0.059857
-0.044826
-0.030067
-0.006304
0.017671
0.024375
-0.036314
-0.010333
-0.005277
0.007291
-0.006234
0.022869
0.006794
-0.054563
0.010991
0.047872
-0.009997
0.053472
-0.028262
-0.041416
-0.039056
0.014537
-0.037030
-0.006251
0.017032
0.034134
0.013495
-0.039522
-0.016744
0.062460
-0.003491
-0.012783
0.038163
-0.047824
0.000763
-0.032315
0.019215
-0.056707
-0.044802
0.038087
-0.052719
-0.049601
0.059269
-0.043059
-0.048611
-0.045103
0.027443
0.028094
0.012532
0.003644
0.049097
-0.039539
-0.021181
-0.051847
0.001835
-0.016499
-0.033354
0.019809
0.042121
-0.052751
0.032359
0.045275
-0.049582
0.027179
0.013783
-0.052933
0.031067
0.040265
-0.017431
-0.024418
0.007150
0.032163
0.020038
0.013405
-0.056537
-0.006509
-0.011855
0.033953
-0.014995
-0.005548
-0.024968
-0.009341
-0.017179
0.049869
-0.002798
-0.025809
-0.015995
0.013006
-0.022129
0.025453
-0.026357
0.024900
0.009972
0.003423
-0.004327
0.000852
0.035016
0.055405
0.002979
-0.044685
-0.052949
-0.032785
0.003310
-0.030276
0.010418
-0.057110
0.038709
-0.026253
0.011473
0.007650
-0.035228
-0.028617
-0.016442
-0.012944
0.002663
0.025824
0.024612
0.036871
0.011651
-0.056543
-0.054720
-0.003793
0.017652
-0.033775
-0.039632
-0.039371
-0.059003
0.049292
0.018933
0.000359
-0.032748
-0.054844
-0.063755
-0.058082
0.044885
0.019117
-0.053613
-0.058519
-0.033056
0.034500
0.003571
0.018561
-0.027632
0.006773
0.017646
-0.035073
-0.028978
0.033047
-0.026411
0.035533
0.051373
0.038829
-0.047380
0.013848
-0.042780
-0.035227
-0.034484
-0.027115
-0.061809
0.004546
0.055426
0.050380
0.058673
-0.051942
0.065305
0.029103
-0.029466
-0.025260
-0.007143
-0.007761
0.003931
-0.020714
0.035172
-0.049281
0.053370
0.050915
-0.058539
0.026420
-0.024432
0.051571
0.021377
-0.013441
0.014583
-0.061109
0.016886
-0.006801
-0.006618
-0.058642
0.005234
-0.064233
-0.050041
0.040032
0.026123
0.041205
-0.029322
-0.016615
-0.051448
-0.047549
-0.016120
-0.036687
-0.062239
0.011559
-0.008783
0.031281
0.014634
0.043508
0.050745
0.061641
0.056487
0.031860
-0.031424
-0.017378
0.061809
0.025728
-0.005032
-0.050271
0.030573
-0.043451
0.030580
0.039144
-0.062529
-0.043849
-0.001299
-0.007582
0.054953
-0.026093
-0.040521
0.016147
0.015458
-0.040262
-0.017873
-0.004047
0.022574
0.006576
-0.031299
-0.063603
-0.034073
0.011298
0.051787
0.061673
0.029082
0.043855
0.061065
0.062017
0.055311
-0.010855
0.059974
-0.039437
-0.060027
0.027519
-0.011269
0.039079
-0.021514
0.039018
-0.019259
-0.049222
0.020988
0.017444
0.036970
0.030520
0.020565
-0.006640
-0.028141
0.048397
-0.024463
-0.036887
-0.018322
0.022473
0.041337
0.017349
-0.023318
-0.016418
-0.012906
0.012627
-0.006935
0.046525
-0.034820
0.007201
-0.007215
-0.023560
0.011474
-0.052940
0.052263
-0.013224
0.060222
0.041708
0.061092
-0.014446
0.058353
0.060612
-0.028238
0.017796
0.033648
0.039787
0.005183
-0.039962
-0.036295
0.044213
0.003183
-0.057427
0.008421
0.022565
-0.029122
-0.034274
0.028788
-0.018487
0.011054
-0.034049
-0.010736
0.024194
0.056477
-0.026738
-0.001635
0.046390
-0.025221
0.051269
0.048334
0.041249
0.028992
0.022539
0.009688
-0.058640
-0.046027
-0.053660
-0.033958
0.034749
0.055237
-0.018077
-0.005063
0.051990
-0.030968
-0.026822
-0.033594
0.015624
0.024928
-0.024404
0.045244
-0.062048
0.018436
0.012912
-0.022638
-0.010478
0.021170
-0.061544
-0.059494
0.012866
0.006999
-0.046745
0.029528
-0.020330
0.029103
0.018371
0.025179
0.051250
0.014095
0.003003
0.036940
-0.004524
-0.046924
0.013056
0.004195
0.059783
0.005491
-0.005663
-0.055790
0.007279
0.055610
0.001247
-0.041526
-0.004065
-0.034898
-0.060880
0.024773
-0.028686
0.053564
-0.057717
-0.039450
-0.019519
-0.050993
0.024427
-0.055464
0.017232
-0.047828
0.033684
-0.002158
-0.027441
0.009669
-0.061968
-0.005625
-0.008408
-0.052046
-0.004931
-0.004820
-0.008749
-0.049045
0.038857
0.038779
-0.014183
-0.008228
-0.044022
0.038441
-0.052912
0.053174
0.028646
-0.006456
0.043532
-0.026639
0.052226
0.047069
0.024739
0.029777
0.019084
-0.026865
-0.037381
-0.023172
-0.010554
0.058671
0.003580
-0.025230
0.052821
-0.033848
-0.027524
0.013658
-0.015492
0.019984
-0.049846
0.048757
-0.042232
-0.010772
0.027739
0.043323
0.038795
-0.022084
-0.016349
0.063964
-0.042861
-0.019765
0.052223
0.061577
-0.027821
-0.023802
0.034739
0.003522
0.039967
0.029695
-0.061680
-0.046421
-0.035411
0.004847
0.003099
0.028768
0.001867
-0.039646
0.004631
0.001650
-0.004453
0.053156
-0.029957
-0.024694
-0.037430
0.024096
-0.028949
-0.000240
-0.007532
-0.023348
-0.059659
0.025146
0.032735
-0.053567
-0.049931
-0.052874
-0.013882
-0.026154
-0.051831
-0.054104
-0.011997
0.001485
0.006141
-0.048625
0.010937
-0.003679
-0.009625
-0.027235
0.003984
-0.023367
-0.006810
0.022955
0.048606
0.027064
0.036541
-0.014282
0.009166
-0.011184
0.039912
-0.022928
-0.027011
-0.063024
-0.046215
-0.013300
0.009456
-0.018843
0.001573
0.047901
-0.009948
-0.060544
0.051042
-0.030751
-0.034070
-0.050761
0.032380
-0.059729
-0.034087
0.051330
-0.035995
0.003772
-0.048775
0.027179
0.056804
0.015292
0.038645
-0.008439
0.043611
-0.056938
-0.022590
-0.063348
-0.041045
-0.030440
-0.013242
-0.022533
-0.016589
0.029582
-0.034251
0.053589
0.025667
-0.000800
-0.009744
0.015167
-0.058947
0.031384
0.036558
0.047685
-0.021051
-0.018872
0.005668
-0.037141
-0.035908
-0.010700
0.057556
-0.046154
0.007859
-0.018839
-0.021089
0.015811
-0.035189
0.020266
-0.004327
0.058665
-0.040801
-0.053636
0.042518
0.045194
-0.023786
-0.026406
0.002931
0.014340
0.043219
-0.018744
0.029216
0.055030
0.021934
0.019775
-0.043865
0.046054
-0.049784
-0.057643
-0.037676
-0.027378
0.031254
-0.032454
-0.003073
-0.017037
0.017750
0.014978
-0.007552
-0.013733
-0.023344
-0.018072
-0.011560
-0.011583
-0.013493
-0.011215
0.020224
-0.049412
0.051841
0.006836
-0.036935
0.059772
-0.036248
-0.007743
-0.014468
-0.068438
-0.017863
-0.025565
0.062323
-0.005992
-0.026651
0.043322
-0.020156
-0.015728
-0.014402
-0.076327
-0.014665
-0.051536
0.001668
0.042559
0.003595
-0.027579
0.022063
-0.003661
0.019652
0.053658
-0.012255
-0.039453
0.083510
0.034124
0.028049
0.058987
-0.059435
-0.053068
-0.056308
0.063902
-0.006659
0.007225
0.041049
0.030473
-0.003872
-0.014604
0.018815
0.092205
0.002943
-0.000278
0.039106
0.044959
-0.031921
-0.040393
-0.045660
-0.011229
-0.036049
0.010094
0.030407
0.055175
0.041689
-0.042556
0.015390
0.003739
0.053139
-0.031360
-0.010422
-0.047865
0.021892
-0.045315
-0.039359
-0.033598
-0.055977
0.037842
0.024568
0.017977
0.007948
0.031996
0.060979
0.067879
-0.076516
0.004306
0.006228
0.003026
-0.020815
-0.002111
0.030085
-0.012581
0.014188
-0.065815
-0.095983
-0.027922
0.022402
0.041510
0.061487
-0.009986
0.049640
-0.034521
0.020952
0.024478
0.033259
-0.001918
-0.048124
-0.030468
-0.043273
-0.058096
-0.037966
0.001830
0.016575
-0.027562
-0.026642
0.022217
0.010493
0.004578
0.045168
0.053619
0.028532
-0.030701
0.037594
-0.006308
-0.042835
0.038234
-0.004333
0.000706
-0.006764
-0.055507
0.052286
-0.056398
0.017855
-0.047135
-0.042251
-0.051214
-0.004685
-0.053231
0.014411
-0.018236
-0.028439
-0.052385
0.011462
-0.030886
0.008885
0.056443
-0.006036
-0.035606
0.038396
-0.035875
0.005696
-0.058655
-0.053084
0.002261
0.049456
0.043217
0.002712
0.060668
0.045564
0.045304
-0.016208
0.046845
0.019378
0.005862
-0.048162
-0.064900
-0.008396
-0.026416
0.044199
-0.046021
0.053943
0.005701
-0.002944
-0.027203
0.058955
0.014621
0.017819
-0.037828
0.036438
0.029575
-0.028391
0.029686
-0.014902
0.045803
-0.039332
0.023074
0.045022
0.002887
-0.015879
0.049103
0.033986
0.054748
0.026784
0.030597
-0.009871
-0.022732
-0.026286
0.025377
-0.023383
0.051962
-0.017475
0.035408
-0.043151
0.050828
-0.014982
0.049424
0.022727
0.043538
0.011024
0.041836
0.031404
-0.030244
0.034900
-0.064328
-0.030456
-0.007458
-0.062440
0.000097
-0.031231
0.007807
-0.014769
0.054406
-0.007412
0.053191
0.013787
-0.038378
-0.015671
-0.061166
-0.016755
-0.005227
0.010769
0.055927
0.041598
-0.056681
0.006821
0.033931
-0.009330
-0.035002
-0.048145
0.047917
-0.027438
-0.054236
-0.052187
0.000770
-0.041296
0.027762
-0.024817
-0.041973
0.000519
0.071751
0.042841
-0.054555
-0.013668
0.030085
-0.016429
-0.016569
0.029788
-0.012970
0.003496
0.029851
-0.025153
0.002615
0.034519
-0.077459
-0.060575
-0.027961
-0.018540
0.054378
0.005785
0.025847
0.029409
0.009432
0.022097
0.019842
-0.012490
-0.027703
0.005476
-0.064856
-0.048649
-0.022799
-0.005259
0.062534
0.022751
-0.044801
-0.073743
-0.019589
-0.002852
0.023284
-0.050668
0.024781
-0.021496
0.071229
-0.061786
0.061492
0.053503
-0.012556
-0.029929
0.057084
-0.052759
-0.068495
0.045216
-0.022544
0.016909
0.046990
-0.052325
-0.025333
0.083530
-0.001074
-0.072575
-0.065125
-0.017812
0.069019
-0.045086
-0.039762
0.017937
0.061574
0.000306
-0.011142
0.061083
0.017744
-0.046531
-0.016744
0.043306
-0.039515
0.010903
-0.016439
-0.019391
-0.002552
-0.001150
0.016527
0.000133
0.045685
0.004465
-0.001172
-0.055426
0.002855
-0.009485
0.048918
-0.032141
0.034505
0.005349
-0.064239
0.042722
-0.035512
0.014839
0.033485
0.067787
0.059699
0.003279
-0.037348
0.085548
0.024011
-0.036976
0.033110
-0.010594
-0.004377
-0.028820
-0.010133
0.026947
-0.019126
-0.054496
0.061438
-0.027730
0.064009
0.037627
0.008594
0.023420
-0.058322
-0.034547
-0.049262
0.037456
-0.002271
-0.030179
0.015990
0.023276
-0.047332
0.013822
0.056775
0.010876
0.013255
-0.068790
0.006186
-0.039707
-0.018158
-0.055174
-0.012098
0.028433
-0.054073
-0.016921
0.001137
-0.037645
0.041619
-0.045370
0.053672
-0.014719
-0.044940
-0.044709
-0.027647
0.029109
0.056168
0.017512
0.057065
-0.022596
-0.047950
0.037989
-0.038828
-0.027607
-0.058065
-0.055183
0.021316
-0.039637
0.017367
0.052813
0.062813
0.056384
-0.025880
-0.044922
-0.029895
-0.014599
-0.056368
0.037716
-0.056126
0.031338
0.030552
0.040941
0.028085
-0.001518
-0.028739
-0.056951
-0.064251
0.034348
0.062857
0.001327
-0.004327
0.059839
0.009834
0.013724
0.027132
-0.030243
0.014466
0.028053
0.033521
0.050266
0.052597
0.057746
-0.062047
-0.027662
-0.016053
-0.019296
0.035548
-0.022497
-0.044289
-0.034807
0.005409
0.046680
-0.043688
-0.036955
0.061668
0.054211
-0.021294
-0.063100
-0.025873
0.005090
-0.032196
0.055611
-0.044798
-0.001868
-0.033599
0.016573
0.040877
-0.003951
-0.024250
-0.037933
-0.045327
-0.031338
0.043366
0.064293
0.014241
0.069091
0.047921
0.060455
-0.007687
-0.053953
0.034096
0.029392
-0.000169
0.049257
-0.031075
0.033099
0.047740
0.022821
-0.021637
-0.048356
0.035394
0.044504
-0.022538
0.042713
0.006360
0.005692
0.058776
-0.007111
-0.061353
0.011477
0.024993
-0.012425
-0.069331
0.015460
0.060650
-0.022496
-0.017045
0.002192
0.008795
0.063766
-0.016319
-0.048227
-0.058020
-0.008655
0.031227
-0.014609
-0.058098
0.040798
-0.018407
-0.040083
0.033381
0.060294
0.012503
0.046782
-0.015308
-0.037021
-0.017396
-0.052665
0.034986
-0.027346
0.043320
-0.005575
-0.077339
-0.047781
-0.048638
-0.021142
0.024718
0.050223
-0.037344
-0.035917
-0.041725
0.018007
-0.004291
-0.020010
0.019986
0.058632
0.014879
-0.039170
0.067608
0.025545
-0.019800
0.036516
-0.045176
0.069524
-0.055000
0.065751
-0.074977
0.048988
0.000204
-0.046276
0.037527
-0.042193
0.054506
-0.039068
0.019124
0.033960
-0.024306
0.028040
-0.064213
0.061622
0.062186
0.025261
0.019562
0.015424
0.042047
0.032157
-0.003342
0.021577
0.010223
-0.017222
0.042529
-0.067834
0.048128
-0.002925
-0.045882
0.012015
-0.059545
0.047156
-0.029769
-0.019968
-0.025863
0.001978
0.069036
0.042733
0.021943
-0.063102
0.008589
-0.002015
-0.047036
-0.007256
0.037617
0.024167
0.034695
-0.016185
0.039590
0.005389
-0.060124
0.055305
-0.006294
0.021949
0.049699
-0.037450
-0.005489
0.036220
0.030815
-0.017685
-0.021577
-0.045388
-0.057423
0.005097
0.011204
0.007541
0.031587
0.023015
0.018624
-0.038864
0.032876
0.048436
0.007932
-0.042210
0.018113
-0.050611
0.015177
0.018115
-0.010538
0.020303
0.058331
-0.059995
-0.042754
-0.029279
-0.025985
-0.029295
-0.032448
0.025487
0.053977
0.004820
0.055011
0.010553
0.005343
-0.010898
0.005950
-0.013901
-0.017538
-0.052875
0.003450
-0.042008
-0.057146
-0.025828
-0.024259
-0.009266
-0.004651
0.034105
0.045585
0.039950
-0.009562
0.042790
-0.049879
-0.059122
-0.039723
-0.041291
-0.008874
-0.030722
0.010737
0.053727
-0.053115
-0.013845
0.060743
0.018955
0.050886
0.036336
-0.043306
0.031043
-0.009642
-0.035307
-0.013520
-0.046109
-0.001506
-0.052286
-0.030443
-0.034378
-0.005785
0.014172
0.014833
0.020564
0.012638
0.040511
-0.003416
-0.022298
-0.051252
0.054326
0.025396
0.054974
0.023745
0.006299
0.025629
-0.027928
-0.033999
-0.060075
0.036666
0.004333
-0.025119
0.057897
-0.022517
-0.033024
0.043560
-0.046925
-0.026139
0.050221
-0.020916
0.026621
-0.004709
-0.035560
0.027545
-0.046124
-0.041435
0.009608
0.043505
-0.039242
-0.031332
0.063816
-0.044744
-0.027915
0.034604
0.022023
-0.026478
0.051288
-0.053387
-0.058361
0.054947
0.043248
0.011222
0.027374
0.007927
0.030090
-0.033773
-0.054865
-0.056846
-0.019003
-0.051434
-0.023241
0.056346
0.026037
0.048364
-0.007179
-0.020447
-0.060626
0.045838
-0.020490
0.006523
0.048050
0.053165
-0.008399
0.003414
-0.050322
-0.000839
0.055708
-0.042687
-0.070983
-0.049177
0.054986
0.031022
-0.025155
0.053979
-0.052243
-0.018536
-0.051867
-0.034319
-0.062467
-0.001147
-0.055247
-0.041744
0.080995
0.001971
-0.016461
0.042069
-0.071584
0.076899
0.056594
0.008733
-0.014516
0.029774
-0.077542
-0.035161
0.019143
0.060237
-0.040499
0.030785
0.036704
-0.000210
0.047067
-0.011500
0.082114
-0.056678
0.041075
-0.041642
-0.043431
-0.076787
-0.031639
0.033109
-0.020883
-0.010581
0.029085
0.032554
0.019602
0.032449
0.015002
0.049997
0.062109
0.035611
0.023906
-0.013214
0.079306
0.040651
0.012762
-0.078172
0.060768
-0.046218
-0.054806
-0.029798
0.049862
-0.003121
-0.051861
-0.031747
0.069101
-0.013297
-0.001821
-0.012265
-0.000896
-0.031982
-0.016127
0.026420
0.046605
0.007545
-0.028514
-0.058453
0.032051
-0.026722
-0.013157
0.014690
-0.061952
0.009526
-0.046402
0.004263
-0.038336
-0.071003
0.015115
-0.007460
-0.014424
-0.031213
0.008919
-0.043884
-0.004902
0.029434
0.005023
0.012452
-0.002850
-0.010117
0.046847
0.026208
0.058131
0.005942
0.029276
0.040922
0.033958
-0.048139
-0.048752
0.010568
-0.021151
0.026998
0.012027
0.015516
0.046367
-0.028255
-0.000055
0.039625
-0.053507
-0.054728
-0.056094
-0.007027
-0.016217
0.010893
-0.012508
-0.026357
-0.007419
0.041640
0.036079
-0.064034
0.045448
0.025445
-0.024629
0.041941
0.046227
-0.030731
0.046037
-0.034321
-0.048128
0.061034
-0.054592
-0.001194
-0.054645
-0.035545
0.010533
-0.019342
-0.049879
0.041283
0.013716
-0.065215
0.028693
-0.044718
-0.044678
-0.049902
0.043886
-0.050008
-0.016118
-0.060016
0.059692
-0.013040
0.043928
0.057413
-0.027721
0.045882
-0.020385
-0.032537
0.008067
0.028212
0.030781
-0.018225
-0.046521
0.053166
-0.002325
-0.045490
-0.007218
0.040114
0.026998
0.009347
-0.002941
-0.008266
-0.001923
0.058864
-0.000162
-0.034278
0.040831
-0.019748
0.012685
-0.002701
0.065338
-0.025681
-0.006866
0.003484
0.007909
0.018535
0.020154
0.012343
0.052228
-0.008302
-0.006845
0.035097
-0.018740
-0.014320
-0.014946
0.033588
0.012179
-0.024412
0.007453
-0.019539
0.036905
-0.043006
-0.033984
0.043524
0.029535
-0.018210
0.051330
0.034722
-0.021818
-0.038631
-0.042713
-0.037385
0.026081
0.003950
0.056956
-0.051522
0.048425
-0.016958
0.024570
-0.006579
-0.007464
0.039608
0.054871
0.048333
0.061160
-0.042535
0.046995
-0.031428
0.002286
0.005583
-0.006908
0.003457
0.030584
0.019295
-0.004840
0.013161
0.010191
-0.018016
0.008707
-0.061573
0.032438
-0.038658
0.071953
0.022371
0.016937
-0.015035
-0.033786
0.020374
0.011592
-0.032053
-0.051601
0.003696
-0.049270
0.042766
0.036568
0.057908
-0.061542
-0.001976
0.039024
-0.013100
-0.035057
0.016026
0.052464
-0.070535
-0.043773
-0.001508
-0.071949
-0.030422
0.026704
-0.007391
-0.052579
0.001933
0.017190
0.018082
0.013471
0.043981
0.053568
-0.009013
0.033220
-0.013258
0.063905
-0.001870
0.041863
-0.037937
-0.034867
0.067594
-0.040183
-0.068964
0.059966
0.021326
-0.007134
-0.050433
0.038437
0.008815
-0.017864
-0.059129
0.041710
-0.000560
0.044949
-0.021941
-0.080464
-0.003184
-0.010846
-0.037432
0.012903
0.002653
0.059829
-0.029144
-0.041461
-0.052148
-0.042977
0.005550
0.001208
0.018915
0.061642
-0.017952
-0.072728
0.017861
-0.030711
-0.005985
-0.051295
-0.007369
-0.063200
-0.045128
0.066737
-0.020005
-0.023534
-0.026647
-0.018999
0.060138
-0.076360
0.039912
0.022512
-0.037597
0.037655
0.037243
0.008769
-0.017873
0.042877
-0.012636
-0.072953
-0.037163
0.062222
-0.008688
-0.021134
-0.000675
0.060117
-0.063112
-0.051748
-0.057515
0.070851
-0.045113
-0.077248
0.031316
-0.054017
-0.025607
-0.009370
0.027557
-0.066445
-0.016475
0.037240
0.017106
-0.012505
-0.011934
0.047264
0.006010
-0.050911
-0.031932
-0.027678
-0.035511
0.000749
0.002303
0.009147
-0.007964
-0.003840
-0.063202
-0.042855
0.016417
-0.034528
0.022280
0.056597
-0.007424
-0.059380
0.042073
0.025295
-0.026259
0.059561
-0.041216
-0.017314
0.027270
0.044374
-0.054973
-0.050512
-0.007032
0.039374
0.037011
-0.020224
-0.052206
-0.005747
-0.055681
0.015008
-0.008928
0.033727
-0.013201
-0.000939
-0.038373
-0.062651
0.027263
-0.065856
-0.027582
-0.024903
-0.035190
-0.047725
0.019862
-0.035378
-0.007674
0.021671
0.013393
0.044163
-0.053917
-0.024698
-0.016189
0.020504
-0.011148
0.044754
-0.030825
-0.005470
0.000159
-0.065405
0.002027
0.030786
0.054412
-0.018360
0.049496
0.046203
-0.029837
-0.040723
0.031568
-0.055903
0.060140
-0.055616
-0.034585
-0.010893
0.009502
-0.046020
0.010751
-0.012834
0.025482
0.004474
-0.048037
0.020559
-0.036756
0.036728
0.001237
-0.002799
0.022216
-0.021905
0.015974
0.047621
0.044295
-0.007336
0.055764
0.044391
-0.029403
0.059749
0.033500
0.031049
0.027045
-0.032507
-0.040034
-0.057136
-0.031131
-0.055470
-0.007204
-0.012058
0.032163
-0.017610
-0.054134
0.048660
0.055589
-0.010389
0.042345
-0.010678
-0.008523
-0.028675
0.054478
-0.052581
-0.044163
-0.001850
-0.042150
0.006573
-0.008721
-0.048518
-0.050338
-0.039898
0.034305
0.004727
-0.043610
0.040536
-0.036715
0.010794
0.010269
0.060473
0.058521
-0.049560
0.010151
0.041153
-0.029620
0.028071
0.001847
-0.044413
0.009695
0.043797
-0.007214
-0.035621
-0.055078
0.030327
-0.031876
0.049114
-0.040390
-0.036348
-0.027583
-0.039496
-0.031004
-0.031050
0.037345
0.004948
-0.009153
-0.053948
0.024927
0.030466
-0.045935
0.002190
-0.014207
-0.022783
-0.064010
0.019742
-0.009108
0.043703
-0.060186
-0.059828
0.063218
0.018063
0.063572
-0.021958
-0.040751
0.055392
-0.035841
0.029371
-0.040125
0.041470
0.008011
-0.015061
0.028480
-0.006398
0.013060
-0.061995
0.001082
-0.035162
-0.024996
0.020542
0.018385
-0.061614
0.007946
-0.030176
0.006637
0.031955
-0.009794
0.013328
0.061713
-0.008396
0.021937
-0.043045
0.016614
-0.054503
0.001406
0.018317
-0.025926
0.051853
0.009214
-0.036672
-0.011256
0.001822
0.005204
0.042450
-0.026260
0.040948
0.032113
0.026999
0.044744
-0.050462
0.019628
0.031551
-0.034114
-0.006651
-0.038215
0.047563
0.054407
0.055019
-0.008592
0.020980
-0.057510
0.008914
0.056977
0.004916
0.031181
-0.051243
0.041792
0.005275
-0.035996
0.058918
0.001339
0.030477
-0.006387
-0.035379
0.009195
-0.043952
-0.053555
-0.003182
0.035434
-0.007099
0.024527
-0.026169
0.017678
-0.013730
0.036451
0.036899
0.032756
-0.029789
0.037490
0.019793
0.051316
-0.059092
0.036129
0.052480
0.033352
0.067085
0.048719
-0.008874
-0.061069
0.058961
0.031515
-0.006232
0.031796
-0.043769
-0.048868
0.053165
0.064248
0.005920
0.026381
0.033494
0.047826
0.054229
0.000626
-0.043140
-0.030473
0.052409
-0.002214
-0.002925
0.039921
-0.045772
0.008941
-0.010899
0.019400
0.006919
0.029376
-0.011410
-0.033433
0.051516
-0.017167
0.058975
-0.001952
0.044109
-0.005712
0.020222
0.017373
-0.042029
-0.018484
-0.035977
0.043477
-0.001094
-0.039951
0.067322
0.047736
0.069695
-0.030351
-0.048019
0.054226
-0.052443
-0.058501
-0.045748
0.007780
0.052402
0.050661
0.056976
-0.038557
-0.046385
0.009636
0.024167
0.058755
-0.047162
0.046070
-0.028371
0.053164
-0.061120
0.065040
-0.060039
-0.003326
-0.001628
-0.026607
-0.007033
-0.047173
0.035844
0.011084
-0.047323
-0.007535
0.001854
-0.007703
0.033846
-0.061408
-0.037632
-0.012910
-0.010027
0.000091
-0.031810
-0.054822
-0.056955
-0.008656
0.033256
-0.034127
0.065749
-0.033746
-0.050681
0.000196
-0.021204
-0.008410
0.060570
0.023011
-0.009172
0.062564
0.043151
-0.008683
0.003621
-0.015902
0.062307
-0.008914
0.030343
0.040350
-0.038102
-0.081945
0.006949
-0.018513
-0.057025
-0.010555
-0.066919
0.036982
-0.034259
0.004252
-0.030024
0.020642
-0.018690
0.025737
0.018332
0.024269
0.002429
0.037577
-0.004512
-0.039717
0.003022
-0.021408
0.010124
-0.013847
-0.037981
0.056288
0.041072
0.066875
-0.026955
-0.057847
0.051056
-0.071423
-0.063622
0.048710
-0.045428
-0.029118
0.044918
0.044380
-0.050230
-0.025288
-0.057469
0.049673
-0.057476
-0.060722
0.032041
0.003639
-0.019299
-0.034988
-0.030993
-0.013225
0.052826
0.001870
-0.020044
-0.071558
-0.030181
0.019875
-0.047611
-0.029892
-0.055884
0.077257
0.052639
-0.022230
0.011922
-0.013017
0.069578
0.063097
-0.008547
-0.060586
0.040401
0.055355
-0.077011
-0.038246
-0.020615
0.048200
-0.043773
-0.043811
0.055232
-0.048126
-0.062480
0.003300
0.035140
-0.063422
0.029090
-0.069154
-0.009402
-0.000423
-0.002728
-0.028856
-0.032985
0.034075
0.057612
0.046478
0.031950
-0.021991
-0.015302
0.015635
0.036243
-0.058169
-0.016946
-0.045655
0.006810
-0.032764
0.035033
-0.009741
0.003304
0.024142
-0.038155
0.072675
-0.006532
-0.018670
0.055187
-0.006519
-0.051226
0.013904
-0.037584
0.075386
0.031907
-0.028481
0.027319
-0.027270
-0.020083
0.003992
-0.000854
-0.014958
0.020419
0.055719
-0.022284
-0.008413
0.021463
0.051840
0.052544
-0.058317
0.006935
-0.014021
-0.018589
-0.000728
-0.057793
0.059229
-0.052764
-0.031797
-0.024291
-0.048527
0.061932
-0.030802
0.057307
0.007032
-0.028270
-0.056398
0.044625
0.020121
0.053624
-0.047763
-0.043919
0.018167
-0.029915
-0.029495
0.027470
-0.045073
0.057402
0.021146
0.059465
0.045066
-0.045706
0.041714
-0.051101
-0.055241
0.050631
0.025652
-0.013101
0.015089
0.039623
-0.040967
-0.027029
0.038452
0.053220
-0.059864
0.001694
-0.059146
0.038133
-0.043367
-0.029454
-0.056784
-0.011035
-0.045891
0.060519
-0.003064
-0.024367
0.027893
-0.037459
-0.005735
0.010056
0.010413
0.035238
-0.022556
-0.008541
-0.017622
0.053886
-0.035515
-0.034070
-0.003904
0.060658
-0.028932
-0.023753
-0.051812
0.028998
0.052239
0.007736
-0.015976
-0.064768
-0.021507
-0.007554
-0.043535
0.026057
-0.031209
0.045524
0.049610
-0.027959
0.028628
0.052926
-0.046257
-0.024619
-0.010221
-0.016575
0.041316
-0.036903
0.053018
0.032203
0.031613
0.062202
-0.043556
-0.038263
-0.056688
0.007077
0.021716
0.028825
-0.049773
-0.016721
-0.000009
0.007243
-0.001487
-0.008272
-0.006050
0.011018
0.023226
-0.023849
0.035067
-0.005303
-0.009448
-0.032482
-0.047805
-0.040566
-0.053209
0.004473
0.026773
-0.051297
-0.070140
-0.045486
0.036581
0.021045
0.002481
0.061758
0.048445
-0.003243
-0.052708
0.033982
0.054939
0.046721
0.025264
-0.071234
0.027083
0.007822
0.045182
0.003421
0.053686
0.037924
-0.003718
-0.018377
0.010998
-0.005139
0.038935
0.006279
0.031389
-0.033146
0.043805
-0.048336
0.007947
-0.076540
-0.002094
-0.038964
-0.028105
0.061227
-0.003289
-0.070766
0.008793
0.068280
0.007090
0.006845
0.008319
0.017148
-0.029011
-0.024950
-0.056514
-0.008252
0.029250
-0.039950
0.072764
-0.060352
-0.075326
0.008752
0.024885
0.004758
-0.055395
0.064924
0.037068
0.065980
0.025011
0.033656
0.066229
-0.017878
-0.028924
-0.062917
0.001856
-0.009002
0.001897
-0.039337
-0.012407
-0.002625
-0.028893
0.014994
0.045544
0.027965
-0.054014
0.016293
0.045925
0.029510
-0.046696
0.039217
0.069305
-0.012583
0.041718
-0.047104
0.023862
-0.024344
0.023711
-0.022167
0.037785
-0.003434
-0.070027
-0.001184
-0.044754
0.016783
-0.046536
0.059508
-0.050414
-0.042983
-0.037527
-0.006307
-0.026962
0.038739
0.046256
-0.016458
0.016191
0.010493
-0.071587
0.052600
-0.024011
-0.062800
-0.050616
0.026551
-0.040630
0.076131
0.040271
0.006170
-0.056218
-0.075861
-0.035940
-0.040477
-0.004479
-0.054479
0.020409
0.014149
0.033235
0.022897
-0.041085
-0.026003
-0.013231
-0.014810
-0.044322
0.030514
-0.038506
-0.011597
-0.034119
0.059228
0.002299
0.025924
-0.042851
-0.049831
-0.035727
-0.014364
0.045143
0.028478
-0.035233
0.010522
-0.017737
-0.029776
-0.058888
-0.008530
0.005302
0.043588
0.006135
0.017282
0.005421
-0.012022
0.015447
0.043024
0.012688
-0.046914
-0.032151
-0.038035
-0.043315
0.031185
-0.053715
0.056782
0.011733
0.053093
0.046440
-0.055627
-0.004072
-0.034926
-0.005598
0.011512
0.057863
-0.028816
0.059046
0.042161
0.016247
0.003410
-0.020272
0.012349
-0.035595
0.027855
0.046340
-0.015781
0.003707
-0.026775
-0.034835
-0.007322
0.025424
0.019462
-0.031147
-0.011794
0.002522
0.022706
0.059371
0.018925
0.045334
-0.001011
-0.005876
-0.048887
0.035750
-0.020755
-0.033814
-0.060255
0.034424
-0.035662
0.000538
0.052836
-0.019787
-0.039932
0.052317
-0.036932
-0.057808
-0.028953
-0.028792
0.031721
0.059142
0.035813
-0.037215
-0.043168
-0.038804
0.029914
-0.044619
-0.065652
0.005018
-0.030622
-0.008174
0.047947
0.037536
0.018960
0.054968
-0.001046
-0.002880
0.034859
0.052257
-0.006162
-0.013162
0.015749
-0.029257
-0.047416
-0.037875
-0.053796
0.007486
-0.013950
0.021660
-0.060875
0.027694
0.026360
-0.041079
-0.028084
0.054730
-0.033230
0.030916
-0.053202
0.038809
0.056175
-0.039599
0.059885
-0.050965
-0.059006
-0.048490
-0.053546
-0.052916
0.013440
-0.059580
0.035962
-0.001879
-0.017116
-0.020362
0.017467
0.038170
0.046174
-0.008983
-0.041282
-0.011393
-0.019226
-0.041626
0.022784
-0.051572
0.045103
-0.013478
-0.015018
0.058360
0.012810
-0.054771
-0.040693
0.024749
0.020438
-0.034292
0.016127
-0.018656
0.037365
0.033038
-0.006894
-0.009329
-0.023325
-0.055972
-0.032514
-0.027790
0.047309
0.041448
-0.000761
0.032312
-0.020553
-0.020328
0.024685
0.024935
0.038494
0.020803
-0.017862
0.009504
-0.051574
-0.033664
0.005494
-0.007496
0.038608
0.054115
0.006372
0.041000
0.039744
0.022089
0.026345
0.035057
0.009574
0.013314
0.032122
0.055615
-0.031686
-0.047286
0.002160
-0.034531
0.041454
0.041350
0.031412
0.017450
-0.037507
0.060401
-0.000820
0.043864
0.046124
-0.004477
0.036451
0.004681
0.024038
0.031927
0.041718
-0.000569
-0.057174
0.035482
0.010926
0.051404
-0.059461
0.001250
0.028280
-0.054797
-0.055487
-0.009247
0.041304
0.029191
-0.022530
0.041985
0.020957
0.030778
-0.034101
-0.042684
0.048344
0.044565
-0.002418
0.001911
0.041518
-0.004210
-0.001299
0.035964
-0.039453
0.015944
0.056869
0.025574
0.027360
0.001995
0.040603
0.031162
-0.004450
-0.009896
0.055449
-0.059824
-0.029974
0.032622
-0.028621
-0.036616
-0.020556
0.026955
0.047065
0.001494
-0.045579
-0.046921
-0.004131
0.006310
0.034091
0.059337
0.034299
-0.056382
-0.045884
-0.012871
0.027484
-0.020345
-0.046567
-0.007785
-0.025561
0.004194
-0.048219
-0.052697
-0.035643
0.054495
0.063376
-0.060318
-0.002256
-0.067229
-0.000877
0.034031
-0.009510
0.067366
-0.042639
-0.061448
0.052043
0.014281
-0.027080
0.063451
0.025807
0.035098
0.023406
0.053074
0.054903
0.034896
-0.034321
0.014677
-0.007493
-0.048620
0.058563
0.014954
-0.027512
0.035672
0.057599
0.062929
0.065199
-0.027222
-0.003672
-0.004621
-0.050899
-0.019528
-0.047918
-0.023954
-0.064326
0.037229
0.069641
0.052070
0.061683
0.042646
0.029946
0.053141
-0.008737
0.023237
-0.013110
0.002876
-0.016039
0.031609
-0.024708
-0.012251
0.003628
-0.043073
-0.036400
-0.004404
-0.004316
-0.042603
-0.017678
0.028215
-0.015423
-0.060621
-0.018736
-0.040842
0.001718
0.044658
0.029136
0.023561
-0.031999
0.017846
0.024560
-0.008088
-0.029720
-0.023700
-0.007382
-0.035113
-0.044490
0.022231
0.009365
0.007585
0.038223
-0.064227
0.015800
-0.031767
-0.029847
0.060422
0.044174
0.015015
-0.020323
0.005745
-0.003742
-0.056907
0.024400
-0.077315
-0.045767
0.048381
0.006238
0.013549
-0.036883
0.053929
-0.013082
-0.006004
0.016834
0.000410
0.069691
-0.004368
-0.034025
-0.013759
-0.037798
-0.012337
-0.067498
0.017066
0.041145
-0.014703
-0.056401
-0.074934
-0.002467
0.016185
-0.005244
-0.024000
0.065369
-0.078535
0.002978
0.036301
-0.038614
0.055353
0.019015
-0.040029
0.065252
-0.061225
-0.044275
0.079300
-0.035743
-0.036862
0.061197
0.033621
0.023863
0.058609
0.047848
-0.027364
0.022402
-0.030166
-0.051917
0.043919
-0.021234
-0.088625
-0.027994
0.012325
0.065407
-0.041601
0.018497
-0.070216
0.062621
-0.069811
0.015238
-0.015682
0.049391
0.028882
-0.013885
0.026395
0.010666
0.077328
0.029362
-0.040071
0.030874
0.062260
0.018097
-0.057007
0.058890
-0.055533
0.034799
-0.024705
0.024594
0.029511
-0.012618
0.022654
-0.072019
-0.044749
-0.076471
0.054725
-0.049550
-0.013830
-0.016192
0.041602
0.031483
-0.045342
0.062364
-0.019717
-0.076247
0.027268
0.016986
0.031710
-0.072932
0.013362
-0.028473
-0.055701
0.070071
-0.034575
-0.060174
0.067149
0.070264
-0.033402
0.044615
-0.062196
0.059491
0.001200
0.021996
-0.052025
0.052465
-0.047180
-0.007162
-0.021797
-0.021141
-0.080169
0.063197
0.020379
-0.049034
0.012842
0.083347
-0.010152
0.043853
0.044698
0.025966
0.006240
-0.018687
-0.023196
0.058168
-0.023664
-0.028272
0.037026
-0.045687
0.044333
0.062426
0.057474
-0.038657
-0.056170
-0.001261
-0.053528
0.065253
-0.043203
-0.035917
-0.063395
-0.016591
0.038546
0.002060
0.045680
-0.041128
-0.006289
0.065002
-0.043623
0.010144
-0.032892
0.046823
-0.033550
0.021379
0.058344
-0.052099
-0.047203
-0.006436
0.028375
0.044518
-0.012276
-0.000296
-0.022798
-0.021496
0.005980
-0.056581
0.056375
0.017174
-0.010569
0.064715
0.041826
-0.012770
-0.007392
0.060664
-0.022476
0.031284
-0.054013
-0.023243
-0.041885
0.054676
-0.060082
0.056878
-0.009114
-0.016495
-0.033674
-0.007059
0.035074
0.043933
0.020331
-0.005011
0.041592
-0.037778
0.056773
0.054713
-0.046552
0.060546
0.017414
-0.034562
-0.019500
0.000221
0.033088
0.048267
0.039631
-0.056954
0.053104
-0.054109
0.037547
-0.037822
0.037988
0.029272
-0.065793
0.027529
0.050680
-0.048344
0.056626
-0.058353
-0.008235
0.015450
-0.029701
0.031270
-0.045869
0.008652
-0.056932
-0.055491
0.013705
-0.039662
0.026605
0.012027
-0.051412
-0.006478
0.029613
0.018590
0.026546
-0.052788
0.009947
-0.049498
-0.004728
0.034313
0.043631
0.029515
-0.019001
-0.007597
-0.041259
0.046868
-0.005696
-0.041452
-0.031919
-0.031021
0.043070
-0.030022
-0.078924
-0.029523
0.057872
-0.048100
-0.041843
0.023501
0.052729
0.047725
0.005672
-0.054235
0.032588
0.009064
-0.017334
0.015644
-0.019178
0.063297
-0.006828
-0.050633
-0.035610
0.065700
0.071605
0.067357
-0.031772
-0.012104
0.073584
-0.036275
0.029973
0.037040
0.005866
0.056484
-0.009454
0.004667
-0.037025
-0.023682
0.020909
-0.028452
-0.052112
0.024839
0.054870
-0.050287
-0.014625
0.047658
-0.056130
0.025969
-0.009786
0.001140
-0.044813
0.071572
-0.045741
0.063404
0.088918
-0.061037
0.007951
-0.061726
-0.048637
-0.056588
0.039951
0.027057
0.077078
0.081561
-0.053348
0.049028
-0.045923
0.079508
0.072242
0.002229
-0.054305
-0.000454
0.061961
-0.071512
-0.005533
0.066199
-0.051543
0.027549
-0.024684
0.018372
0.002733
-0.037083
-0.020928
0.023186
-0.052717
0.023692
-0.040348
0.001726
-0.020413
0.038201
-0.026197
0.017482
0.068696
-0.047908
-0.009168
-0.035373
0.016863
0.046111
0.002384
-0.005240
-0.044948
-0.030462
0.013397
-0.014641
0.054927
0.005948
0.008399
0.046831
0.005414
-0.059616
-0.004809
0.026805
0.023753
0.061956
-0.049623
-0.030567
0.000402
-0.016460
0.052607
0.004452
-0.014369
-0.000696
0.054820
-0.019361
0.004512
0.083665
-0.028777
0.014128
-0.057773
0.031815
-0.035265
-0.046752
0.061532
-0.062809
-0.024774
-0.051159
0.043122
-0.012643
0.041866
0.049488
-0.048965
-0.023342
-0.044072
-0.017499
0.006452
-0.012238
-0.020650
-0.005892
0.029270
0.006197
-0.035510
-0.055017
-0.043928
0.045156
0.034007
0.013767
-0.004843
-0.018039
-0.002931
-0.045323
-0.048747
-0.008229
0.032812
-0.016026
0.004971
0.006117
-0.028146
-0.023625
0.030031
-0.033276
0.003524
0.023046
-0.043660
-0.010460
-0.007573
-0.043635
-0.022046
-0.044743
-0.012708
0.043874
-0.013077
0.056370
-0.063399
-0.045749
0.038285
-0.011542
0.061016
0.023015
-0.031574
-0.055859
-0.039609
0.053768
-0.015221
0.008745
-0.011382
-0.052551
-0.027458
-0.038093
0.032518
-0.023224
0.056209
-0.019665
-0.011124
-0.061378
0.053832
-0.036774
-0.014697
0.054160
0.016746
-0.014712
0.051350
0.033946
0.043656
0.053229
-0.039408
0.043715
-0.041746
-0.049652
-0.043198
-0.011425
-0.056417
0.054331
0.027394
0.029599
0.030558
0.023841
0.006658
-0.051444
-0.029153
-0.019343
0.050561
0.021452
0.009597
0.016316
0.005416
0.007884
0.053609
-0.033430
-0.046432
-0.036575
-0.043085
-0.050161
0.034874
-0.040848
0.021183
-0.041998
-0.034369
-0.039478
-0.008474
0.008560
0.029124
-0.019787
-0.003248
-0.023129
0.057518
0.011610
-0.043508
0.029462
-0.016235
-0.061010
0.042864
-0.010327
0.027061
0.004667
0.036210
0.017601
-0.016914
-0.056322
-0.035627
-0.018567
0.033681
-0.042192
-0.039368
0.022110
0.050955
0.028620
0.046056
-0.020677
0.058174
0.002547
-0.016987
-0.058167
-0.063744
0.022699
-0.058827
-0.036769
-0.010845
-0.013819
0.070264
-0.065220
0.081482
0.052080
-0.053306
0.018264
0.007966
-0.054443
0.028778
0.070966
0.017234
-0.007798
-0.041044
0.021977
-0.040314
0.050768
-0.068253
-0.034024
0.029777
-0.071077
0.042122
-0.001181
-0.046375
-0.055409
0.046377
0.079585
-0.064319
-0.019157
0.015708
0.052754
-0.049036
-0.011922
-0.015132
0.072711
-0.010407
-0.060550
-0.058723
0.082845
0.040623
0.030488
0.010750
0.000921
0.004532
-0.064421
-0.034110
0.020222
0.044971
0.006687
-0.055424
0.050835
0.042012
0.029261
0.067262
-0.063134
-0.024127
-0.080906
0.014081
-0.061215
0.039583
0.021775
0.031261
-0.073189
-0.068633
-0.008733
0.022305
-0.045400
-0.030927
-0.013760
0.056912
-0.002818
-0.064568
-0.018807
-0.029492
0.007524
-0.054543
-0.031618
0.071477
-0.031172
0.022352
-0.035944
0.021818
0.043654
-0.023279
0.020580
0.032955
-0.043737
0.021573
-0.044543
0.014249
-0.048386
-0.057220
0.043332
0.008552
-0.013043
-0.003802
0.033615
0.029097
0.011656
0.020976
-0.031345
-0.052826
-0.025204
0.038747
0.034559
0.042089
0.010676
0.029935
0.023497
0.019749
0.001262
-0.058829
-0.029193
0.024782
0.018626
-0.046096
0.047109
0.057380
0.021569
-0.010323
-0.047769
-0.042938
-0.002541
-0.000893
-0.046277
0.028187
-0.022901
-0.022015
-0.017217
-0.028424
-0.050119
0.004563
0.052948
0.000811
0.014329
-0.006932
-0.013794
-0.061419
0.053520
0.020126
0.008681
0.014983
-0.063389
0.016207
0.041309
0.035461
-0.021126
0.044644
-0.004060
-0.009166
-0.040331
-0.034452
-0.057435
0.002737
-0.058720
0.020796
0.032949
0.048829
0.005154
0.049986
0.022440
0.053467
-0.008090
-0.036228
-0.003255
0.020235
-0.035871
0.042414
-0.042645
0.064123
-0.022573
0.035456
-0.051343
0.028536
0.006840
-0.041287
0.030825
-0.042383
-0.005162
-0.011977
-0.012310
-0.022903
-0.045104
0.014960
0.042585
0.040365
-0.037986
-0.009684
-0.032397
0.010597
-0.012636
-0.026710
-0.011474
0.027914
0.042541
-0.001346
0.039654
0.058535
-0.020279
-0.029404
0.009455
0.012270
-0.013836
0.053569
-0.015190
-0.050546
-0.023925
-0.008537
-0.040379
-0.054159
-0.001024
0.053750
0.015938
-0.021836
-0.024244
-0.032102
0.059460
-0.011448
-0.024132
0.046506
-0.014879
-0.051536
0.031954
-0.044155
0.040886
0.048049
0.042970
-0.013174
-0.053890
-0.017773
0.035144
-0.038296
0.015227
-0.009231
0.067432
-0.041103
-0.021306
0.031420
-0.015461
-0.009313
0.004912
0.044057
0.026297
-0.015942
0.000506
0.065046
0.053505
0.037652
-0.043023
-0.059076
0.042425
-0.020982
0.014604
0.018905
0.051824
-0.029076
-0.077301
0.064742
-0.006006
0.077343
-0.055325
-0.054935
-0.030348
-0.029893
-0.049060
0.053479
0.043419
-0.038056
0.065696
-0.033249
-0.000380
0.052502
-0.032788
-0.044423
-0.027601
0.015148
-0.005512
0.002518
0.040761
-0.047184
-0.027629
-0.040813
0.054088
-0.043448
-0.035775
-0.010877
0.078260
-0.021541
-0.041794
0.037661
0.010845
0.061173
0.027638
-0.029010
0.043326
-0.036337
0.054409
0.038163
0.056665
0.068012
0.016009
0.056349
0.061386
-0.004522
0.008267
-0.051286
0.014282
0.047212
0.038163
-0.020382
-0.018707
0.007533
0.019500
0.062709
-0.057054
-0.021029
-0.033123
-0.050101
-0.021328
0.001785
0.020462
0.071193
-0.082338
0.041965
0.020296
0.042992
-0.009409
-0.000921
0.036580
0.039141
0.008790
-0.034283
-0.023257
0.005137
-0.007236
-0.030274
0.006495
0.003818
-0.042895
-0.044694
0.044468
-0.055419
-0.048707
-0.045521
0.021658
0.045097
0.018732
-0.005580
0.050552
-0.007306
0.027072
0.003474
0.015696
-0.041983
0.044723
-0.044470
0.015522
0.034822
0.041056
0.059370
-0.030303
-0.022948
0.007782
0.028327
0.032090
0.007242
0.052340
0.013944
-0.015506
0.030975
-0.015100
0.037702
-0.045999
0.037551
0.060287
-0.058544
-0.029977
-0.037925
0.001095
0.040873
-0.030473
-0.019416
-0.021922
0.025426
0.052169
-0.005400
0.025194
0.013548
-0.010699
-0.048207
-0.036567
0.016097
-0.053947
0.039902
0.059822
0.041078
-0.023320
0.009872
0.026038
-0.056763
-0.018241
0.031087
-0.051209
-0.028724
0.051510
-0.030455
-0.042023
-0.003002
-0.031916
-0.015337
0.042752
0.008273
0.022156
-0.023345
0.013123
0.036895
-0.018440
0.035882
0.041357
0.017492
0.025468
0.049959
-0.012904
0.052941
0.008351
0.047195
0.016300
0.016637
0.063297
-0.010527
-0.048021
0.027527
0.041280
0.027171
0.015493
0.029451
0.000589
0.005408
0.007186
0.009601
-0.062549
0.016173
-0.043711
-0.002563
0.017458
0.053388
-0.005866
-0.004633
-0.024579
-0.030655
-0.043668
0.032661
-0.012022
0.008253
-0.059066
0.003923
0.004353
-0.018316
0.036686
0.010295
-0.062023
-0.033710
-0.057768
-0.023420
0.008109
0.018694
0.039130
-0.006795
0.019571
0.011245
-0.054863
-0.057898
-0.048622
-0.035742
0.014003
-0.024204
-0.019840
0.046005
-0.054857
-0.002330
-0.011957
0.033767
-0.007955
0.053415
0.063262
-0.013884
0.015095
-0.032851
-0.022627
0.036067
-0.018306
-0.031760
0.040345
-0.071208
0.004445
0.054016
0.042856
-0.018868
0.014375
0.011759
0.050687
-0.063390
-0.056673
-0.033973
0.063259
0.048646
0.065070
0.030169
0.008907
-0.004557
-0.063901
0.022372
0.026472
-0.016450
0.022488
-0.059871
-0.020068
0.006702
0.034929
-0.014468
0.078689
-0.027284
-0.026365
-0.052276
-0.079144
-0.078432
-0.071373
-0.001949
0.050274
-0.044611
0.035191
0.004905
0.050353
-0.011204
0.056900
0.072698
0.019698
-0.056436
-0.054024
-0.029864
-0.059151
0.062683
0.002103
0.014205
0.064688
-0.005696
0.019196
0.046821
0.017700
0.068736
-0.004184
-0.031740
-0.018250
-0.017360
0.020011
0.023145
0.049858
-0.037744
0.053601
-0.038714
0.003012
-0.032977
-0.010850
-0.061985
-0.000942
0.020414
-0.015447
-0.015723
0.067830
-0.017173
0.071945
-0.006033
-0.011737
0.027052
-0.023775
-0.040591
-0.058708
0.028437
0.073934
0.032455
-0.037489
0.032912
0.033748
0.071895
-0.032297
-0.007033
-0.001511
-0.002088
0.086841
0.001473
-0.059366
0.058327
-0.002177
0.047713
0.018750
0.028200
0.046557
-0.034133
-0.030532
-0.028983
-0.026154
-0.023915
0.026475
0.002514
-0.061102
0.020873
0.019200
0.041864
0.024226
-0.036223
0.012648
-0.006619
-0.005395
0.024758
0.028688
-0.055363
-0.035703
-0.056682
-0.017807
0.030038
0.032742
0.040871
-0.021209
-0.016822
-0.056595
0.030324
0.000439
-0.004003
0.007248
-0.009456
0.049239
-0.003067
-0.006970
-0.022464
0.044981
-0.042381
-0.015291
0.047352
0.045426
-0.009376
-0.051156
-0.060773
0.009366
0.049671
-0.018503
-0.036703
0.013222
-0.032667
0.062180
-0.020164
-0.042804
-0.004316
-0.002703
-0.025711
-0.006043
0.046738
-0.021092
0.012764
-0.049515
0.044427
0.030347
0.008313
-0.013500
0.022907
0.029974
0.047163
0.034295
0.030957
0.038515
0.054040
-0.061566
0.049353
-0.043726
-0.032363
-0.050275
0.049775
0.015373
0.002557
0.059399
-0.011551
-0.007623
-0.024092
0.058641
0.013118
0.016542
0.010690
-0.014077
0.008567
0.045004
-0.035597
-0.046236
-0.053118
0.027172
0.007650
0.025949
-0.051383
-0.030803
-0.048733
0.006016
-0.002799
0.040237
-0.025915
0.060485
0.015007
0.050600
0.005035
-0.011835
-0.025066
0.021649
0.018934
0.052221
0.034726
-0.026698
-0.001496
-0.018554
0.009097
0.059251
-0.022889
-0.036182
-0.032830
-0.062310
-0.005720
0.056972
-0.039271
-0.001014
0.030028
-0.015010
-0.040102
0.045105
-0.021237
-0.018684
-0.034942
0.042788
0.057035
-0.044147
-0.040257
0.004613
-0.027878
-0.034145
-0.057520
-0.003655
-0.009661
0.040266
0.036374
0.064566
-0.041899
-0.024461
-0.051951
-0.036460
-0.061462
0.010841
-0.082868
0.057357
0.008142
-0.058104
0.057000
-0.002717
-0.062328
-0.028575
0.047314
-0.061942
-0.066082
0.055056
0.003510
-0.023819
0.048417
0.012648
0.016974
-0.052039
0.053402
-0.014016
0.013359
0.050778
-0.096057
0.019688
0.024855
-0.070122
-0.002195
0.007109
-0.015451
0.070076
0.040363
-0.015401
0.019643
0.034299
0.024084
0.042844
-0.060894
-0.085095
0.049103
-0.007528
0.038108
-0.056424
0.052509
-0.008965
-0.037003
0.044503
-0.005674
-0.007861
-0.059658
-0.026864
0.044537
0.054102
0.018596
0.009103
-0.056201
0.056821
0.054329
0.035267
-0.019195
0.027541
-0.008720
0.008144
-0.026984
0.064702
-0.023180
0.069409
-0.034734
0.033899
-0.029263
-0.035612
0.074622
0.006932
-0.026408
0.010003
0.002232
-0.065873
-0.033178
-0.001106
0.024569
-0.000268
0.025925
-0.008611
0.054358
-0.035257
-0.038227
0.008448
0.052965
-0.037834
0.024643
-0.005813
-0.054472
0.021740
-0.053856
0.018439
0.012374
0.026117
-0.018103
-0.024006
-0.016535
0.049510
0.024142
-0.053447
-0.000329
0.028754
-0.034219
-0.054398
0.009708
-0.025207
-0.029499
-0.063807
0.051865
0.033978
0.002783
-0.001111
0.046574
-0.031142
0.024634
-0.002076
0.032843
-0.016050
0.017324
-0.047173
-0.041936
-0.003482
0.024429
-0.033092
-0.048002
0.059391
-0.027900
0.002812
0.038321
0.017074
0.001530
-0.009405
0.044015
0.008558
0.054769
0.033937
-0.021566
0.002254
0.031089
0.037604
-0.014435
-0.056458
0.027581
0.031362
0.061349
-0.032961
0.063241
0.028097
0.058156
-0.056802
0.013279
-0.019755
-0.013630
0.032357
-0.011735
-0.009097
-0.018093
-0.005460
0.010020
0.034070
-0.036014
-0.004813
-0.049937
0.044250
-0.049001
-0.057751
0.021283
0.052286
-0.017567
0.039045
0.042586
0.005276
0.047830
-0.048813
0.036945
-0.019304
-0.025150
-0.006553
-0.044403
-0.011896
0.020027
0.006757
0.056657
0.038939
0.045648
-0.029165
-0.013322
0.040621
0.014030
0.050078
-0.039831
-0.044477
-0.035848
-0.001317
0.056417
0.019086
0.025780
0.011955
-0.039359
0.020495
-0.009988
0.024700
-0.032067
0.031879
0.052297
-0.041070
0.031387
0.060181
0.008710
-0.017532
0.039913
-0.014686
-0.045158
0.017200
0.048334
0.010545
0.029281
0.011063
0.024041
-0.036015
0.039137
-0.016292
0.015000
0.012670
0.013658
-0.010412
-0.032788
0.000013
-0.003344
0.010316
0.014111
0.023441
0.007697
-0.038031
-0.031907
0.054325
0.059407
-0.061280
-0.050126
-0.031023
0.002285
-0.004990
0.034686
0.055492
0.017425
0.028879
-0.019126
-0.017710
0.057120
0.051942
-0.035344
0.007114
0.031923
0.029922
-0.008685
-0.058753
0.029309
-0.001796
0.045688
0.056474
-0.012433
-0.010322
-0.003983
0.037302
-0.013210
-0.039960
-0.033288
-0.001185
-0.018709
-0.062391
-0.023743
-0.022220
-0.032673
0.064637
-0.000523
0.053825
0.037331
-0.009420
0.049519
0.060050
-0.003603
-0.004300
-0.005558
-0.043017
-0.005619
0.042691
0.053608
0.006863
0.029405
0.050074
-0.046209
-0.059208
0.021093
0.046916
-0.020002
-0.053589
-0.029965
0.034955
0.050552
0.034674
-0.040785
-0.053507
0.003613
-0.050726
0.037896
0.034270
0.042698
-0.013895
0.018790
-0.054786
-0.028804
-0.043455
0.005414
0.053607
0.000986
-0.020286
-0.038367
-0.024075
0.031169
0.035574
0.041832
-0.026607
-0.000167
0.050326
-0.014901
0.054975
-0.061647
-0.008103
0.006502
-0.049789
-0.055831
-0.027178
0.016716
0.017305
0.037284
-0.013487
0.017367
-0.030007
-0.056544
0.042819
-0.008434
0.048757
0.040184
-0.032837
-0.000530
-0.006157
0.035126
-0.052696
-0.040228
0.049827
0.060449
-0.044716
0.028890
0.034989
-0.062596
0.064729
0.006402
0.051128
-0.018963
-0.007918
-0.006504
-0.036570
0.004512
-0.020108
0.046494
-0.041675
-0.025202
0.013459
-0.014484
-0.008443
-0.007118
-0.053413
-0.011790
0.035448
-0.018474
0.017828
-0.020223
0.052043
0.031518
-0.021411
0.003508
0.046539
0.028083
-0.059307
0.018824
0.008678
-0.000006
0.004183
-0.018680
-0.010975
-0.020760
-0.026945
-0.017993
0.050208
-0.023250
-0.043010
-0.053520
0.028974
-0.047063
-0.028022
-0.020394
0.010869
-0.006817
-0.054381
0.023415
-0.017380
0.028624
-0.013142
-0.045299
0.054273
0.010831
-0.001692
-0.057645
0.012728
-0.036365
-0.011163
0.052551
0.008493
-0.023687
0.025015
0.054984
0.057617
0.029556
0.027814
-0.038941
-0.012586
-0.054049
-0.040299
-0.044546
-0.060615
-0.026742
0.031915
0.003642
-0.012138
0.029118
-0.040175
0.021174
0.000751
0.022307
0.037985
-0.004568
0.019215
0.051189
0.024263
-0.011232
0.008372
-0.002649
0.020284
-0.052222
0.011501
-0.055741
-0.030239
-0.017521
0.057048
-0.002060
0.049871
0.066958
-0.033638
0.018904
0.031567
-0.040155
0.006235
0.058465
-0.050991
0.034218
0.048566
0.042922
0.025338
-0.008737
0.014358
0.033219
0.049987
0.009045
0.060210
-0.023688
-0.028240
0.003101
-0.029878
0.043390
0.018757
-0.019457
-0.003873
0.018287
-0.040762
-0.007654
0.033189
0.022063
0.006965
-0.034472
-0.024668
-0.038135
0.057560
0.033613
0.053844
-0.040544
-0.020691
-0.012802
0.045759
-0.072371
0.037180
0.059914
0.031585
0.022275
0.039403
0.061574
0.068251
0.017790
0.018331
-0.041946
0.040805
0.028765
0.012299
0.003801
-0.021022
-0.045218
0.014262
-0.045435
-0.060611
0.041086
0.007847
-0.051959
0.038566
0.037485
-0.013971
-0.033994
-0.040748
0.006672
-0.039857
0.030064
-0.080191
0.018083
0.029066
-0.044777
-0.045078
-0.000590
-0.036964
0.050712
0.028176
-0.034672
-0.016987
-0.013445
0.038119
0.023424
-0.046901
-0.063310
0.072762
0.039537
-0.017141
0.048026
-0.021632
-0.054069
-0.051720
0.070770
0.027421
-0.004028
0.063623
-0.080756
-0.004589
-0.006700
0.034331
0.009696
0.018952
0.009683
-0.021370
0.006781
0.071617
0.049311
-0.042417
-0.014517
-0.013242
0.025665
0.030159
-0.031164
0.009163
0.022739
-0.048478
0.035626
-0.015832
-0.003493
0.032365
0.019346
0.011669
0.060787
-0.075643
-0.002094
-0.043506
-0.073250
0.061936
-0.074046
-0.047738
0.002829
0.052956
-0.029433
0.018487
-0.053038
0.053626
0.022434
0.014030
0.022360
-0.063565
-0.017381
0.073253
-0.023983
0.016722
0.018780
0.023227
0.032361
0.027452
-0.016793
0.011182
-0.052636
0.000958
-0.002739
0.062984
-0.050692
-0.054665
0.032595
-0.008297
-0.075839
-0.051686
0.012791
-0.021587
0.051496
-0.025931
0.054044
0.044873
0.022823
0.017208
0.005591
0.047281
-0.055532
-0.033096
0.062024
0.029571
0.047304
-0.041850
0.014987
0.036854
-0.036338
-0.001878
-0.000812
0.047452
0.051252
0.052265
0.058253
0.053650
0.007404
-0.017423
0.017829
0.021003
-0.055683
-0.050625
0.015281
0.048700
-0.003590
-0.018120
0.047697
-0.052136
-0.050754
-0.030440
0.021692
-0.030461
-0.010244
-0.024074
0.000300
0.016692
0.004632
0.051479
-0.039427
-0.046772
0.044702
-0.027154
0.037141
-0.044923
0.052708
0.003442
0.012391
0.053172
-0.008444
0.010853
-0.017161
-0.025753
-0.050869
0.048407
-0.044490
0.039643
0.010576
0.008632
-0.036960
-0.063133
0.043026
0.062716
-0.018467
0.058484
-0.038147
-0.033273
-0.002749
0.021180
-0.028957
-0.002881
-0.045855
-0.019230
0.032231
0.038724
0.045472
0.038261
0.017938
-0.057675
-0.013140
-0.021705
-0.042786
0.027639
-0.045151
0.035780
-0.056016
0.026706
-0.036547
0.038944
-0.036382
0.042572
0.057997
0.013885
0.008708
0.012312
0.010516
-0.029346
0.016475
0.058689
-0.005785
-0.005525
0.066693
-0.025019
0.004062
-0.054343
0.002025
0.056360
0.053731
0.023304
-0.047719
-0.039177
-0.049920
-0.047271
-0.017919
0.018434
0.016809
0.049734
-0.040453
0.012282
-0.019283
0.044238
-0.026130
-0.057120
0.024003
0.034349
0.024644
0.007066
-0.003430
-0.027880
-0.024375
-0.042793
-0.025189
0.012267
0.005491
-0.024453
0.046555
0.013670
-0.053410
0.014777
0.027800
0.027234
0.041526
-0.016715
-0.025948
0.014648
-0.006805
-0.069641
-0.050175
0.007448
-0.068677
-0.055258
-0.004227
0.043159
0.039597
0.030658
0.007124
-0.017178
-0.005689
0.042761
0.007769
0.041046
0.026833
0.026275
-0.020176
0.060196
0.044568
-0.009780
0.011539
0.050768
0.034601
-0.040922
-0.015816
0.024996
0.005690
-0.068830
-0.025581
-0.049596
-0.044419
0.039809
-0.003874
0.073309
-0.019888
0.071763
0.038192
-0.016631
-0.078122
0.028455
-0.033671
0.040879
0.052664
0.041127
0.018408
0.018930
0.058370
-0.013575
-0.049231
0.050753
0.051154
-0.036484
0.007828
-0.022926
0.054257
-0.015107
-0.034399
0.053548
0.061666
0.013946
0.045429
0.011380
0.005115
-0.066185
0.037092
0.005145
-0.028763
-0.012012
-0.031617
0.032366
0.029204
0.059533
0.069103
-0.071006
-0.046398
0.043996
0.019704
-0.013750
-0.010367
0.027511
0.052620
0.051975
0.014870
-0.053630
-0.011884
-0.006729
0.046837
0.038506
0.045916
-0.023926
-0.024016
-0.007728
0.026056
0.080256
-0.052135
0.041378
-0.039565
0.004427
0.043105
-0.026388
0.059960
-0.076905
-0.030582
0.041370
-0.054580
0.035943
-0.024181
-0.041587
-0.014631
-0.005881
0.009403
0.045191
-0.045242
-0.003565
-0.025404
-0.049305
-0.043791
-0.045140
-0.041359
-0.047631
0.035711
-0.059370
0.031002
0.009776
-0.026426
-0.049526
-0.044407
0.014256
-0.014298
0.045629
-0.011651
-0.022757
0.035340
0.024702
-0.039897
0.030540
-0.044851
0.044685
-0.008682
-0.002399
-0.009752
-0.059028
-0.000125
0.000009
0.051491
-0.046551
0.017720
0.043013
-0.023536
0.051369
-0.037588
0.049596
-0.031835
-0.062354
-0.059219
-0.044247
-0.058314
0.016514
-0.016067
-0.001563
0.041054
0.013909
-0.049870
-0.018070
-0.040491
0.030962
-0.059366
0.041069
0.031418
0.049389
0.010011
-0.000124
-0.053737
0.025293
0.053254
-0.042533
0.005021
0.046432
0.053435
-0.044330
0.021715
0.023066
-0.049072
-0.003118
-0.047331
-0.045014
0.015849
-0.054524
0.058303
0.025229
-0.065148
-0.017561
-0.055722
0.045465
0.056463
-0.051999
-0.017508
-0.008095
-0.037284
-0.006809
-0.007177
-0.046963
0.024016
0.035238
-0.056321
-0.043192
0.050661
-0.010319
0.001527
0.033002
0.030247
-0.010004
-0.050764
0.044644
-0.056323
-0.020159
-0.000839
-0.016067
-0.029280
0.018394
-0.046474
0.058224
-0.013125
0.019603
-0.056847
-0.019176
0.039386
-0.032167
0.006206
0.005965
-0.039439
-0.046605
0.030148
0.030389
0.037036
-0.046949
0.026847
-0.051610
0.003488
0.050810
0.015276
0.057116
0.022216
0.051399
-0.043974
-0.042074
-0.056509
-0.033988
-0.032950
0.024111
-0.036256
0.022616
0.057380
-0.024541
-0.034433
0.037763
-0.062206
-0.013465
0.047475
-0.025654
0.009833
-0.038853
-0.000968
-0.034473
0.032425
0.019626
0.061524
-0.050313
0.014815
0.027211
-0.038958
-0.012460
0.077717
0.060002
-0.051537
0.062434
0.022374
0.002377
0.058895
-0.026816
0.034387
0.071415
0.007325
0.004025
-0.008627
-0.001260
-0.056346
0.053815
0.067720
0.058783
0.037926
0.078788
-0.049162
-0.023746
-0.033796
-0.038093
-0.020082
0.042802
0.029981
-0.012089
-0.008106
0.040261
-0.046009
-0.007163
-0.069847
0.015120
-0.027743
-0.011151
0.039159
0.047412
-0.002791
-0.031790
-0.027515
-0.010207
0.063315
0.040448
-0.005197
-0.004503
-0.034782
0.012968
0.080277
0.012620
0.016258
0.041590
-0.007421
0.047040
-0.058926
0.065664
-0.029445
0.014612
0.052383
0.044169
-0.003155
-0.071281
-0.005199
0.032053
0.045474
-0.002674
0.022604
-0.044407
-0.023739
-0.009561
-0.054360
0.020131
-0.000458
-0.034313
-0.013325
-0.045497
-0.035679
-0.002578
-0.081157
-0.063975
0.022441
-0.030829
-0.035348
0.015273
0.078811
-0.067541
0.057262
0.043638
0.028838
0.014458
0.024593
0.024913
-0.020636
-0.028711
0.003700
0.036865
-0.020737
0.046241
0.001494
0.050143
0.028159
-0.025018
0.045263
-0.002466
0.059806
-0.037759
0.038210
0.032635
0.004789
-0.046876
0.001974
-0.050350
-0.035330
0.026157
-0.016579
-0.028616
0.030043
-0.006832
0.028010
0.051361
-0.055175
0.016803
-0.002042
0.033077
0.049933
-0.057869
0.034786
-0.004936
-0.025091
0.014909
-0.038897
-0.039859
-0.063180
-0.050078
0.037815
-0.035692
-0.044764
-0.032916
0.045233
-0.029423
0.023741
0.037858
0.013939
-0.033950
0.044693
-0.013779
0.061502
-0.055846
-0.057139
-0.039652
0.025291
-0.041505
-0.032143
0.031276
-0.059337
0.009509
-0.006097
-0.009078
0.060454
-0.007850
0.022446
0.018167
0.015043
0.006522
-0.034872
-0.043791
0.017122
0.047118
0.040981
-0.038658
-0.045689
0.035351
0.049541
0.029167
-0.011677
-0.012298
0.012621
0.033954
0.043297
-0.000988
-0.016509
0.033988
0.026351
-0.029570
-0.036497
0.053019
-0.053898
0.012875
0.005334
-0.004423
0.025801
-0.034670
0.017357
0.005206
-0.044323
0.047050
0.033165
0.022530
0.026761
-0.060218
0.017383
-0.006987
-0.030531
-0.030190
-0.043151
-0.034635
-0.029855
0.015332
0.062287
0.028950
0.027807
-0.062207
-0.007094
-0.060708
0.022108
0.033657
0.027382
0.018158
0.058356
-0.045723
-0.002889
0.027930
0.032288
0.035930
-0.058500
0.038508
-0.053509
-0.026139
0.034698
0.039707
0.046940
0.022112
-0.047273
0.042175
0.019343
-0.019044
0.035436
-0.056714
-0.046567
0.050557
0.056731
-0.018509
0.057487
-0.038235
-0.030995
-0.026107
-0.022603
0.021842
-0.058101
0.053367
-0.057888
0.029898
-0.041920
0.007034
0.034298
0.028334
-0.019538
0.034278
-0.035670
-0.045084
-0.049485
-0.020494
-0.001523
-0.041762
-0.038120
0.009460
-0.017994
0.003302
0.020778
-0.033971
-0.047306
0.062164
0.038275
0.002022
0.029363
-0.030846
0.015363
0.023903
0.031219
-0.008458
-0.043814
0.004973
-0.039613
0.035420
0.048005
0.013680
0.060778
0.031804
0.007884
-0.049476
-0.046394
-0.006582
-0.009919
0.009347
0.018475
-0.062159
0.046608
0.020645
-0.009267
-0.046445
-0.060416
0.015193
0.008108
-0.048239
0.006244
-0.020267
0.022661
-0.035712
0.035422
0.007730
-0.000207
-0.017179
-0.024948
0.014274
-0.011420
-0.010932
-0.047000
0.033121
-0.029894
-0.023904
-0.007181
-0.011446
0.006284
0.053529
-0.056992
-0.039532
-0.024101
0.028565
0.042791
-0.011027
-0.050211
0.002433
0.007823
-0.011163
0.000736
0.002582
0.028268
0.044771
-0.006662
-0.037917
0.026479
0.059932
-0.008157
-0.045737
-0.010450
-0.021857
-0.003601
0.049735
0.057775
-0.006212
0.046216
0.012885
0.015313
0.025674
0.042237
-0.015749
0.042205
-0.011247
-0.035920
0.045445
0.054052
0.051832
-0.003293
-0.024128
-0.040103
-0.032056
0.048526
0.004127
-0.042962
-0.041109
-0.043309
-0.022666
0.038815
0.008745
0.023314
0.000025
-0.052189
0.028078
0.044743
-0.002420
-0.060513
-0.054073
0.016394
-0.029547
0.032903
0.038483
0.012280
-0.026309
0.052796
0.002828
-0.036662
-0.008988
-0.040593
-0.036911
0.047610
0.035897
0.038949
0.007705
-0.002001
0.030960
-0.015710
0.006879
-0.045037
-0.034214
0.019414
-0.000021
0.014536
-0.007299
0.021577
-0.049891
-0.033439
0.028252
-0.036278
0.004638
-0.021468
0.025900
0.029875
0.033676
-0.037663
0.039095
0.018458
-0.043051
-0.041073
-0.029528
0.013203
-0.051880
-0.040533
-0.032870
0.043615
-0.062095
-0.051886
0.032318
0.038910
-0.062838
-0.056344
0.007425
0.029166
-0.014541
0.041756
0.035246
0.015910
0.014944
-0.011309
0.046242
-0.031786
-0.025460
0.013912
-0.062294
0.017253
0.011986
-0.053489
-0.060193
0.008781
0.058658
-0.027027
0.054192
-0.031248
0.014801
-0.027095
-0.021738
-0.007786
-0.028628
0.038405
0.055496
-0.059392
0.043802
-0.053794
0.059997
0.047016
-0.032128
-0.002570
-0.029068
0.020859
-0.035904
-0.009132
-0.038858
0.051349
0.021375
-0.048319
0.020399
0.068982
-0.029968
-0.054828
0.010872
-0.019126
0.055424
-0.032067
-0.039436
-0.030625
0.026699
-0.003059
-0.035889
0.029471
-0.029075
0.011668
-0.037562
0.001354
-0.026840
-0.046585
-0.059943
0.024593
-0.008256
-0.076139
-0.073612
-0.038616
-0.036691
0.005138
0.031669
-0.050693
0.016459
0.008305
-0.014912
-0.042417
0.022546
-0.013280
0.004290
0.048503
0.037693
-0.020943
0.066061
-0.026166
-0.008969
-0.061654
0.017046
0.075174
-0.063663
-0.059551
-0.026408
0.012117
0.026528
0.018986
0.035097
0.026338
0.044305
0.000265
0.035491
0.013638
0.023178
0.034440
0.010404
-0.040128
0.004024
-0.007215
-0.031087
-0.062650
-0.025369
0.046286
-0.045308
-0.003535
-0.030815
0.036160
-0.058188
-0.042021
-0.028977
0.026394
-0.011204
0.053834
-0.028642
-0.050700
-0.058642
-0.011892
-0.004932
-0.028597
-0.010965
-0.045295
0.042223
-0.019190
0.053053
0.045324
-0.050929
-0.032620
0.052798
-0.033791
0.035256
0.004209
-0.064063
-0.037095
0.009066
0.001916
-0.068988
0.058818
0.033639
-0.065746
0.063199
0.020733
-0.047628
-0.034254
0.005781
0.043321
-0.018170
-0.040806
-0.000203
-0.063895
-0.071356
0.004925
-0.004657
0.066461
-0.025617
-0.026907
-0.029662
-0.003238
0.056805
0.018411
-0.056373
-0.013372
0.005646
0.022999
-0.027453
-0.026357
0.051636
-0.002506
-0.046845
0.015873
0.053547
0.010876
-0.023073
-0.040776
0.026031
-0.047400
0.019266
-0.008753
0.048190
0.000830
-0.015134
-0.036061
0.001835
0.051520
0.027242
-0.023837
-0.039703
0.043420
-0.011446
0.022350
0.003589
-0.064694
0.015869
-0.028169
-0.017784
-0.012980
-0.039384
0.037244
0.010221
0.017019
0.041129
-0.020282
-0.013343
0.051958
0.005835
-0.032092
-0.025170
0.043959
0.035888
-0.011414
0.011583
-0.019268
-0.050587
0.033625
0.024649
0.022718
0.048975
-0.011647
0.041186
-0.063494
0.031262
-0.065281
-0.050410
0.046197
-0.048037
0.021400
0.060277
0.020298
0.053335
0.046833
0.022283
-0.020163
-0.006305
0.029223
0.031915
0.008883
0.001254
0.054265
0.030928
0.021835
0.014877
0.032995
-0.051641
0.011778
-0.030971
-0.022129
-0.047320
0.059235
-0.013953
0.005693
-0.036300
0.060953
0.046685
0.012778
0.004049
0.053345
0.018793
0.049288
0.054362
-0.035261
-0.050948
-0.005345
-0.040921
0.053655
-0.056777
0.003010
-0.019362
-0.007388
0.028762
-0.008048
0.057055
-0.020540
-0.045397
0.041339
-0.014385
0.054597
-0.036785
0.008613
0.035921
-0.053464
0.059738
-0.032687
0.002154
0.021880
0.000046
-0.026125
0.037385
-0.050386
-0.004081
0.056246
0.069377
0.054423
0.038254
-0.030299
0.007083
0.004801
-0.033224
-0.002388
-0.016123
-0.043930
-0.014932
0.047390
0.045169
0.011585
0.010518
-0.017039
0.047015
0.022521
-0.079031
0.028934
-0.050694
-0.031497
0.012802
-0.042429
0.058938
0.022114
-0.039668
0.055808
-0.023449
-0.034910
-0.006450
-0.040729
-0.023514
-0.024515
0.001861
0.077473
0.031972
-0.060367
0.027483
0.025215
-0.010419
0.023049
-0.017113
-0.038400
0.074416
-0.039444
-0.071670
0.028019
0.038652
-0.045163
0.040457
0.050520
0.034725
-0.020884
0.042215
0.045297
0.025626
0.049716
0.034422
-0.025048
0.051093
0.023286
-0.067648
0.002064
0.049455
-0.028884
-0.004999
-0.065879
-0.035878
0.047240
-0.072946
-0.013631
0.012907
-0.009463
-0.031926
-0.061751
-0.038944
0.016325
0.040220
-0.004269
0.020393
-0.046831
0.005044
0.024152
-0.021421
-0.018418
-0.015911
0.027711
-0.006915
-0.065246
-0.009805
-0.009116
-0.042129
-0.002591
0.039991
0.009438
-0.000506
-0.054653
-0.059377
0.050693
0.019915
-0.027469
-0.038852
0.063907
-0.007143
-0.030503
0.064007
0.044384
-0.055488
0.011549
-0.024733
-0.059258
0.034351
-0.017443
-0.020339
0.010852
0.030647
-0.007327
-0.041120
0.016974
-0.028033
0.063755
0.016171
-0.036479
-0.023795
0.057029
0.048097
-0.054945
-0.003621
-0.025163
0.010165
0.023674
0.055082
0.051562
-0.042506
0.052676
0.057586
-0.035183
0.008077
-0.014571
-0.044250
0.055355
0.015510
-0.046096
0.041448
0.006736
0.016197
-0.062722
-0.064022
-0.007768
-0.043556
0.048088
0.043960
0.038905
0.048955
-0.017807
0.008043
0.037836
-0.022876
-0.043081
-0.017329
0.002900
-0.025143
-0.037694
-0.035321
0.032681
-0.048251
-0.062172
0.000016
-0.059061
0.013470
0.015284
0.042580
-0.061057
0.003609
-0.014522
-0.005489
0.027261
-0.039603
0.041686
0.002263
0.001553
-0.022865
-0.010259
0.048901
-0.047559
-0.001610
0.053190
0.025012
-0.034175
-0.044856
-0.037286
0.015948
-0.057911
-0.007055
0.052647
0.061746
0.047257
-0.061028
-0.063403
0.034793
0.044308
-0.028874
0.057810
0.005902
-0.043358
0.041217
-0.054019
-0.014198
-0.017069
0.031748
-0.046879
0.004094
-0.048856
-0.004762
-0.015299
0.030207
-0.044223
0.015827
-0.006019
-0.049421
0.056800
-0.037802
-0.043895
-0.060374
-0.028652
0.045626
-0.015200
0.057634
-0.053885
-0.042479
-0.051824
-0.040366
-0.029685
-0.004517
-0.029983
0.005336
-0.030246
0.005347
0.044849
-0.002103
0.041507
-0.028225
0.006469
-0.041823
0.052751
-0.015275
0.058086
-0.005699
0.027217
0.010426
0.041536
0.011244
-0.030527
0.018771
0.065050
0.019123
0.018570
0.023769
0.018330
0.002761
0.044826
-0.030932
-0.036450
-0.001791
0.043520
0.015219
0.002101
-0.009555
-0.010380
0.058777
0.057010
-0.019562
0.060100
0.043606
0.020711
-0.051611
0.025916
-0.036724
-0.015332
0.015101
-0.028090
0.038060
0.014089
0.040353
0.057756
0.023573
-0.035479
0.010146
-0.008701
0.055955
-0.007745
-0.057703
0.037634
0.008543
0.015105
0.052662
0.031682
0.000283
0.002903
-0.010322
0.016187
-0.059835
-0.015097
0.003156
0.052863
-0.000823
-0.057971
-0.036004
0.020184
0.048488
0.059487
0.001495
-0.057188
-0.006351
0.039163
-0.000117
0.024225
-0.005219
-0.050725
0.004915
-0.021149
-0.038217
-0.051340
-0.000062
0.060841
0.005865
-0.034473
0.002070
0.038166
-0.036048
0.023290
-0.018240
0.021540
-0.004795
0.017464
-0.055964
-0.040980
0.053312
-0.005689
0.047576
0.020540
0.050188
0.040063
0.027420
-0.032499
0.030133
-0.052070
-0.042954
0.036006
0.030324
-0.011403
-0.016499
0.034037
0.011720
-0.010891
-0.032474
-0.051578
0.050441
0.006470
-0.010298
0.053257
0.035951
-0.017298
0.059928
-0.042006
0.062370
-0.011840
-0.002385
0.055742
0.026907
-0.028079
-0.047605
0.006686
-0.051010
-0.015713
0.028400
0.019560
0.010701
-0.035248
0.065800
-0.047016
-0.027423
-0.021873
0.054080
-0.023845
0.048079
-0.000818
0.050587
-0.016483
-0.048787
0.061326
-0.037929
0.042801
0.035831
0.021260
-0.031025
0.045410
0.007469
0.044614
-0.054822
-0.012755
0.038254
-0.046596
0.042219
-0.055654
