0.060964
0.030799
0.041618
0.006663
-0.000498
-0.013570
0.067099
0.041272
-0.000313
-0.024265
0.022444
-0.024260
-0.017073
0.013786
-0.020597
0.053637
0.058655
0.047507
-0.004409
-0.063023
0.016670
0.038060
0.045678
-0.024037
-0.013733
0.056746
0.066049
-0.059971
0.029053
-0.005193
-0.024723
-0.022804
0.039971
0.016127
-0.047958
-0.048281
0.067225
-0.022044
-0.044702
-0.000437
0.050352
-0.037071
0.009294
0.014188
0.025169
0.031562
-0.001282
0.065424
-0.008950
0.023475
-0.010908
-0.012060
-0.016072
0.019246
0.045435
0.011405
-0.003211
0.023291
-0.045253
0.058422
-0.038836
-0.009954
-0.049292
0.051835
0.056180
0.018169
-0.020538
0.000942
-0.016908
0.020494
-0.063863
0.064673
0.048534
0.041886
-0.000314
-0.022045
-0.035144
-0.003101
0.017679
0.058963
-0.031663
-0.051938
0.058203
-0.031390
0.020672
-0.059431
0.037691
0.000805
-0.010072
0.040108
-0.026257
-0.035474
-0.045611
-0.051132
-0.052931
0.038887
-0.046593
0.043679
0.062448
0.007366
-0.057658
0.018264
0.012682
0.047455
0.052364
0.047073
-0.046608
-0.040403
0.023887
0.057857
0.032808
0.046259
-0.010112
-0.030183
0.013860
-0.009044
-0.030409
-0.038794
-0.042316
-0.013447
0.064654
0.032940
-0.005279
0.035241
0.009162
0.004470
-0.007526
0.000794
