0.029294
-0.036379
-0.075434
0.048999
0.075822
-0.027955
-0.059533
0.073692
0.007214
0.060864
-0.079274
-0.041786
0.081402
-0.078491
-0.046128
-0.008655
0.078489
-0.078019
0.017907
0.045837
0.016662
-0.091624
-0.041563
-0.064742
-0.010130
-0.053729
-0.034986
0.058744
0.077160
0.018898
0.071017
-0.007787
0.027876
-0.087867
-0.005863
-0.012549
0.023213
0.060806
-0.070858
0.073045
-0.066619
0.032723
-0.000418
-0.075716
0.067635
0.054636
0.020012
-0.036918
-0.046865
-0.021406
-0.066586
-0.028758
-0.000095
-0.007373
-0.024639
-0.029018
-0.081730
0.042924
-0.028131
0.003287
0.053043
-0.048846
-0.078885
-0.022473
-0.077074
0.062811
0.051211
-0.037669
0.044539
-0.064772
0.033947
-0.058388
-0.007398
0.040472
-0.086254
0.076953
-0.047009
0.032812
-0.032277
0.015100
0.092879
-0.003229
0.089573
-0.062548
-0.030942
-0.076922
-0.071608
-0.085812
0.077048
0.085413
0.010651
0.026245
-0.085579
0.009885
-0.031471
-0.059748
-0.077074
0.019781
0.088170
0.049929
0.039910
-0.003897
-0.060340
0.031257
-0.009196
0.048777
-0.055911
-0.034060
0.079596
0.050359
0.069492
-0.036743
0.060829
-0.043999
0.069117
-0.090017
0.043705
0.024798
-0.087590
-0.090476
0.004061
0.010238
-0.033828
0.003720
0.029671
0.020265
0.003849
0.014483
0.052527
-0.023518
0.043245
-0.081711
-0.005816
0.023039
-0.087907
0.039355
-0.012890
-0.033104
-0.033441
-0.027131
-0.037661
0.018539
-0.059877
0.015573
-0.079456
0.002977
0.025096
-0.062282
-0.080390
0.053243
0.002981
0.047783
0.019906
0.093144
0.065581
-0.048923
0.038956
-0.035147
-0.002081
-0.076826
0.091687
-0.072132
-0.058184
0.028101
0.067850
-0.060586
-0.006746
0.049278
-0.081343
0.018081
0.061983
-0.028925
0.083378
-0.009122
-0.068616
-0.013894
-0.011273
0.078353
-0.025683
0.029005
-0.039290
-0.001078
-0.044555
-0.046646
-0.030502
-0.092035
0.015289
0.011156
0.054326
-0.037975
0.081143
-0.063087
0.068948
0.009582
0.086105
-0.004250
0.064546
-0.015628
0.024386
-0.087498
0.013597
0.035835
0.013184
0.003708
0.003652
0.034967
-0.000879
-0.001476
-0.009699
0.033323
0.074175
-0.050961
-0.024936
-0.010025
0.071574
-0.066111
0.046708
-0.025583
-0.050611
0.060802
-0.079160
-0.079580
0.007250
-0.031917
-0.011601
0.050587
0.020091
-0.023770
0.028941
-0.042674
0.023528
-0.055223
-0.020994
-0.017906
0.078968
-0.041619
0.065688
0.075155
0.040617
0.055801
0.022663
-0.032295
-0.002283
0.020071
0.062472
-0.016629
-0.085505
0.017218
0.050275
0.075715
0.082161
-0.006932
0.059224
0.001705
-0.062021
0.046831
0.042148
0.028405
0.077779
-0.066169
-0.076758
0.065145
-0.002747
0.016228
-0.029500
0.017464
0.062443
0.079051
0.055368
-0.020025
0.037853
-0.068806
0.009547
-0.079723
-0.023121
0.034306
-0.060200
0.041147
-0.044348
-0.031370
-0.014916
0.039379
0.031597
-0.016068
0.061308
-0.009218
0.043923
0.018570
-0.024297
0.066739
0.092599
0.025141
-0.036110
0.022973
0.073510
0.010247
0.025869
-0.055840
0.025402
0.023711
-0.051492
0.029805
0.051485
-0.006345
0.014216
0.025750
-0.016575
0.039366
0.006185
-0.048540
-0.031731
-0.036730
0.065197
-0.061600
0.018098
0.021618
0.014999
0.078429
-0.005447
0.027143
0.054424
-0.012584
-0.071107
0.075984
0.039542
0.039459
-0.086188
-0.015053
-0.014532
0.060412
-0.023696
-0.046976
-0.020553
0.042011
0.000629
0.083509
0.026289
-0.071520
0.004729
0.022627
-0.070506
0.043112
-0.035990
0.011870
0.015768
0.041391
0.018820
0.038651
-0.006946
0.090923
0.054238
0.028638
0.054922
0.043669
-0.078120
0.038905
0.076854
-0.007525
0.032065
0.047089
0.051746
-0.039252
0.059920
0.055941
0.084569
-0.056031
-0.056233
-0.008947
-0.035646
-0.058541
0.059641
-0.037193
0.052075
-0.036239
-0.023144
-0.075987
0.054233
-0.000131
-0.023764
-0.016975
-0.001264
0.085973
-0.000171
0.042772
0.092615
0.013279
-0.049616
0.092636
0.018247
-0.067793
-0.050350
0.020646
0.070606
0.058413
-0.063021
0.022199
0.059755
0.074209
0.068450
0.030512
0.090174
-0.045547
0.047514
0.014441
0.054617
0.066664
0.079547
0.071543
-0.057345
0.046173
0.040054
-0.045312
0.075775
-0.035672
0.095064
-0.071481
0.051848
0.072630
0.052964
-0.007482
0.055076
-0.012300
0.079732
-0.024957
0.071819
-0.085007
-0.072313
-0.024407
-0.059384
-0.057793
-0.040481
0.008948
0.048555
0.040357
-0.074347
0.043850
0.007899
-0.032186
-0.024408
0.092862
0.060030
0.042055
0.046418
-0.000649
-0.070255
0.063698
-0.056141
0.006043
0.058379
0.079925
-0.066868
0.095201
0.030108
-0.066102
0.077080
0.086431
-0.011129
0.034037
0.051943
0.073678
0.072538
-0.039824
-0.078970
-0.018296
-0.000962
-0.007733
0.008570
0.070093
0.014434
-0.047471
-0.010242
0.048117
-0.067584
0.070890
0.082248
0.007570
-0.068022
-0.082024
-0.088839
-0.039801
-0.081733
0.094235
-0.060834
-0.083679
0.076898
0.010496
-0.015909
0.064828
0.046775
0.007155
0.003563
0.087067
-0.082425
0.081343
-0.026244
0.030845
0.038381
0.008761
0.012692
-0.048543
-0.065965
-0.091438
0.069224
0.002075
-0.056428
-0.086047
-0.075721
0.044189
0.059501
0.072014
0.024010
-0.080290
0.016978
0.054796
-0.056202
0.005690
-0.058674
0.014103
0.085984
0.010176
-0.054427
0.020619
-0.081797
0.037397
0.017910
-0.034373
-0.007575
-0.065714
0.000391
-0.034466
-0.033092
-0.010809
-0.025617
0.012855
0.066455
-0.016364
0.062613
-0.042028
-0.058442
0.035880
0.028791
-0.056087
0.056465
-0.019504
-0.026467
-0.020095
0.067506
-0.007643
-0.032608
0.062144
0.077113
-0.055823
0.020239
-0.028999
0.070979
0.050813
0.050358
0.076208
-0.046970
0.064519
-0.064558
0.021024
0.069021
0.003730
-0.005465
-0.054348
-0.003864
0.063042
-0.030134
0.064642
0.045572
-0.033833
-0.007688
0.025007
0.081229
0.038775
0.027584
0.080411
-0.048724
-0.066520
0.059977
-0.016710
-0.019963
0.011486
-0.028540
0.079167
0.080766
-0.025815
-0.041247
-0.042665
-0.025241
-0.085123
0.030171
0.063160
0.048507
-0.060282
0.015297
0.046776
-0.068272
-0.042120
-0.067745
-0.058811
-0.028725
-0.008504
-0.036214
0.001881
0.022024
-0.037331
-0.058530
-0.018968
-0.042569
-0.000288
0.064846
0.034587
-0.003124
0.089367
-0.013936
0.058952
-0.079611
-0.067172
-0.071784
0.015502
-0.028072
0.079006
-0.067390
0.055901
-0.035271
-0.022329
-0.040680
0.068425
0.090226
-0.075516
0.033282
0.047528
0.055864
0.017507
-0.014691
-0.074972
0.000635
-0.052605
0.017246
0.034810
0.061053
-0.057394
0.013108
0.073110
0.056440
-0.023886
-0.056354
-0.019740
0.015748
0.086788
0.029604
-0.007111
-0.053247
0.090186
0.074944
-0.035382
0.004362
-0.058642
-0.078847
0.077275
-0.015926
0.085914
0.081093
-0.019588
0.068905
-0.054270
-0.072034
-0.046117
0.050472
-0.023085
-0.058485
0.035177
-0.038312
0.047967
-0.015195
0.087165
-0.031159
-0.074090
-0.051026
-0.078273
0.054705
0.038742
0.041160
0.049256
0.057866
0.028755
0.079857
0.067219
-0.011628
-0.011857
-0.055022
0.003920
-0.078395
0.053759
0.057857
0.049629
0.038097
0.077625
-0.015358
0.062907
0.087733
0.066065
-0.060229
-0.033153
0.044892
-0.057190
-0.028138
0.014812
0.005784
-0.057799
-0.073025
-0.030170
0.086247
0.066119
0.065036
-0.032427
0.066625
-0.009071
-0.036586
0.043239
-0.060644
0.060813
0.067750
-0.058152
0.052480
0.052446
-0.042903
-0.011660
0.083260
0.060942
0.064605
-0.030459
-0.019535
-0.011814
-0.047767
0.093556
-0.090412
0.033448
0.053105
0.021003
-0.031059
0.069888
0.045317
0.009186
0.008743
0.067227
0.079635
-0.022073
-0.001403
0.052707
-0.053008
0.010421
0.018120
-0.004182
0.082901
0.070008
0.043234
0.045283
-0.011494
-0.025166
0.083441
-0.040479
0.004611
0.000930
-0.037482
-0.079478
0.026297
0.012918
-0.027833
-0.053633
0.018574
-0.075480
0.007310
-0.025146
0.063681
0.056811
0.002170
-0.058380
0.079145
-0.033099
-0.077255
0.031287
0.017583
-0.052689
0.072736
0.070281
-0.044237
0.087339
0.012973
0.000581
0.067836
-0.023723
-0.062649
0.021074
0.074450
0.009341
-0.001941
-0.072641
0.013346
0.016475
-0.044720
-0.084208
0.026566
0.048851
-0.075692
0.006534
0.002062
0.014686
0.057539
0.023391
0.033375
-0.045158
-0.074813
-0.040745
-0.002250
0.032034
0.059140
-0.060186
0.002053
0.028854
0.066732
-0.035357
0.071007
-0.005462
0.040556
0.069230
0.060542
0.083566
0.051251
0.047847
-0.066846
0.018995
-0.067317
0.039511
0.077086
0.037138
-0.066042
0.039694
0.019939
-0.085167
-0.060661
0.082205
-0.029481
0.000140
0.061620
-0.071812
0.083204
-0.032063
0.012449
-0.016583
-0.012214
-0.026732
0.006200
-0.018036
0.014166
-0.042142
-0.029379
-0.060105
-0.042036
-0.080845
-0.056382
-0.038984
0.047034
0.000403
0.001775
0.021688
0.003345
-0.019201
-0.034167
-0.067299
-0.057299
-0.049229
0.069750
0.050046
0.002454
0.036466
-0.029929
-0.087640
-0.029315
-0.008056
-0.042392
-0.081875
-0.032912
0.042479
0.019250
-0.027633
0.022294
0.039027
0.026496
0.046496
-0.027291
-0.027247
0.029976
-0.000861
-0.035534
0.041963
-0.055440
-0.072165
-0.043400
-0.047623
0.035824
-0.081839
-0.017501
-0.001749
0.063876
0.000673
-0.019295
-0.021145
-0.002772
0.002759
-0.055161
-0.000606
0.089625
-0.037468
0.033027
-0.008352
-0.057364
-0.068022
0.058432
0.032349
-0.067387
-0.053986
0.056136
0.065084
-0.015567
0.018170
-0.050967
0.057874
0.060328
0.037704
0.034284
-0.050425
-0.008054
0.027065
-0.034331
-0.049103
-0.046545
-0.025057
0.029534
-0.037904
0.025091
-0.033657
-0.018958
0.038806
0.007369
0.048934
0.013433
0.003913
0.080100
0.014148
-0.007206
-0.090000
-0.013822
-0.004438
-0.006701
0.029394
0.066216
-0.030310
0.027665
0.043237
-0.018426
0.073877
-0.031716
0.023358
-0.020852
-0.021465
0.008500
0.060467
-0.073807
0.004092
0.004340
0.043681
-0.008681
-0.016463
0.043007
-0.002191
0.007848
0.012084
0.017599
0.076815
0.026589
0.013959
-0.051327
-0.006226
-0.056068
-0.033081
-0.045027
0.079085
0.067592
0.009877
0.060236
-0.050590
-0.000329
0.071576
-0.067062
-0.073745
-0.067404
0.052556
0.047919
0.091244
0.055123
0.049119
-0.032726
0.006826
-0.045435
-0.028135
-0.090932
0.000110
-0.059039
-0.051230
-0.028843
0.029146
0.074994
-0.002262
0.010964
0.046938
0.056618
-0.028317
0.028507
-0.055126
0.050208
0.002345
-0.076758
0.052790
-0.018610
-0.011834
0.068470
0.011556
-0.037257
-0.053136
0.063193
0.048869
-0.003807
0.068958
0.032941
-0.049601
0.087508
0.019603
-0.067966
-0.011673
-0.047166
-0.013827
-0.008351
-0.007817
0.074687
-0.043887
-0.023782
-0.036554
0.017247
-0.069428
0.045515
0.044065
0.084253
-0.083018
0.015975
-0.025259
-0.083590
-0.085726
-0.054903
-0.012375
0.007736
0.026339
0.049546
0.085756
-0.030180
0.008668
-0.029360
0.059569
-0.060218
0.027420
0.046088
0.020008
-0.067560
-0.059135
0.074031
0.028142
-0.057034
-0.030644
0.042027
-0.068809
0.042404
0.075329
-0.027530
0.019085
-0.059610
-0.063200
-0.057069
0.033010
0.004797
-0.050864
0.035398
-0.055943
0.026312
0.013903
-0.071111
0.087782
-0.009297
-0.053085
0.010928
-0.080155
-0.033535
-0.046029
-0.000684
0.018405
-0.003903
0.079051
-0.034076
-0.052545
-0.007994
-0.054353
-0.035751
0.085234
-0.052849
0.045609
0.083001
-0.010633
-0.043638
0.021664
-0.009956
-0.030144
-0.068576
0.022085
-0.028124
-0.075084
0.035690
-0.052967
0.045247
0.074412
-0.024335
-0.013695
0.040508
-0.028745
-0.035520
-0.057437
-0.017686
0.048920
-0.023673
-0.038437
-0.073888
-0.077375
-0.059279
-0.071015
-0.042331
0.012707
-0.088314
0.073211
-0.065923
-0.053506
-0.052029
-0.039463
-0.019104
0.070962
-0.069817
-0.036471
0.014370
0.001091
-0.010321
0.032325
-0.093971
0.007254
-0.021566
-0.067460
0.046434
-0.005140
0.028631
0.051951
-0.025891
0.020386
-0.034875
-0.027890
-0.024220
-0.026988
-0.076582
0.013500
0.006156
0.040585
0.058883
-0.088170
-0.023182
0.083964
0.040120
-0.015538
0.085667
0.013718
-0.005526
-0.081629
0.061854
0.062203
-0.029371
-0.076070
-0.060356
0.054050
-0.057943
0.056848
0.073764
0.022967
0.000520
-0.010687
0.001618
0.012904
-0.000300
0.077591
-0.007829
0.071673
0.082554
0.003941
-0.044895
0.052294
0.087799
0.039318
0.078131
-0.027146
0.035925
0.061633
-0.072742
0.019523
-0.019472
-0.061546
-0.017326
0.030108
0.029450
0.019166
-0.064242
-0.078520
-0.015862
-0.015307
0.011104
-0.010864
0.034770
-0.028556
-0.078978
-0.079352
-0.038073
0.030457
-0.083018
0.060762
0.012815
0.053426
0.082785
0.083559
-0.074706
-0.049076
-0.062514
0.035694
-0.061956
0.068914
0.025045
-0.078856
-0.056843
-0.031750
-0.070148
0.036982
-0.033683
-0.013796
0.051863
0.022437
0.033462
0.021720
0.075052
0.028001
-0.048720
0.022940
0.077739
0.017466
-0.089754
0.028039
-0.042689
-0.002521
0.034865
-0.004655
-0.063663
-0.031385
-0.011857
0.011147
0.043878
0.043512
0.031379
-0.077574
0.081012
0.086767
0.013490
0.018520
-0.049068
-0.043132
-0.062688
0.073685
0.083740
0.005745
0.000241
-0.053225
0.086446
0.074916
-0.034539
0.083681
0.052157
-0.041946
0.048237
-0.049405
-0.075608
0.030342
0.009497
-0.038455
-0.046783
-0.081423
0.066197
-0.087951
-0.081394
-0.009940
-0.042490
0.017259
0.081424
-0.049883
-0.007285
-0.044735
0.083823
0.039020
0.081564
-0.005510
-0.004125
-0.027473
-0.027475
-0.009611
-0.016623
0.082260
0.001594
-0.033651
0.017342
-0.050798
-0.024875
0.081281
0.001941
-0.068738
0.041553
-0.089290
0.032230
-0.001618
0.054279
-0.042554
-0.065093
-0.010152
-0.017902
0.054300
-0.007854
0.075580
-0.006716
0.050719
0.027058
0.011214
0.073114
0.032683
-0.045068
0.024066
-0.070471
0.038016
0.056125
-0.038336
0.065716
-0.061798
-0.072292
0.042698
0.054234
0.077150
-0.082278
0.050939
-0.005218
-0.062748
-0.078538
-0.045297
-0.041034
-0.048085
0.023448
0.028550
-0.005358
0.052687
0.006676
0.078300
-0.047550
-0.007792
0.061304
-0.044204
-0.081527
-0.017539
0.071815
-0.047411
0.036066
0.016043
-0.043222
-0.080563
0.062527
0.052713
-0.047863
-0.069441
-0.008482
0.004782
-0.023753
0.037515
-0.020961
-0.060767
-0.030142
0.078936
-0.031744
0.006455
-0.074701
-0.067157
-0.027234
-0.019186
-0.051881
-0.049450
-0.026310
-0.033317
-0.004012
-0.084102
-0.057113
-0.078960
-0.025777
-0.031938
0.062735
0.017488
0.084701
0.009624
0.025021
0.030141
0.080501
-0.022788
-0.070649
0.043351
-0.086727
0.087688
0.001278
0.048416
0.086080
0.084368
-0.031760
-0.059372
0.083739
-0.016673
-0.071999
-0.043686
-0.062184
0.022874
-0.023120
-0.064733
-0.043647
-0.027304
-0.063063
-0.059232
-0.002869
0.065093
-0.058809
0.045930
0.000086
-0.080792
0.021024
-0.015799
0.077706
-0.078808
-0.048730
0.072136
-0.007857
0.011421
0.066511
0.021299
-0.018743
-0.064889
-0.005777
0.045298
-0.084162
0.055201
-0.054428
-0.060573
0.051579
-0.020807
-0.079075
0.072527
-0.065802
-0.006850
0.001789
-0.006196
-0.065730
0.064816
-0.040587
-0.048822
-0.083369
0.076006
0.042085
-0.017429
-0.080364
-0.075125
0.028995
-0.064175
-0.012875
0.085381
0.024072
0.018976
-0.001312
-0.083871
-0.054104
0.022690
0.080838
0.036929
-0.054359
-0.035812
-0.069693
0.007588
-0.085399
-0.032648
0.008356
0.042866
-0.053209
-0.001982
0.021046
0.011686
-0.085524
-0.065927
-0.063664
0.013546
0.010096
-0.002223
-0.020793
0.054081
0.018627
0.075935
-0.085852
0.011211
-0.031131
0.043755
-0.015795
-0.048148
-0.007703
-0.022117
-0.049916
0.012150
0.062891
0.034521
-0.032296
-0.057085
0.058083
-0.053405
-0.027201
-0.070633
0.029047
0.080959
0.010114
-0.000116
0.056439
0.025398
-0.059609
-0.073140
-0.038827
0.076632
0.070810
-0.065716
0.063194
-0.073113
-0.017147
0.094532
0.073024
0.052375
-0.012441
-0.049667
0.006306
-0.070190
0.003518
-0.004353
0.092900
0.077813
0.049112
-0.018726
-0.086203
0.049177
-0.005407
-0.014250
-0.040570
-0.043050
0.065773
-0.086063
-0.035593
-0.029392
-0.066966
-0.073041
-0.032436
0.052264
-0.020821
0.088365
-0.049059
0.006260
-0.019245
0.061149
-0.043037
0.030978
0.014534
0.056219
-0.030419
-0.031372
-0.000834
-0.079967
0.084429
-0.049726
-0.079345
0.019586
-0.031796
-0.033937
0.044737
-0.049786
-0.051378
0.027696
-0.026689
-0.084300
0.058185
-0.052028
0.014217
0.080221
0.031516
-0.075975
0.065413
0.060287
0.006989
0.091509
0.036044
-0.079962
0.067123
0.025560
0.057075
-0.056889
0.076010
-0.061300
-0.025394
-0.055641
0.039122
0.082694
0.004455
-0.057838
0.078191
-0.059475
-0.075422
0.019119
0.060517
0.026205
-0.037304
0.011933
0.029745
-0.067030
-0.026418
0.001752
-0.053058
0.041314
-0.020997
0.016284
-0.032674
-0.056467
-0.057262
-0.074205
-0.030403
-0.031609
-0.011062
0.047234
0.083076
0.014307
-0.059174
0.043129
-0.001670
0.037144
0.079850
0.003729
-0.070367
-0.042976
-0.080711
-0.074615
-0.061971
0.006633
0.017797
0.009595
0.073665
-0.020924
0.050090
0.082363
-0.070353
0.057809
-0.063476
-0.076334
-0.070040
-0.016653
0.034369
0.035705
0.080005
0.077309
0.016657
-0.066177
-0.034235
0.084353
0.072875
0.077449
-0.010535
-0.080220
-0.038018
0.069347
0.065573
0.083280
-0.036300
0.067637
0.068894
0.007891
-0.058790
-0.071750
-0.050172
-0.046975
-0.090385
0.066259
-0.078437
0.074057
-0.026139
-0.007311
0.012661
-0.044685
-0.005179
0.027979
0.039745
-0.029447
-0.028902
-0.047417
0.060681
-0.046261
0.072316
0.016034
0.002352
0.035322
0.074022
0.040074
-0.022992
-0.003920
0.044695
-0.052013
0.074949
0.010265
-0.005915
-0.024583
-0.037460
0.064718
0.034840
0.046188
0.023536
0.084239
-0.010923
0.029483
-0.009647
0.064707
-0.045820
-0.085603
0.027276
0.047256
-0.011989
0.058708
-0.027017
0.029113
0.000850
0.026811
-0.040721
0.013939
-0.072312
0.032621
0.028679
0.044351
-0.045957
0.013525
-0.085822
-0.059587
0.043343
0.032232
0.049775
-0.007581
-0.051959
-0.038374
-0.021781
0.007255
0.043200
0.053356
0.047000
0.042099
-0.020665
-0.080654
0.056616
0.019933
-0.019911
0.058236
0.088811
-0.046574
-0.030005
-0.021708
-0.020079
0.068889
0.040186
0.029276
-0.021973
-0.060341
0.030484
0.054787
0.068577
-0.032332
-0.061570
0.069089
0.075535
0.059315
0.010888
0.018404
0.067247
-0.028362
0.022894
0.026842
-0.030888
0.090906
0.050122
-0.002190
-0.031046
0.031028
0.041239
0.070848
-0.074097
-0.016358
-0.070812
-0.015139
0.009899
-0.001722
0.022856
-0.020661
-0.057630
-0.048734
0.012451
-0.025389
-0.024063
-0.055477
-0.068393
0.048123
-0.033390
-0.003427
-0.013253
0.074937
0.023531
0.015267
0.029062
-0.001667
-0.023792
-0.035116
-0.076515
-0.074221
0.047929
0.025940
0.007156
0.057516
-0.019896
-0.024715
-0.004466
0.042190
-0.029965
-0.082102
-0.009142
0.039834
-0.034652
0.071148
0.056021
0.082942
-0.001518
0.079674
-0.009337
0.017283
-0.028523
-0.001058
0.086118
0.021474
-0.053952
0.011255
0.031874
0.049841
0.026648
0.038476
-0.008702
-0.023577
0.006929
-0.064406
0.081869
0.058715
-0.042475
0.029587
0.045879
0.041190
-0.068073
-0.055773
0.002506
0.046555
-0.080685
0.063753
0.010459
-0.054492
-0.056325
0.017311
0.074194
-0.050423
0.005678
-0.031122
-0.031269
0.012991
0.018717
0.019520
-0.003322
-0.035111
-0.041517
0.068128
-0.056851
-0.047484
-0.069153
0.058793
0.070324
0.025749
0.081323
0.074268
-0.069372
0.054898
0.021790
-0.008663
0.054122
0.085734
-0.052920
-0.036022
-0.086997
-0.022898
-0.061148
-0.043471
0.035014
-0.029245
-0.004298
-0.045256
0.041232
0.023604
0.064353
0.064769
0.024038
0.056021
0.007458
-0.058830
-0.005403
0.066512
0.009930
0.002348
0.015469
-0.041858
-0.046766
0.039842
0.059517
-0.085269
-0.065553
0.080577
-0.007921
0.018061
-0.066773
-0.042474
-0.062803
0.013957
-0.046034
-0.080958
-0.050351
0.006223
-0.012817
-0.054277
-0.049228
-0.076851
-0.011326
-0.034692
-0.010946
-0.016383
0.052511
-0.080720
0.018157
-0.076790
-0.072842
-0.004524
0.060378
0.041726
-0.086359
-0.047725
0.081458
0.023792
0.083968
-0.022170
0.065116
0.033249
0.066571
-0.008602
-0.000977
0.081666
-0.034858
-0.027925
0.049643
-0.064111
-0.073178
-0.020310
-0.023245
-0.051256
0.029562
0.045807
0.031246
-0.006464
-0.048645
-0.033070
0.043045
0.042984
0.031613
-0.026055
0.031435
-0.044947
-0.078596
0.047147
0.031813
-0.069390
-0.050951
0.038775
0.085172
0.069249
-0.028406
-0.048557
-0.028566
0.021142
-0.002867
0.001803
0.013172
0.072841
0.048318
-0.029327
0.050285
-0.026775
0.072421
0.040221
-0.071348
0.038150
-0.063677
0.015049
0.002373
-0.055850
-0.050855
0.044480
0.065006
0.006188
-0.027953
-0.003924
0.068978
0.015151
-0.020730
0.035704
-0.000199
-0.076605
-0.030153
0.066413
-0.028320
-0.082383
-0.025805
-0.058182
-0.017247
0.024848
-0.063564
-0.027987
-0.021815
-0.011732
0.035985
-0.025125
-0.002459
-0.073571
0.032366
0.032805
-0.050220
-0.087269
0.042757
0.048869
0.055047
-0.009962
0.035844
0.044706
0.029586
-0.047364
-0.043476
-0.031306
0.031374
0.019868
-0.031088
0.053623
0.027836
-0.002096
0.062086
-0.010402
-0.034798
-0.035152
0.027824
0.051113
-0.056756
-0.004606
0.039271
0.041235
0.038303
0.035183
0.038353
-0.067008
0.083491
-0.021268
-0.024358
-0.008044
-0.072281
-0.057479
-0.053247
-0.079816
-0.067179
-0.066653
0.039613
-0.010849
0.071676
0.085979
0.048386
-0.049803
0.061386
-0.029942
0.004748
0.026993
0.076901
-0.008994
0.012703
0.006005
0.022999
0.017176
0.012140
-0.055316
-0.064996
-0.042994
0.030655
0.049417
-0.010254
-0.004667
0.070043
0.028693
-0.040494
0.075196
0.005917
-0.070378
0.004472
-0.032916
-0.052617
0.034192
0.060790
-0.053890
-0.012780
0.055604
0.027997
-0.053850
0.021490
0.060560
0.090146
0.029307
-0.026747
0.064299
-0.039127
-0.047478
0.074166
0.035359
0.067873
-0.014126
-0.087175
0.080750
0.036449
-0.013393
0.001770
-0.041562
-0.068199
-0.035446
-0.029392
-0.005292
-0.065111
0.039710
0.005415
-0.007668
-0.059963
-0.030490
-0.046642
0.000375
-0.024106
-0.031945
-0.053603
0.013223
-0.072852
0.047061
-0.088170
-0.005269
0.045910
0.055754
-0.047470
0.081613
0.032172
0.021725
-0.069171
0.054415
-0.048129
0.026332
0.022407
-0.024243
0.079785
0.039112
0.025546
-0.061784
0.044925
0.069047
0.017848
-0.066956
-0.053071
0.009745
0.014704
-0.059931
-0.043141
0.025024
-0.026705
-0.064922
0.072608
0.041787
-0.021302
-0.075467
0.064645
0.054335
-0.044443
0.013186
-0.006735
0.086147
0.008550
0.066516
-0.019460
-0.002588
0.024610
-0.011194
0.043204
-0.036376
0.078793
-0.007867
-0.048559
0.039926
0.005338
-0.036581
0.017143
-0.052490
0.076002
0.053177
-0.088796
-0.054041
-0.059717
0.001790
-0.061173
0.049030
0.034047
0.063545
0.065124
-0.002673
0.043094
0.010100
0.021950
-0.077129
-0.070611
0.015733
-0.003771
0.012381
0.052037
0.042227
0.017321
-0.036937
0.052603
-0.048752
-0.062879
0.064221
0.069864
-0.049858
-0.014576
-0.065274
-0.047677
0.049693
-0.086436
-0.008752
0.076280
0.013443
0.054920
0.036264
-0.060730
-0.071937
0.006639
-0.050543
-0.085587
-0.013327
0.082123
0.045049
-0.040771
-0.013107
0.015057
-0.062282
-0.043112
-0.021021
0.044296
0.014975
-0.035143
-0.058702
-0.048229
0.041542
0.066186
0.057415
-0.083298
-0.038458
-0.092071
0.007554
0.025236
-0.088394
-0.061900
0.005203
-0.013807
-0.012344
0.082439
-0.069177
-0.052996
-0.042685
-0.034128
-0.059988
-0.008441
0.078666
0.050540
-0.080214
0.066473
0.057657
-0.007722
0.017130
-0.034978
0.012399
0.056844
-0.026923
-0.053943
0.002695
0.078876
-0.048075
0.037175
-0.006297
0.043296
-0.044249
-0.022826
-0.068228
0.059610
-0.021228
-0.000833
0.037184
0.042654
-0.058345
0.079518
0.017597
0.027191
-0.027516
-0.063341
0.025693
0.044032
-0.040302
-0.080132
-0.066816
0.076886
-0.089100
-0.058686
0.003316
0.067011
0.080646
-0.059034
0.030971
-0.048939
-0.064808
0.009374
0.011841
-0.077963
-0.090452
0.054243
0.000114
-0.053809
0.038037
-0.057973
0.025115
-0.080414
0.042164
0.065126
0.066377
0.009298
-0.038249
0.064843
0.026146
0.087116
0.079695
0.030471
-0.006937
-0.030968
-0.058294
0.062889
-0.032016
0.071468
0.040897
0.038581
-0.077078
0.091730
-0.007486
0.080735
0.074777
0.090884
-0.010249
0.002239
-0.021324
-0.016717
0.042238
-0.072280
0.036900
0.031970
-0.074556
-0.005092
0.012545
0.064929
0.074073
0.024961
-0.000389
0.022844
-0.007784
-0.080420
-0.070564
-0.040378
-0.066630
0.048631
0.087993
-0.005949
-0.009893
0.022269
-0.057546
-0.080911
0.084731
-0.063605
-0.024652
0.067299
0.055325
0.003779
-0.019109
0.016026
0.025056
-0.031018
-0.043249
-0.006567
-0.053414
0.013019
-0.039612
-0.081036
-0.068155
-0.001934
-0.043341
0.070561
-0.086725
-0.005392
0.041146
-0.069808
0.073940
-0.050204
-0.033496
0.047877
0.031128
0.046968
0.032558
0.044117
0.065037
0.077596
-0.066024
0.023007
0.015977
-0.023933
-0.040007
-0.030179
-0.027506
0.015157
-0.005624
0.059273
-0.010429
0.065932
0.030659
-0.009369
0.059138
-0.000662
0.041830
-0.003088
-0.009450
-0.026309
0.052742
0.004396
-0.068830
-0.030684
-0.064234
-0.075975
0.047650
0.017605
0.049663
0.045764
-0.060265
-0.079723
-0.086477
0.029848
-0.052687
-0.074798
0.074447
0.032253
0.031619
-0.018439
-0.043588
-0.002422
0.065013
0.062884
0.052124
-0.011404
-0.086288
-0.073015
-0.002211
0.017019
0.053539
0.022338
0.008793
0.028312
-0.023428
-0.052518
0.033527
-0.039798
-0.002427
0.071030
0.017372
0.020013
-0.068440
-0.031107
-0.007513
-0.081142
-0.044594
0.056203
0.032207
-0.027769
-0.043432
0.022631
-0.029000
0.078518
0.084694
-0.059564
-0.084513
-0.006250
-0.020944
0.028235
-0.023009
0.070536
0.070934
-0.027623
-0.071249
-0.028225
0.052238
-0.087438
-0.030329
-0.034405
-0.073724
-0.028496
0.086607
0.010757
0.054961
-0.025741
0.077661
0.061272
0.014066
-0.078595
0.075987
-0.073042
0.045919
-0.077770
-0.075190
0.070088
-0.073616
0.036592
-0.084190
0.034757
0.071295
-0.006724
-0.025653
0.076268
-0.007252
0.082163
0.002952
0.051545
0.062536
-0.002029
-0.031674
0.017399
-0.049472
-0.010638
-0.048910
0.031030
0.083093
-0.086403
-0.072860
0.070898
0.041789
-0.087959
0.026079
0.068470
-0.044939
0.075196
0.066241
-0.067719
-0.025176
0.054219
-0.087238
0.051477
-0.084621
0.055566
0.042480
0.014022
-0.035837
-0.045335
0.046583
-0.038611
0.050578
0.047427
0.036977
-0.004030
-0.023816
-0.035664
-0.042173
-0.079608
0.036455
0.021484
-0.025409
-0.058886
-0.023747
-0.009835
0.035608
-0.003920
-0.052937
0.005496
0.079172
-0.058793
0.075759
0.086973
0.048185
0.075699
0.038671
0.010599
0.038147
0.078532
0.017630
0.040881
0.054551
-0.027319
0.068729
0.008930
-0.086898
0.043363
-0.002791
0.018554
-0.079821
0.002386
-0.059733
0.066875
-0.015126
0.042096
-0.008297
-0.064420
-0.051672
0.043523
-0.007275
-0.042257
-0.060661
0.035563
0.060535
-0.012805
0.071884
-0.007605
0.008926
0.056731
-0.032308
-0.013534
0.067011
0.079251
-0.077905
0.045980
0.031522
-0.035162
-0.065399
-0.060582
-0.047182
0.027847
-0.063012
0.016029
0.056435
-0.043078
-0.063372
0.020689
0.050000
0.037036
0.019885
0.068803
0.025927
0.081850
-0.069250
0.084674
0.002582
0.067239
0.033273
0.058376
0.037147
-0.009015
-0.030849
-0.062265
-0.051587
0.086368
0.072593
0.030387
0.093035
-0.008067
0.000339
0.077312
-0.045417
-0.050014
0.072899
-0.043125
0.034775
0.024456
0.083773
-0.087516
-0.033639
0.020927
-0.079043
-0.050365
-0.065913
0.027264
0.012398
0.022039
0.021529
0.003066
-0.057590
-0.053258
-0.030039
-0.087996
-0.074147
0.061336
0.046864
-0.025857
0.088461
0.026278
0.049912
-0.012078
-0.012727
-0.021322
-0.011004
0.029798
-0.015538
-0.010032
0.035520
-0.056913
-0.078201
-0.047799
0.027265
0.020174
-0.077080
0.068122
0.007594
-0.029979
0.033011
-0.032430
0.019917
0.073124
0.019413
-0.067508
-0.085029
-0.023147
-0.075152
-0.079634
0.007578
0.019907
0.023257
-0.065296
0.021157
-0.083376
0.018201
-0.014406
0.013995
-0.020926
0.070558
0.004480
-0.054962
0.073172
0.049075
-0.080582
-0.011650
-0.041222
-0.014001
0.084097
0.007624
-0.032859
0.078583
0.080465
0.063207
-0.013757
0.093032
0.072465
0.036098
0.020478
0.079428
0.061948
-0.037718
0.061169
0.074567
0.044473
-0.066684
0.067822
-0.062534
-0.065698
0.096645
-0.050779
0.083879
0.044017
-0.076693
0.089784
0.059032
-0.018327
-0.013469
-0.032886
-0.039521
-0.055626
-0.003266
-0.044599
-0.047269
-0.045276
0.057260
-0.037430
-0.040342
0.066288
0.062227
0.054321
0.029094
-0.034749
-0.000925
0.015058
-0.031039
-0.003727
-0.019285
-0.000241
-0.002721
-0.083539
-0.007279
-0.018346
-0.009219
0.013353
-0.066016
-0.027872
0.066350
-0.029250
0.083176
0.048023
-0.001721
-0.018221
-0.008175
-0.051121
0.043838
-0.048054
-0.079809
-0.092411
-0.057797
-0.087893
0.066297
-0.017311
-0.073567
-0.073244
0.053041
0.040933
-0.069111
-0.016094
0.089572
0.064424
-0.020077
-0.076342
-0.057967
-0.052218
-0.054710
0.003835
0.059950
-0.000299
0.062221
-0.084977
-0.043090
0.034287
-0.047334
0.087166
0.080360
0.067921
-0.007195
0.021703
0.032678
0.049841
-0.042663
0.065084
0.054761
-0.020412
0.042427
-0.002101
0.009548
-0.079970
-0.050198
0.014342
0.003130
0.012218
-0.019422
-0.064897
-0.039698
0.087490
0.069910
-0.011651
-0.060922
0.047012
-0.017230
0.068812
-0.023289
-0.087965
-0.061482
-0.018290
-0.059467
0.077496
0.035398
0.084105
0.086819
-0.003056
0.073609
0.033685
-0.057788
0.092115
0.038611
0.027180
-0.066824
0.046142
0.037745
-0.019207
-0.011710
-0.025645
-0.083417
-0.013037
0.014848
-0.050133
0.051839
-0.052828
-0.037094
-0.064544
-0.081867
0.024657
-0.083688
0.064355
0.050851
0.077565
-0.074122
-0.048079
-0.020318
-0.018247
-0.039627
0.045644
-0.051647
0.048977
-0.078645
-0.074341
0.001766
-0.045230
-0.004483
-0.083878
-0.013636
-0.046090
-0.065034
0.075911
0.025899
0.055884
0.084299
0.007041
0.029568
0.046223
0.030662
-0.017591
0.019624
0.056041
-0.069821
-0.016946
-0.058974
0.012006
-0.076803
-0.066666
0.072389
0.080095
-0.067436
0.069029
-0.017800
0.045041
0.023496
0.000600
-0.001071
0.080594
-0.079230
0.083058
0.042054
0.091662
-0.049796
0.019715
0.020108
0.029643
0.025035
-0.051292
-0.058086
-0.014547
0.029599
0.075537
-0.020567
-0.002559
0.034446
-0.018036
-0.013717
0.083910
-0.056740
-0.048150
-0.052889
-0.063021
-0.031634
-0.007949
-0.022951
-0.000233
-0.029497
0.092998
-0.019011
-0.028517
0.004137
-0.052676
0.076947
-0.053884
0.002847
-0.008450
0.068660
0.039177
-0.083447
-0.006760
-0.074855
0.042266
-0.024645
0.078253
0.039769
-0.046004
0.075537
0.058424
0.025588
0.059596
0.013736
-0.016928
0.046987
0.059354
0.078509
-0.010894
0.075265
0.002760
-0.067223
-0.065586
0.069033
-0.047004
-0.053805
-0.040979
0.042910
-0.080572
0.004409
0.068389
0.018281
0.064242
-0.062725
0.079795
-0.071627
0.038504
0.085576
0.062369
0.047047
-0.019029
0.034576
-0.022258
-0.076050
0.005543
0.002459
-0.023090
0.072718
0.051088
-0.062295
-0.069069
0.013257
-0.006891
-0.067869
0.005758
-0.004970
-0.010738
0.020817
0.072748
-0.058766
0.082558
0.066452
-0.037667
-0.063865
0.084543
-0.066849
0.037218
0.001369
-0.072519
-0.045223
0.019728
-0.081069
0.073571
-0.042885
-0.007168
0.013589
0.034539
0.057785
0.013408
0.047260
-0.048578
0.050699
0.032781
0.037961
-0.015261
0.064688
-0.056638
0.036523
-0.072030
-0.083596
0.029192
0.028758
0.063000
-0.028322
0.036650
0.032409
0.011222
-0.018524
-0.056984
-0.052921
-0.030723
0.066934
0.019584
-0.011965
-0.082778
0.067834
-0.049318
-0.066671
0.085521
-0.081699
-0.089255
-0.031599
0.005878
0.075653
-0.075777
-0.049129
0.031661
-0.060882
-0.014762
-0.019317
0.023846
0.012300
-0.026499
0.067701
-0.054674
0.083586
-0.037267
0.021074
-0.045979
-0.026044
0.020114
0.001129
-0.074853
-0.075660
-0.065751
-0.054187
-0.062544
0.061079
0.030939
-0.020748
0.027232
0.069951
0.002483
0.084406
0.003591
0.080248
0.078561
-0.083841
-0.084891
-0.048186
0.000510
0.037856
-0.075019
-0.076211
-0.043003
0.074318
-0.033217
-0.086635
-0.080639
0.077224
0.013726
-0.018834
0.059503
-0.014732
-0.023772
0.051657
0.004918
-0.078413
0.047763
0.054003
0.000898
-0.020675
0.046515
-0.007420
0.038055
-0.031646
-0.059094
-0.080649
-0.084174
-0.021020
-0.013979
0.024903
-0.072806
0.062545
-0.024241
0.025608
-0.034209
-0.083566
0.073507
-0.069780
0.057878
-0.048142
0.029467
0.072341
-0.052172
-0.080476
0.075411
-0.024521
0.007459
-0.065591
0.042350
-0.023102
0.082155
0.073935
0.076186
0.054963
0.032950
0.046029
-0.035831
0.077427
0.003260
-0.018607
-0.060153
0.057392
0.047641
0.063766
-0.054012
-0.031731
-0.055390
-0.045534
0.001260
0.012091
0.058418
-0.013638
0.031539
0.051670
-0.057338
0.042057
-0.071539
0.076764
0.028113
-0.073828
0.020375
-0.050723
0.067430
-0.016461
0.001704
-0.079288
0.055313
0.059414
-0.024004
-0.057342
-0.093001
0.095018
-0.039809
-0.073726
0.056475
0.036273
0.029145
-0.041381
0.045373
0.049209
-0.042758
-0.011386
0.089689
-0.000395
0.017473
0.014300
-0.046448
0.003855
0.027645
-0.016972
-0.010984
-0.003944
0.071904
0.005956
-0.077948
0.082328
0.055597
-0.079766
-0.051029
0.082870
-0.012412
-0.055876
-0.042998
-0.044112
0.090339
0.031637
0.065288
-0.044529
0.077765
-0.054423
-0.085898
0.075309
0.053650
-0.061829
0.069058
0.093137
-0.001464
-0.063534
-0.062668
-0.011718
-0.059114
-0.032122
-0.006360
-0.039440
0.000570
-0.077334
-0.044851
0.040901
-0.067970
0.072425
0.026485
-0.041472
-0.021682
-0.001211
-0.058784
-0.089503
0.025536
0.038983
0.054136
0.072947
0.027345
-0.069949
-0.050039
0.010972
-0.061191
-0.000115
0.003526
0.044627
0.029502
-0.015652
0.012465
0.053342
0.007060
-0.027934
0.058185
-0.005857
-0.014842
0.052827
-0.030320
0.022197
-0.036722
-0.028761
-0.047387
-0.074344
-0.041318
-0.046856
0.020198
-0.053623
0.016158
0.033610
-0.027892
-0.062948
0.025373
0.060195
-0.008106
0.029026
-0.086646
0.060950
-0.083079
0.055986
0.091351
0.070505
0.060693
0.058175
0.081299
0.007879
-0.011666
0.011578
0.070816
-0.039979
-0.013168
0.088818
0.028627
-0.092029
-0.043920
-0.031103
-0.053200
-0.023572
-0.093852
0.030713
-0.000487
0.076962
-0.037617
-0.040190
-0.024281
0.023393
0.016109
0.021364
-0.007047
0.041352
0.088324
-0.051952
0.082462
-0.023255
0.027057
0.025367
0.067601
0.010673
0.024982
0.002682
0.014531
0.031251
0.043114
0.020849
-0.015091
-0.082591
-0.026238
0.053252
0.026623
0.012440
0.000979
0.041056
0.017308
0.011072
0.061431
-0.013641
0.002863
-0.001854
0.014970
-0.002450
-0.047484
-0.043656
0.015044
0.028690
-0.052492
-0.051693
-0.043920
-0.039767
-0.002408
-0.021687
0.020387
0.050890
0.040190
-0.088165
0.012946
0.041866
-0.079239
-0.003891
-0.057323
0.058436
0.023995
0.028718
0.074363
-0.085589
-0.024247
0.043613
-0.038859
0.082713
-0.020010
-0.034120
-0.065764
0.032215
-0.062630
-0.052965
-0.044552
0.001284
-0.042634
-0.084392
0.004946
0.012958
0.082391
0.031996
-0.064169
0.011404
0.066152
-0.069904
-0.011842
-0.061334
-0.000028
0.046921
-0.088824
-0.068474
0.022950
0.020892
0.064038
0.070294
-0.065646
-0.086139
0.063764
0.053652
-0.000006
-0.000180
-0.017797
-0.060159
-0.014364
-0.068895
0.020650
-0.023715
-0.011946
0.056495
0.070771
0.068378
-0.083980
-0.048118
0.060245
0.050313
0.057138
0.081633
0.028878
-0.005720
0.000226
-0.044201
0.008880
-0.001762
0.035465
-0.035476
0.018808
-0.025192
-0.050330
0.052927
0.042510
-0.016240
-0.032995
0.041059
0.029031
0.083855
0.019487
-0.044462
0.073112
-0.062530
0.069565
-0.075015
-0.080866
-0.022565
-0.039532
-0.038420
-0.037466
-0.004767
0.018438
-0.016680
-0.001932
-0.065056
-0.051841
0.017763
0.027318
0.027592
0.049554
-0.038121
-0.054678
-0.090176
0.056702
-0.086636
0.054682
0.001873
-0.070858
0.046692
-0.010528
-0.084676
0.014822
0.037635
0.009792
0.063662
0.053460
0.082523
0.024369
-0.031460
0.085491
0.017827
0.019675
-0.067335
0.044801
-0.061179
-0.038159
0.042912
0.022145
-0.017694
0.047949
-0.014650
-0.078260
-0.085655
0.063033
0.053616
-0.011205
0.066889
-0.068670
-0.033188
0.086969
0.042396
0.019486
0.074448
0.035211
0.053849
0.052134
0.082359
0.013746
0.041706
0.084454
-0.057015
0.010133
0.010132
-0.061988
-0.069026
0.091539
0.010477
-0.037930
0.025944
-0.024970
-0.013373
0.005312
-0.009421
-0.030097
0.078983
0.081814
-0.066768
-0.080536
-0.005889
0.026372
-0.005115
-0.052501
-0.019979
0.047743
-0.028259
0.052282
-0.030248
0.017912
-0.086316
0.006008
0.034604
-0.078420
-0.041252
0.051951
0.078150
-0.039532
-0.009153
0.059421
0.049633
0.035267
-0.071287
0.067038
-0.014413
0.023338
0.088906
-0.069651
0.063316
-0.082136
0.023257
-0.090081
-0.089414
-0.017175
-0.025015
-0.009196
0.000235
0.007586
-0.079137
0.079886
0.073447
-0.052337
0.065682
0.082162
-0.000210
-0.088957
-0.039530
0.008537
-0.044143
-0.025213
0.037875
0.068482
-0.034382
0.010868
-0.089636
0.087061
-0.076695
0.066489
-0.006182
-0.015051
-0.028503
0.033048
0.051260
-0.029492
-0.078738
0.007590
0.038870
-0.062844
-0.067368
-0.049250
0.089599
-0.063314
0.002954
-0.041272
-0.067031
-0.003454
0.050668
0.006490
0.062792
0.045345
0.006745
-0.023624
-0.026878
-0.025785
0.060617
-0.016404
-0.042117
-0.077207
-0.001658
0.007855
0.090305
0.069473
0.002413
-0.060561
0.065701
0.060247
0.035911
-0.018175
-0.023429
-0.005361
-0.011438
-0.032720
0.076261
-0.028899
-0.016832
0.002491
0.077491
-0.046628
0.066775
-0.085211
-0.080914
0.095395
-0.010273
0.026881
0.009565
0.066374
-0.073217
0.076106
0.006046
0.040721
-0.050732
-0.079383
-0.081349
0.027064
-0.089414
0.060417
0.049682
-0.048626
0.012051
0.026038
0.085343
0.000617
0.070709
-0.067885
-0.080953
0.026020
-0.040148
-0.033675
0.028203
-0.068558
-0.037991
0.087151
-0.048785
0.013213
0.029072
-0.036123
0.048543
-0.043499
0.082089
-0.083212
-0.015993
0.067381
0.054065
0.041103
0.016839
-0.054251
0.032482
0.048940
-0.029121
0.032102
0.077992
-0.000379
0.078790
0.062324
0.061098
0.045018
0.086044
0.054381
0.066278
-0.094676
0.073012
-0.019663
-0.002439
0.087755
-0.085824
0.013255
-0.021202
0.047233
0.067096
0.007952
0.060486
-0.075792
0.087456
0.000202
-0.036745
-0.030182
0.054132
-0.042388
-0.013582
0.060217
0.038224
-0.096047
0.018386
0.050044
-0.012492
-0.071685
0.070408
0.039745
0.035271
0.088519
-0.022088
0.073771
0.078559
-0.043844
-0.020224
-0.047691
0.053322
0.084615
-0.045586
0.060520
0.088357
0.057215
0.059937
0.080268
-0.005089
0.043472
0.056643
0.016771
0.032148
-0.042175
-0.025303
0.012365
-0.078156
0.054731
0.009380
-0.045252
0.031348
0.018062
-0.016822
0.069390
0.084846
0.073392
-0.070369
-0.016967
0.003733
0.081992
0.037796
-0.023622
-0.066835
-0.014534
-0.035247
-0.002884
-0.014683
0.070844
0.068338
0.070561
0.060665
0.007451
-0.079538
0.011302
-0.037625
0.081910
0.032711
-0.046641
0.052664
-0.046037
0.033446
-0.051530
0.049239
0.000021
0.046264
0.055902
-0.008399
0.012081
-0.063379
-0.077952
-0.012351
-0.073154
-0.061297
0.006000
-0.087452
0.085228
-0.020307
0.063293
0.074133
-0.076076
0.017753
-0.019694
0.009910
0.000019
-0.006087
-0.077126
0.025718
-0.084395
0.083558
-0.021841
-0.007755
-0.021887
-0.028187
-0.043817
0.027384
-0.033004
-0.018379
-0.044125
0.011640
-0.033886
0.027822
0.033509
-0.067861
0.062879
-0.040211
0.035646
-0.007442
-0.069758
0.024912
0.018573
0.035534
0.061957
-0.057047
-0.085558
-0.003790
0.023882
-0.000864
-0.017886
0.008601
-0.055318
0.070116
-0.031692
-0.082132
0.034801
-0.022993
0.061173
-0.072802
0.071328
-0.025636
-0.074415
-0.077886
0.006094
0.076930
0.061027
-0.079137
-0.083666
-0.075961
0.053270
-0.050981
-0.000693
-0.063285
-0.052390
-0.070667
0.028267
0.038870
-0.010851
-0.041911
0.047930
-0.028827
-0.051085
-0.034394
0.076939
-0.087296
0.069448
0.000067
0.004353
-0.073318
0.009646
-0.043136
0.015757
0.066749
0.029470
0.034742
-0.078889
-0.015226
0.030694
0.058586
0.066023
0.057848
-0.054341
-0.000966
0.071257
0.021561
0.026379
0.036949
0.010077
0.044331
0.070427
0.018583
-0.075993
-0.052849
-0.040020
0.036096
0.039762
0.091315
0.063571
-0.039454
0.057069
-0.009859
0.008282
-0.070431
-0.029559
0.000317
-0.082350
-0.086503
0.084987
0.005254
-0.047390
-0.057259
-0.004698
0.052808
-0.087060
-0.057962
-0.019830
-0.080184
-0.001480
-0.060623
0.003431
-0.005962
0.063098
-0.064057
0.081318
-0.027928
0.075564
0.012189
0.046912
0.026747
0.078334
0.044466
0.006503
-0.070751
-0.040921
-0.023290
-0.045109
0.040907
-0.060959
0.046030
0.009232
0.002968
0.074689
-0.015657
0.059606
-0.074678
0.051794
-0.030699
0.084176
0.004473
0.078483
-0.024384
-0.059472
0.061905
0.036392
0.003070
0.056676
-0.077793
0.086247
0.015307
-0.043327
-0.032625
-0.079199
-0.046304
0.046617
0.045627
-0.003330
0.040779
-0.018488
-0.062670
-0.046500
0.052412
-0.027996
0.063046
-0.023415
-0.034090
-0.046774
-0.074902
0.042837
-0.052798
0.070466
-0.061511
0.089112
0.083927
-0.046067
0.046350
-0.007204
0.017049
-0.032141
0.053567
-0.017042
0.055999
-0.011752
0.082090
0.067130
-0.027447
0.071625
0.014262
-0.047988
-0.082418
0.006278
0.018467
-0.008630
0.013632
-0.018133
-0.035998
-0.075068
0.050636
-0.060529
-0.003002
0.064112
0.000696
0.049035
-0.068558
0.041709
0.042968
-0.002169
0.014401
-0.079649
0.088526
0.072899
0.012659
0.032449
-0.054681
-0.008321
-0.018991
0.048873
-0.074412
-0.026882
0.077036
-0.081182
0.092084
0.020935
0.088309
-0.045828
0.067430
-0.034842
-0.022096
0.066579
0.086380
0.035849
-0.059669
0.076148
-0.072854
0.004726
-0.071018
0.079395
-0.089056
-0.017462
0.095263
-0.083176
-0.058769
0.087493
-0.041936
-0.073807
-0.054499
-0.001579
0.023716
0.089690
-0.046424
-0.065126
0.014602
-0.064566
0.050703
0.078277
-0.076247
-0.030848
0.044884
0.082876
-0.007162
0.050897
0.044743
-0.063157
-0.021776
-0.075635
0.047338
0.025310
-0.033474
0.074178
-0.036691
-0.073651
-0.023150
0.087055
0.085463
-0.074020
0.042165
-0.038463
0.072371
-0.027850
-0.034771
-0.000337
-0.039156
-0.013588
0.065498
0.023672
-0.040576
0.051084
0.037877
-0.060923
-0.015257
-0.004932
-0.026431
-0.042929
0.083443
0.059337
0.094572
-0.035870
-0.007371
-0.054528
-0.009842
0.077385
0.039386
-0.069699
0.091904
0.094048
-0.050508
-0.026387
-0.046523
-0.013590
0.087961
0.047700
0.039609
0.082543
-0.012489
0.021433
0.015191
-0.037237
-0.063176
0.043073
0.085647
-0.038705
0.031780
0.044045
0.034827
0.012046
-0.055855
-0.017398
-0.003298
-0.077024
0.078024
0.046364
-0.032837
-0.079960
-0.055108
0.023913
0.048536
0.000143
0.077493
-0.047526
0.051873
0.055273
-0.033067
-0.054414
-0.069490
0.027162
-0.033573
-0.053805
0.029688
0.033744
0.070500
0.074263
0.077283
0.067336
0.038245
-0.025773
0.048274
-0.023547
0.021583
0.050786
0.005381
0.072430
-0.049213
-0.011447
-0.027071
-0.036039
0.064651
-0.023464
-0.047138
-0.074190
-0.031716
-0.048344
0.061457
-0.027322
0.045477
-0.028278
0.055020
0.057327
-0.024360
-0.061321
-0.020797
0.064390
0.040026
0.039263
0.065711
0.040343
-0.047346
-0.061777
0.093444
0.007570
-0.081487
-0.053905
0.076133
-0.085045
0.012484
0.002680
-0.074027
-0.024557
0.076910
0.059477
0.038228
0.026052
-0.065863
-0.030703
-0.057774
0.041448
-0.050658
-0.019547
-0.051745
0.079296
0.094624
-0.083379
-0.020809
0.004694
-0.081128
0.093083
0.004675
0.008853
-0.049590
-0.017650
-0.054231
-0.079709
-0.077829
-0.079153
0.044852
-0.074701
0.055347
-0.032348
-0.085073
0.035837
0.063270
0.015053
-0.067784
-0.045400
-0.079339
-0.048753
-0.023436
-0.035807
0.011446
-0.019035
-0.065034
-0.053699
0.056912
0.071641
-0.075505
-0.004180
0.039126
-0.083919
-0.008166
-0.016072
0.001050
0.073149
-0.072919
-0.069667
0.013057
0.045146
-0.065846
0.004276
-0.065856
-0.060388
-0.013970
0.012944
0.061250
-0.062069
0.005873
-0.059394
-0.033403
0.084217
-0.085931
0.046691
0.018167
0.005641
0.011157
0.025147
-0.014141
0.004365
0.000520
0.037100
-0.023480
-0.003129
0.058641
0.035790
0.042930
-0.047407
0.030593
-0.009175
-0.078217
0.041896
0.084853
0.043666
-0.076649
0.008363
-0.007780
0.046019
-0.055751
-0.041044
0.016825
-0.084449
0.036392
-0.016658
-0.003532
-0.052163
0.010440
-0.046845
0.012882
0.079454
0.016654
0.011468
0.025772
0.021723
-0.040949
0.042048
0.065716
-0.007601
0.054214
-0.083497
-0.058915
0.056256
-0.011114
-0.080343
0.076009
0.046172
0.011278
-0.058601
0.003015
-0.042306
-0.057068
-0.003782
0.069016
-0.067435
0.021055
-0.063593
0.064251
0.054389
-0.047248
-0.063271
-0.050620
-0.031886
-0.073404
-0.069984
-0.071188
-0.047410
0.046313
-0.022473
0.052987
-0.051095
-0.066964
-0.004549
-0.084349
-0.025522
0.043948
-0.018284
-0.083877
0.027577
-0.011816
-0.055665
0.014554
0.082761
-0.010891
-0.055506
-0.085310
0.030929
-0.080373
-0.055109
-0.006712
0.011394
-0.017643
0.032188
0.066403
-0.029383
-0.044959
-0.018322
-0.047326
0.003108
0.040151
0.061603
-0.018624
0.073894
0.021908
0.030033
0.056993
-0.044015
-0.001778
-0.023043
0.017489
0.035811
-0.063942
-0.020339
0.085820
0.086989
-0.079136
0.068561
0.074497
0.023351
-0.032102
0.077453
-0.017835
-0.052799
0.063948
-0.013963
0.004788
-0.019102
-0.045542
0.044543
0.069061
0.057191
0.029289
0.086500
-0.069323
0.057823
-0.056009
-0.070250
-0.062563
0.031613
0.034675
-0.039957
-0.054534
-0.004561
-0.004196
-0.061327
-0.078040
-0.060396
0.039096
-0.061605
-0.003875
-0.052685
0.075185
-0.047454
-0.081150
0.022972
-0.029076
-0.066984
0.024094
-0.026897
0.094180
-0.041445
0.009081
0.058292
-0.052635
-0.059855
-0.076404
0.016516
-0.057807
0.078576
-0.056615
0.034410
-0.049174
-0.068124
-0.044763
0.048133
0.068760
0.084840
-0.080512
0.043045
0.045589
0.016382
0.050891
0.006492
-0.060815
-0.036484
0.034114
0.066021
0.033359
-0.026569
-0.001094
0.088128
0.003536
-0.015584
-0.067107
0.034428
-0.023923
0.078690
0.059809
0.009869
-0.020218
0.000406
0.067661
0.056738
0.080624
-0.027681
-0.027439
-0.010490
-0.063445
0.049665
0.080400
0.090444
-0.083149
0.028291
0.082543
-0.015874
-0.018016
0.010962
0.060474
-0.070248
0.012574
-0.026808
0.054134
-0.020867
0.064362
-0.001417
-0.068725
0.017994
-0.069888
0.046112
0.006480
0.015319
0.081607
-0.083540
-0.045831
-0.031159
0.033403
-0.084982
-0.057974
0.027663
-0.017259
0.039727
0.043278
0.087043
-0.066764
0.024089
0.070707
0.064485
-0.022965
0.063548
0.009522
0.048959
0.071095
0.076565
0.004369
-0.073636
-0.058626
0.034146
0.045779
0.034144
0.048041
-0.082202
-0.028869
-0.014038
0.080722
0.089498
0.045909
-0.008221
-0.009387
0.001452
-0.067875
-0.009640
0.009586
-0.081491
0.013708
-0.066041
0.060239
-0.064794
-0.025308
-0.000061
0.084791
-0.036732
-0.016310
0.061946
0.042468
0.013678
-0.034026
0.003765
-0.076536
0.030235
-0.065862
0.009453
0.076707
0.028986
-0.047187
0.026130
-0.016203
-0.039744
-0.054413
-0.039690
0.081301
-0.024215
-0.005440
0.065909
0.080052
-0.083970
0.008394
-0.039132
0.023454
0.023095
-0.008963
-0.065022
0.016527
0.031058
-0.077480
0.005931
-0.026408
-0.064780
-0.073011
-0.016938
0.089625
0.050207
-0.011536
-0.027216
0.060587
-0.039910
-0.055265
0.076308
-0.078806
0.086272
-0.036432
-0.071337
-0.084941
0.004780
0.011148
-0.069080
0.039520
0.061633
-0.003534
0.091942
0.020482
0.075052
-0.009219
0.080984
-0.047817
-0.056064
0.076432
0.078782
0.087205
-0.000892
0.069798
-0.010446
0.069263
0.063780
0.046393
0.079291
-0.073259
-0.023805
-0.064676
0.022638
0.054526
-0.010871
-0.054793
-0.062628
-0.057101
-0.089074
-0.068582
0.002319
0.029492
-0.056883
-0.043000
0.038126
0.080254
-0.034196
0.027073
0.046994
0.033159
-0.008527
0.003338
-0.082994
0.065031
0.059719
-0.039421
-0.069844
-0.055521
0.047110
0.004456
-0.035112
0.068057
0.073886
-0.040088
0.078066
0.061880
0.030410
0.017438
-0.033671
0.092713
-0.024663
0.021731
0.039944
0.039376
-0.079564
0.056965
-0.000707
-0.069048
-0.062345
-0.045069
-0.027712
0.007596
-0.076027
0.094011
-0.016145
-0.085930
-0.042529
-0.060809
-0.008853
0.016024
-0.056972
-0.005950
0.028293
-0.038637
-0.079805
0.020484
-0.037739
0.074061
0.036071
0.034156
0.048835
-0.076010
0.051851
0.074994
0.088758
0.013493
0.053773
-0.077139
0.044401
-0.024785
0.072712
-0.033707
0.066628
-0.061590
0.053167
-0.045085
-0.069995
0.035019
0.073799
0.052372
0.065104
-0.064480
-0.025541
-0.080286
0.090983
-0.013866
0.083196
0.035595
-0.015765
-0.057554
-0.055615
0.086654
0.064420
0.029399
0.028092
0.074015
0.030978
0.057703
-0.039878
-0.031411
-0.036414
0.023674
-0.052104
-0.010540
-0.025177
0.078981
0.052675
0.039807
0.056101
-0.041646
-0.009407
0.078341
0.087518
-0.012394
-0.059069
-0.014447
-0.028403
0.044458
-0.026291
-0.012848
0.080579
-0.079064
-0.013182
-0.000822
0.077490
0.071093
-0.083800
0.065616
0.041126
-0.027525
-0.078111
-0.062937
0.073538
0.010269
0.069227
0.031533
-0.081530
0.040653
0.003110
0.010780
0.073575
-0.003842
0.068184
-0.001880
-0.000200
0.087479
-0.014337
-0.086429
0.006321
-0.079125
-0.038695
-0.024955
0.077570
0.012246
-0.046840
0.030526
-0.041451
-0.073682
0.045773
0.086277
0.047435
0.087911
-0.019284
0.030579
-0.053665
0.018303
0.061721
0.000704
0.073057
0.073537
-0.018639
-0.005900
0.065778
-0.057298
0.062386
0.031167
-0.051574
-0.063443
-0.006234
-0.065695
-0.008020
-0.062676
0.039989
-0.013339
0.056928
-0.010222
0.006303
-0.034771
-0.069129
-0.013419
-0.086516
0.029252
-0.082291
-0.056954
-0.049090
0.032102
-0.075670
-0.078675
-0.066464
0.042980
-0.080821
0.042748
-0.027974
-0.019120
0.055014
0.073864
0.087943
-0.079010
0.020798
0.066157
-0.050976
-0.016584
0.070625
-0.050358
0.052469
-0.086411
0.081551
-0.086422
-0.081612
-0.008256
-0.037896
-0.041081
-0.054114
-0.010227
-0.041953
0.072848
0.018186
-0.037645
0.029101
0.040045
-0.042736
0.016434
0.029409
-0.018470
0.050399
-0.031928
-0.080878
-0.092634
-0.090227
0.067807
-0.037649
-0.023700
0.033381
0.051810
-0.019978
0.067448
-0.000604
0.012735
0.042768
0.039979
0.018128
-0.077587
0.016224
-0.052653
0.009635
-0.015255
0.088990
-0.052460
0.018082
0.031897
0.064454
-0.050964
-0.072942
0.017984
-0.055877
-0.010966
-0.026379
0.078049
-0.028396
0.043226
0.074939
0.040400
-0.023008
-0.085693
0.092030
0.077226
0.064747
-0.049145
0.042725
-0.019040
0.036268
0.086713
0.012714
-0.059329
-0.066610
0.023135
-0.016010
0.015687
-0.055914
-0.014147
0.037984
0.070514
0.054496
-0.017172
-0.052024
-0.056378
-0.059680
0.090386
0.074208
-0.005771
0.005628
0.076488
0.037845
0.064251
-0.025383
-0.021458
-0.054297
0.054053
0.017334
-0.055379
-0.001547
0.014580
0.054598
-0.017515
-0.010197
-0.045943
-0.008995
-0.050355
-0.022107
0.036158
0.011434
0.068459
-0.041062
-0.000366
-0.004021
-0.083835
0.036379
-0.017739
0.041066
-0.057725
0.052975
0.075044
-0.006253
0.067151
0.072574
-0.039014
0.058227
-0.080749
0.023680
0.031282
-0.089936
0.083793
0.016911
0.015468
-0.005427
0.061474
-0.059053
0.024564
-0.028762
-0.051589
0.060888
0.055772
0.069599
0.063028
0.068504
0.019863
0.047400
0.070229
-0.075554
-0.007155
0.085139
0.002875
-0.008484
0.009741
-0.052304
0.016864
0.025728
0.080528
0.055118
-0.072973
-0.054808
0.008387
-0.027448
-0.068026
-0.018187
0.039898
-0.018575
0.031694
0.060840
-0.024042
0.078764
0.057535
0.058414
-0.075140
-0.053471
0.012777
-0.081242
0.080819
-0.004807
-0.073294
-0.044650
-0.005412
0.005432
0.054852
-0.086843
0.070994
-0.060185
-0.011017
0.068138
-0.000112
-0.053211
0.035864
0.038757
-0.039900
0.063406
-0.011695
0.087603
0.055526
0.087690
0.086847
0.040766
0.035465
0.055370
-0.029367
-0.025540
-0.021223
-0.042932
-0.043701
-0.074218
-0.040392
0.070758
0.023129
-0.006741
0.071636
0.060666
-0.063029
0.081153
-0.070532
0.012804
-0.007036
-0.062321
-0.049069
-0.069983
0.072766
0.007403
0.033743
0.022611
-0.066024
-0.044269
0.051051
0.018076
-0.016165
-0.029239
-0.012069
-0.028593
0.041989
0.003266
0.056491
-0.032924
0.058420
-0.057748
0.000941
-0.017209
0.087651
-0.066091
-0.017628
-0.028327
0.073740
0.056224
0.085794
-0.054861
-0.047546
-0.015109
-0.003773
-0.005823
-0.028397
0.027920
0.086337
0.047739
0.044381
-0.069730
-0.009413
0.063549
-0.016276
0.039715
0.041451
-0.072210
-0.080326
0.074743
0.079976
-0.075702
-0.012186
-0.077848
-0.066957
-0.085121
0.076969
-0.006282
0.056873
0.039018
0.011071
0.061124
0.049150
0.078343
-0.085917
0.024962
0.057395
0.033130
0.076224
-0.050706
-0.067757
-0.032432
-0.050791
-0.023677
0.025025
0.048915
-0.011244
0.029578
0.053033
0.048822
0.076620
-0.073237
0.024858
-0.005538
0.024568
-0.030079
-0.021918
0.008257
-0.039166
-0.000358
-0.056817
0.000116
0.030928
0.046439
-0.071331
-0.040650
0.038889
-0.001093
-0.069276
0.035119
-0.089999
-0.034272
-0.053193
-0.038350
-0.008037
0.073079
0.027563
0.013897
0.069520
0.027295
-0.030613
-0.090213
0.019024
0.060909
-0.050745
-0.008414
0.057741
-0.037704
-0.032355
-0.069009
0.042992
-0.051064
0.005754
-0.032074
-0.058193
-0.075550
-0.001772
0.026757
0.034331
-0.029911
0.023621
-0.004350
-0.036447
0.000225
0.076696
0.037917
0.077038
-0.014445
-0.043524
0.024709
0.039189
0.014380
-0.010092
0.085670
-0.062974
-0.074974
-0.001120
-0.057274
0.016037
-0.039557
0.030389
-0.079462
0.046162
0.041349
-0.005504
0.057612
-0.030380
0.091849
0.073988
0.076547
0.005041
0.009700
0.000010
-0.009674
0.070338
0.026555
0.020893
-0.046641
0.070452
-0.003870
-0.003456
0.069300
-0.012404
0.033318
0.018330
0.055624
-0.031737
-0.075801
-0.071358
0.093328
-0.026127
0.013907
-0.050652
-0.075922
0.043163
0.076961
-0.071687
0.002117
0.083640
-0.023045
0.007041
0.021360
-0.003261
0.010640
-0.012297
0.003192
0.021678
-0.058496
-0.036014
0.038063
-0.057071
0.045027
-0.049797
0.046163
0.061148
-0.028881
0.068031
-0.051016
0.010985
-0.022900
0.014861
0.013517
0.059350
0.040345
0.007695
-0.006268
0.081615
-0.053801
0.045438
-0.013161
0.070090
0.020369
0.090238
0.024982
-0.046279
0.078968
-0.030745
-0.067301
0.066489
-0.056696
0.012805
0.067400
-0.059078
0.073048
-0.049967
0.025088
0.054534
0.036428
-0.037751
-0.035027
0.068161
-0.014286
-0.001278
0.079751
-0.011239
0.023325
-0.025541
0.025374
-0.076663
-0.064085
-0.006488
-0.062384
0.071022
0.079627
-0.066300
-0.057478
0.064005
0.089230
-0.027061
-0.039615
-0.052346
-0.054785
-0.043431
0.050459
0.009480
0.009127
-0.006331
0.085069
0.038809
0.038004
0.008584
0.047292
-0.024080
0.079413
-0.002095
0.075238
0.068032
-0.020113
-0.028594
0.002009
0.041803
-0.033738
0.016414
-0.084169
-0.049034
0.058975
-0.063289
-0.022223
0.021737
0.029616
0.002727
-0.080048
0.012437
-0.054140
-0.039910
0.092846
0.046647
-0.016307
-0.001674
0.028022
-0.074791
-0.026915
-0.081237
-0.058487
-0.010259
-0.021639
-0.066683
0.052026
0.025507
-0.025894
-0.075425
-0.040466
-0.004266
0.022015
-0.063076
0.053876
-0.024026
-0.030692
0.020705
0.020809
-0.080674
0.023490
-0.049375
0.054119
0.082093
-0.004077
-0.037169
-0.069917
-0.058499
-0.076277
-0.052113
-0.067594
-0.056322
-0.075325
0.017529
-0.081692
-0.082147
0.026720
0.027917
-0.053094
-0.046718
-0.007211
0.020634
0.052459
-0.049662
-0.067833
0.017250
0.000407
0.048944
0.072688
-0.017200
-0.021288
0.082948
-0.074320
0.052624
0.055762
0.085278
-0.072479
-0.004774
-0.028361
0.018405
-0.037149
0.040191
0.042895
-0.066942
0.024619
0.034554
-0.039188
0.086101
-0.022442
-0.081526
0.074709
-0.071024
0.006328
-0.081178
-0.079726
-0.015241
0.057690
-0.042549
-0.029356
-0.016593
0.030879
-0.019345
0.002295
0.071819
0.090601
0.059632
0.090247
-0.029624
0.003283
-0.079493
0.059223
0.080771
-0.012021
0.056885
-0.081935
-0.005091
-0.024334
-0.058034
-0.080251
-0.078885
-0.008008
-0.000687
0.001721
0.001693
0.071908
-0.048189
0.032595
0.079252
-0.061707
-0.012119
-0.015161
0.033928
-0.037051
0.016428
0.007158
0.015967
-0.000265
0.084518
-0.057361
0.089330
0.061370
0.079289
-0.006451
-0.036617
-0.016007
-0.042035
-0.075213
-0.044826
0.025759
-0.002004
0.076365
-0.060744
-0.025275
-0.063862
0.054142
0.031785
-0.024634
0.015682
-0.052461
-0.019946
-0.041327
0.065853
0.072350
0.027711
-0.094502
-0.088184
-0.079038
-0.035694
-0.075539
0.076033
0.039116
0.034167
0.031319
0.000223
0.029153
0.051062
0.015120
-0.051292
-0.079337
0.075590
0.024720
0.029864
0.014889
-0.048091
0.083666
-0.029442
0.082573
0.005253
-0.087985
-0.038001
-0.051614
-0.039792
0.057178
-0.014329
-0.070240
0.032175
-0.060435
0.049393
0.064433
-0.075209
0.029928
-0.038807
-0.037627
0.027680
0.035999
-0.089737
0.017499
-0.062235
-0.000355
-0.026683
-0.072071
-0.027402
0.086015
0.049025
0.013133
0.075192
-0.005123
-0.052868
0.066133
0.057211
-0.045754
0.032891
0.018967
0.076599
-0.077039
-0.048338
-0.064307
-0.066245
-0.030925
0.045448
-0.029258
0.005669
-0.018268
-0.075386
-0.048649
0.056973
0.057863
-0.050367
-0.043931
0.012655
0.005711
0.021463
-0.045230
0.051831
0.027004
-0.063891
-0.078620
0.009132
-0.018394
-0.052797
-0.032718
-0.070278
0.038567
-0.060539
-0.005571
0.010876
-0.053476
-0.090334
0.013358
0.081221
-0.060373
-0.074359
0.086201
-0.081163
-0.006255
0.026793
0.024234
-0.003476
0.088910
0.079672
-0.057462
0.029514
-0.012069
0.019973
0.042857
-0.049156
-0.036393
-0.028645
-0.036048
-0.057960
-0.015124
0.050584
0.058407
-0.078331
0.061666
-0.058670
-0.044161
0.027151
-0.095826
-0.058415
-0.057054
-0.081723
-0.086863
0.027610
0.037324
-0.000923
-0.059815
-0.069058
0.017609
-0.019750
-0.071185
-0.028642
-0.036588
0.065870
-0.030474
-0.043554
-0.087294
0.078635
-0.031376
0.033795
-0.073350
0.028448
-0.033975
-0.075085
0.079385
-0.013623
0.061329
0.040249
0.066818
0.015250
-0.047758
0.014502
0.005381
-0.067001
-0.016007
-0.075063
0.042122
0.061169
0.075388
0.002199
-0.030964
0.048329
0.020845
0.080001
-0.039810
-0.056317
0.036749
-0.059186
0.054231
0.017503
-0.002753
0.051110
0.031703
-0.066727
0.048725
0.045055
0.012681
-0.023487
-0.034591
-0.038385
0.070250
0.013293
-0.014611
0.019007
-0.048745
0.026773
0.084782
-0.008281
0.032056
0.047496
0.004734
-0.001457
-0.027882
0.079010
0.053342
-0.073914
0.077966
0.080303
-0.069871
0.065136
-0.088903
-0.020940
0.091833
0.035275
-0.043034
-0.033878
0.022718
0.044004
-0.049111
0.047145
0.025300
-0.018037
0.010569
0.020419
-0.025833
0.069530
0.005195
0.013102
0.009345
0.030903
-0.007758
-0.051477
-0.047334
0.004389
0.078813
-0.064548
-0.024725
0.010645
0.020198
0.049663
-0.069775
-0.068047
0.002173
-0.063229
-0.080558
0.036791
-0.040860
-0.011938
0.062533
0.055257
-0.027719
0.027287
0.021549
-0.009484
0.043694
0.000179
-0.038635
-0.008528
0.063058
-0.045375
0.083541
-0.008568
0.048684
0.045750
0.043403
-0.036595
-0.035860
0.053134
0.017422
0.015055
0.013471
0.013016
-0.029617
0.009911
-0.000006
0.001365
0.051760
0.002396
-0.025095
-0.004474
0.057718
-0.037435
0.055791
-0.024027
-0.013804
0.078232
-0.076483
0.021364
-0.038143
-0.070545
0.066666
-0.048305
-0.037065
0.012525
-0.080852
-0.055468
-0.056578
-0.062955
0.043926
-0.066305
0.048014
0.073787
-0.014948
-0.069735
-0.015969
-0.064396
-0.057454
-0.082766
-0.003535
0.054713
0.006029
0.039543
0.061169
0.045706
0.035505
-0.081201
0.083459
-0.011268
-0.076933
-0.086426
0.050825
0.027358
-0.032907
-0.022463
-0.069388
0.068293
-0.083662
0.026247
-0.076075
0.058806
-0.062383
0.036597
0.038976
0.083574
0.002785
-0.075780
0.025005
-0.054765
-0.070375
0.052360
0.087007
0.041728
-0.005947
0.012242
0.045504
-0.022968
0.052193
0.013082
0.045414
0.074253
-0.049047
0.050503
-0.076172
0.018142
0.042529
-0.065403
0.023536
0.055749
0.009879
-0.029914
-0.056731
-0.004602
-0.072057
-0.045263
-0.032365
-0.081589
0.080362
-0.004167
-0.032669
-0.041094
-0.062654
0.049057
-0.022893
-0.051299
-0.020645
-0.064434
0.001299
0.054752
-0.053317
0.024772
-0.028143
0.053433
0.036822
-0.060239
0.067398
0.072093
0.046594
-0.003674
0.016522
0.033563
0.037110
0.055550
0.080827
-0.061844
-0.041460
-0.033807
0.080242
-0.008090
0.061989
-0.051023
0.084473
-0.085834
-0.061066
0.004074
0.087207
-0.005486
0.018266
-0.002597
0.094439
-0.061348
0.037032
-0.005317
0.048483
0.052001
-0.059431
-0.045740
0.081833
-0.065992
0.040162
-0.022199
0.091439
-0.018121
0.014423
-0.009265
0.076766
-0.021117
0.053358
-0.004103
0.047403
0.010464
0.004953
-0.082089
-0.009242
0.040674
0.051782
-0.014979
-0.000958
0.070563
-0.048403
0.044407
-0.057414
-0.014466
-0.031622
0.001221
-0.074795
-0.040237
0.021882
0.073909
0.078899
-0.055694
0.011310
0.067587
0.046114
0.003660
0.059956
-0.043769
-0.054514
-0.060392
-0.060329
0.093509
-0.071006
-0.066003
0.019255
-0.015455
-0.003788
-0.030143
-0.068992
0.009583
-0.017492
-0.030447
0.078076
-0.080847
-0.088653
0.022965
-0.022118
0.070440
-0.026809
0.005232
0.071278
-0.018402
0.092283
-0.076169
-0.011689
-0.090270
-0.068865
0.009718
0.085697
0.034621
-0.019755
-0.038540
0.014815
0.079353
-0.008572
-0.020556
-0.015135
-0.048094
0.001410
0.069099
0.052841
-0.033904
0.019548
-0.058126
-0.056409
0.049542
0.022220
0.011499
0.008700
-0.049998
-0.031090
0.013738
0.047956
-0.063479
-0.019062
-0.049518
0.016234
-0.001131
0.008304
-0.002511
0.026193
0.002578
0.030198
-0.037526
-0.035784
0.003690
0.052811
-0.059499
-0.031439
0.066813
0.022594
0.039990
0.045095
0.041652
0.028695
0.013225
0.068948
-0.059672
-0.088944
0.020842
0.030268
0.005911
-0.038894
-0.031656
-0.000305
-0.073946
0.044120
0.056192
-0.074725
0.069420
-0.089791
0.016309
0.045788
0.007369
-0.060517
-0.017531
0.073315
0.036802
0.051829
0.038208
-0.045130
0.008329
-0.000457
-0.076240
0.038770
0.051253
-0.083085
-0.003213
0.053951
-0.086137
-0.033620
-0.036078
-0.041138
0.007101
-0.056888
-0.075808
-0.067415
0.005682
-0.057856
0.022981
-0.074746
0.003112
0.081463
0.000831
0.068353
-0.075276
-0.055411
0.057788
0.037015
0.047547
0.074131
-0.046973
-0.000343
-0.008579
0.031613
-0.071699
-0.050458
-0.031986
-0.027664
0.005420
0.072684
0.082375
-0.057639
0.007529
0.007661
0.067722
-0.027418
-0.089204
-0.054831
-0.044571
-0.071683
0.077171
0.044120
-0.085982
-0.056672
-0.023332
-0.055858
-0.070517
-0.076513
0.076934
-0.068197
-0.007192
0.029608
-0.085161
-0.045944
0.080712
0.047514
-0.025727
-0.009416
0.033880
-0.066254
0.049520
-0.032840
0.023561
0.032717
-0.004216
0.020567
-0.011835
-0.056836
-0.054131
0.034691
-0.072602
-0.005515
0.046350
-0.029496
-0.000708
0.051543
-0.076006
0.019177
-0.036962
-0.023716
0.005531
-0.024583
0.002954
-0.083479
-0.059266
0.015675
-0.001024
0.035324
0.001704
0.048891
-0.053168
-0.072870
0.078044
-0.048867
0.035956
-0.030318
-0.029282
0.037281
0.023541
-0.084697
-0.022917
0.034272
-0.024180
0.079991
0.000898
0.071860
0.042645
-0.071686
0.085248
0.085197
-0.064563
0.019678
0.063611
-0.037174
0.045287
0.053076
0.052392
-0.039016
-0.009261
-0.070524
-0.024738
-0.041379
-0.017643
0.080532
-0.034702
-0.065317
0.048410
-0.061253
-0.062831
-0.032720
0.076576
-0.060493
-0.021107
0.038905
-0.025330
-0.047351
-0.076769
0.024747
0.082054
0.009507
-0.060706
0.015509
0.060997
-0.069435
-0.011231
-0.038942
0.015521
0.018651
0.028232
-0.053665
0.062541
-0.015535
0.046441
0.022969
-0.087521
-0.035248
-0.040563
0.007114
0.076982
-0.086091
0.049708
0.051481
-0.080839
-0.010796
0.008062
0.059051
-0.039703
-0.080313
0.070357
0.013590
-0.070564
-0.050254
-0.056720
0.003757
-0.088192
-0.001853
-0.022320
0.004977
0.040751
-0.052133
0.021576
-0.050827
0.059806
0.051187
-0.023632
0.060613
-0.035964
0.038552
-0.025270
0.011022
-0.055489
0.079260
-0.067752
-0.049124
0.045913
-0.060169
0.086779
0.078237
0.006908
0.017440
-0.075130
0.026838
-0.085997
0.059946
-0.027680
-0.018884
0.063685
0.001442
0.008764
0.019560
0.041584
0.082133
-0.009222
0.046520
-0.043621
0.043393
-0.016490
-0.071888
-0.024205
0.074636
0.076726
0.077050
0.064794
0.043153
0.042919
0.031668
-0.079218
-0.030976
0.024947
0.067967
-0.014893
-0.022995
-0.008164
-0.007287
-0.021012
0.011251
-0.005569
-0.023956
0.054337
0.005370
0.049380
0.034574
0.079959
0.002590
-0.010890
-0.037437
-0.040910
0.034771
-0.067666
-0.061273
-0.083871
-0.047059
0.072004
0.064305
-0.064335
-0.051881
0.054007
0.007403
-0.050577
0.046674
0.040571
-0.071261
-0.015612
0.035909
0.008537
-0.026594
-0.065352
-0.027441
0.061395
-0.025786
0.080425
-0.033528
-0.049221
0.091397
-0.014757
-0.064133
-0.082711
-0.005856
0.048541
0.053579
-0.020083
-0.027266
-0.069949
0.024515
-0.062773
-0.084096
0.008539
0.079332
-0.053175
0.002081
-0.080141
-0.082210
0.006318
-0.021739
-0.042775
-0.037944
-0.007719
-0.019090
-0.030860
0.080657
0.024005
0.070416
-0.041722
-0.057305
0.057926
0.045445
0.068342
0.012185
0.068122
0.079105
0.050815
0.012658
0.061601
-0.007095
-0.088165
0.059015
-0.043937
0.067194
-0.038411
-0.005750
0.010249
-0.028042
0.079511
-0.040214
0.005075
-0.056112
-0.010973
0.030671
0.006677
-0.067492
0.056610
0.031326
0.002879
0.079090
-0.077973
-0.020827
0.072366
0.037389
0.083337
-0.075594
0.023293
0.048915
-0.020557
0.067503
-0.053952
-0.048642
-0.019184
0.084246
-0.000779
0.015570
-0.051644
0.060028
0.019368
-0.071103
0.008707
0.052342
-0.013847
0.001873
0.008713
-0.019853
-0.047114
-0.071797
-0.036982
-0.080417
-0.085015
0.064011
0.072799
0.043861
0.072810
-0.011483
-0.052043
-0.007782
-0.062456
-0.029664
-0.029266
-0.003644
-0.024882
-0.029520
0.059810
-0.022839
0.084966
0.009952
0.036668
-0.049239
0.026547
0.088450
-0.010346
0.057527
0.037715
0.017396
0.068848
-0.040194
0.056470
0.062988
-0.080380
0.087083
0.012322
0.020149
0.041703
-0.060377
-0.061936
-0.040541
0.019423
0.042551
-0.002392
-0.014820
0.019208
-0.025145
0.084690
-0.025117
-0.023915
-0.047669
0.067684
0.010691
-0.032124
0.044788
0.021382
0.007387
-0.075084
-0.073945
0.072241
0.078525
0.039798
0.012902
0.032595
0.021850
0.041438
0.007810
0.074714
0.031551
-0.046535
0.079618
-0.007983
-0.008729
-0.024745
-0.043031
-0.060962
0.001195
0.030290
-0.015720
0.077449
-0.052746
-0.066496
-0.026644
-0.024640
-0.035823
-0.079511
0.007437
-0.053069
-0.011296
-0.035601
-0.081541
0.058478
0.056011
-0.017990
-0.034339
-0.064565
-0.008808
-0.024291
-0.003022
-0.039768
0.047578
-0.058225
-0.057868
0.025656
-0.009121
-0.041497
-0.090938
0.032314
-0.054758
0.078217
0.073968
0.042670
-0.011487
0.011138
0.049320
0.036945
-0.055614
-0.048975
0.016309
-0.035813
0.038425
0.085930
-0.081456
0.008014
-0.041994
0.051791
0.014980
0.057690
0.039335
-0.030333
0.072212
-0.047538
-0.021523
-0.010694
0.091919
0.080535
-0.012699
0.075616
-0.079235
0.047362
0.075154
0.048310
-0.027503
0.063432
0.038026
-0.074451
-0.029811
0.054220
0.025242
-0.051799
-0.047876
-0.046451
-0.090270
0.033453
-0.071673
-0.034340
-0.041936
-0.076199
-0.051186
0.000847
0.035869
0.076164
0.060011
-0.060826
0.021267
0.022815
0.088579
-0.088083
0.029571
-0.065014
-0.039440
0.036237
0.064044
0.016454
0.083952
-0.079588
-0.031271
-0.037605
0.065169
-0.047886
-0.081814
-0.042682
-0.071048
0.007644
-0.015628
0.077975
0.083055
-0.076119
-0.056619
-0.039808
-0.063202
0.045327
0.049169
-0.075685
0.014541
0.067370
0.089934
0.063458
-0.071936
0.056195
-0.037326
0.042772
0.091483
0.058736
-0.044025
0.015112
0.031089
0.073956
-0.038570
0.007050
-0.062951
-0.033496
0.089275
-0.008927
0.028670
0.016734
-0.000982
0.014795
-0.062929
-0.050316
-0.054867
0.031140
0.012481
0.063684
0.069736
-0.028046
0.031740
-0.003671
0.016048
-0.015127
-0.033450
-0.086020
0.053849
0.036272
-0.027102
0.084970
-0.009123
0.022760
-0.071880
-0.031342
0.013748
-0.067766
0.068632
0.005419
-0.026653
0.005234
-0.027587
-0.015075
0.068991
-0.032235
-0.029048
-0.015305
0.060120
-0.076028
-0.049814
0.003589
-0.043570
-0.048158
-0.029060
-0.043063
0.004495
0.048078
-0.038496
-0.026290
0.065351
-0.080990
0.053507
0.044181
0.064371
-0.065911
0.064795
0.016084
-0.034060
-0.026573
0.047069
-0.008814
-0.063345
-0.010905
0.077123
0.039798
0.065108
-0.078494
-0.054389
-0.005296
0.073571
0.042104
0.032493
-0.072855
0.007172
0.061599
-0.014575
0.006476
0.064258
0.048342
0.057765
-0.044284
0.007088
0.080142
-0.059830
-0.046846
-0.045479
0.083931
0.043723
0.068305
-0.009163
-0.043818
-0.047286
-0.050056
0.076340
-0.034739
-0.061918
-0.058877
0.005938
-0.076776
-0.008824
0.040554
-0.052715
-0.031798
-0.047002
0.015178
0.085698
0.007973
0.027855
0.080749
-0.023173
-0.077226
-0.054102
-0.060651
0.078791
0.015232
0.055637
-0.079645
-0.091283
0.076668
-0.001230
-0.048600
-0.071884
0.065642
-0.041645
0.082163
-0.060268
0.036766
-0.060177
-0.030087
0.046021
-0.048731
-0.082165
0.039085
-0.046266
0.052544
0.032101
0.046091
0.047101
0.064036
0.027415
0.082303
-0.069944
-0.006043
0.063939
-0.022732
-0.035271
-0.019096
0.068524
0.028116
-0.056439
0.028262
0.078296
-0.006326
0.060478
-0.036432
0.053722
0.030621
0.002009
0.057892
-0.044840
-0.057798
0.050035
-0.042661
0.042134
0.011750
-0.077903
-0.061450
-0.069483
-0.030191
0.047937
0.021034
0.048614
0.044080
-0.020355
-0.041982
0.007090
0.009300
-0.063340
-0.068587
-0.001906
-0.031098
-0.051163
0.015924
-0.060030
-0.006127
0.000745
0.062988
0.076677
0.061660
-0.039094
0.086194
0.009476
0.081527
0.028794
-0.005266
0.085823
0.060486
0.005073
-0.008417
0.079002
-0.072945
-0.082465
0.027426
0.071193
0.030712
-0.072959
-0.000831
0.067776
-0.049272
-0.043938
-0.038527
-0.001597
0.004922
-0.018476
-0.036035
0.055205
-0.046144
0.082916
-0.026687
0.003214
0.076548
-0.051273
0.004383
-0.084112
-0.056651
-0.074094
0.081610
0.035091
0.083368
-0.078557
0.055667
0.060202
-0.082941
-0.056528
0.016012
0.013569
0.061471
-0.045317
-0.027689
-0.031560
-0.073610
0.082078
0.033480
-0.017152
-0.046405
0.087653
0.009256
0.059914
-0.000338
-0.011541
0.037170
-0.013809
-0.025049
0.019876
-0.080573
0.054771
0.052860
-0.052797
-0.003855
-0.021613
-0.043952
-0.042322
0.080541
0.013846
-0.087079
-0.043576
-0.019786
-0.071293
-0.070789
0.006711
-0.042442
-0.067108
-0.058886
-0.078196
-0.058901
0.020316
0.032846
-0.046978
-0.024739
-0.055996
0.024419
-0.001938
0.015898
0.017063
-0.073561
-0.084902
0.074049
0.006187
-0.073242
0.045699
0.070199
-0.024836
0.085415
0.033631
-0.002850
-0.043462
-0.051223
0.079504
0.047049
0.034610
0.004164
0.022810
-0.043575
0.056693
0.043430
0.082591
-0.018332
-0.055078
-0.023064
0.016280
0.030946
-0.007201
0.074193
-0.078627
0.029904
0.039060
-0.028521
-0.015573
0.047280
0.070386
-0.079310
-0.075742
0.080134
-0.010264
-0.007832
0.049586
-0.011783
-0.059665
0.029645
0.013695
0.000701
0.060739
0.045938
-0.005348
-0.018925
0.086466
0.028020
-0.038662
-0.010820
-0.084662
-0.012362
0.044690
-0.073388
0.075661
0.050665
-0.052185
-0.001902
0.043581
-0.051228
0.063348
0.012576
-0.062540
-0.085082
0.078125
0.080781
0.034895
-0.061193
0.018650
-0.076548
-0.025743
0.089733
-0.023091
-0.012964
-0.065889
-0.027626
0.077122
-0.072857
0.008405
0.024555
0.058274
-0.058544
0.082893
0.014573
-0.000332
-0.066221
0.028893
0.081927
0.002123
0.069585
0.062033
-0.004717
-0.036442
-0.039743
-0.018353
-0.071315
-0.016995
-0.083280
-0.002633
-0.059299
-0.072076
0.064364
-0.084675
0.012521
-0.074540
-0.018356
0.044571
0.019410
0.022424
-0.019938
0.070021
0.074438
-0.073960
-0.072755
0.027019
-0.073179
0.019447
-0.012803
-0.023864
-0.000809
0.041088
-0.051179
-0.059000
-0.016615
-0.040956
0.053682
-0.008484
-0.061152
0.081383
-0.011983
-0.062542
-0.087960
-0.039690
-0.065147
-0.025927
-0.079940
-0.004538
0.086405
-0.080296
0.071957
-0.070968
-0.060427
-0.068443
-0.010999
0.066093
0.032303
-0.011724
-0.060637
-0.019704
-0.047367
0.085115
0.087485
-0.020558
-0.058978
-0.078725
-0.063639
-0.008556
0.016216
0.026500
0.019593
0.051724
0.018161
-0.007517
-0.059584
-0.000356
0.038540
0.029504
-0.060152
0.006739
-0.011568
-0.022329
-0.088263
-0.067539
0.013627
-0.015525
-0.056035
-0.066675
0.056797
0.085781
0.016625
0.051559
-0.053672
-0.004104
0.042877
-0.079684
0.048319
-0.043039
-0.035943
0.032342
0.001123
-0.088062
-0.071896
-0.081027
-0.057316
-0.010635
0.016987
-0.070285
0.057849
-0.052106
-0.070360
0.056953
0.034138
-0.052489
-0.023131
0.009409
0.010407
-0.005768
-0.044417
-0.081424
-0.010351
0.036998
0.026335
0.008055
0.029549
-0.078632
0.070857
-0.054599
-0.029601
0.016117
0.072485
-0.004568
0.001388
0.016954
-0.002178
-0.031591
0.065371
0.064813
0.043118
0.003231
-0.044222
-0.043954
0.034995
0.092463
-0.079786
0.082993
-0.002888
0.038145
0.095479
0.084278
0.065158
0.010277
0.053245
-0.072506
0.035611
0.012921
0.041563
-0.040737
-0.075201
-0.040307
0.083112
0.056550
0.022816
-0.049612
-0.038147
-0.043354
0.027516
0.029922
-0.066800
0.060829
-0.091759
-0.024877
0.011295
0.031866
0.071017
-0.010787
0.073677
0.033971
0.061911
-0.029690
0.039949
-0.028689
-0.006645
-0.009697
0.003689
0.064051
-0.001016
-0.032649
-0.076236
-0.028529
0.079280
0.049720
-0.012153
-0.040199
0.042732
-0.020602
0.056925
0.041170
-0.004284
-0.026776
-0.034088
-0.034405
-0.034834
-0.087134
-0.032211
-0.064571
0.033824
0.045014
0.013695
-0.025767
-0.020859
0.023626
0.049778
-0.024625
-0.056023
0.053810
0.002178
-0.080851
-0.042362
0.036827
-0.033728
-0.010863
0.094471
-0.021595
0.027764
0.029576
0.049404
-0.044985
-0.071914
0.049129
0.054049
0.047358
-0.054629
0.029697
-0.058092
0.080294
-0.069447
0.037135
-0.055684
0.056381
0.037818
0.014412
-0.002885
-0.043783
-0.058143
0.000128
0.076351
-0.031432
0.087158
-0.026910
0.056568
-0.068014
-0.035012
0.094656
0.029264
-0.051490
0.029211
0.055231
-0.005408
0.067906
0.012535
-0.039409
0.087064
-0.052809
0.023444
-0.056718
0.075559
0.066996
-0.019219
0.061851
-0.047139
0.074166
-0.033517
0.090573
-0.013166
0.006293
0.032428
0.062182
0.012004
-0.032522
0.060502
0.039234
-0.047932
0.041409
0.045987
0.083215
0.070122
0.019203
0.056936
-0.061192
0.083763
0.012572
0.070628
-0.053360
0.001862
-0.073515
0.077585
-0.013062
-0.084194
0.036242
-0.035589
-0.075490
0.027364
0.064450
0.042302
-0.074277
-0.068430
0.005193
-0.058410
-0.081546
-0.010932
0.039738
0.049867
-0.006830
0.002036
-0.009203
0.035222
0.031461
-0.059584
-0.007877
-0.023359
0.071808
0.004843
-0.060454
-0.050109
-0.088545
-0.066437
-0.006213
0.066603
-0.042297
0.047097
0.072927
-0.050143
-0.039232
-0.038660
-0.014462
0.017171
-0.082141
0.028888
0.017180
0.069914
-0.058925
0.001531
0.027685
0.070740
0.069899
-0.072243
-0.073048
-0.033917
-0.008735
0.052142
-0.021235
-0.004308
-0.037864
-0.043880
-0.002794
0.040422
-0.074013
-0.061001
-0.028765
-0.083499
-0.070298
-0.085125
-0.070993
0.077355
-0.053872
-0.024327
-0.043510
0.089260
-0.019077
0.051643
0.025566
0.063950
-0.084155
-0.076663
-0.045955
0.032847
0.014519
0.066402
0.012106
-0.089334
0.021739
0.072076
-0.038239
-0.070256
-0.029027
0.014086
0.064670
0.059440
-0.058748
0.045070
-0.084357
0.032052
-0.041908
0.049310
-0.053833
-0.003323
-0.087586
0.014841
-0.056119
-0.050739
0.022468
-0.086726
-0.063026
0.073069
-0.051172
-0.070701
0.017167
0.074994
0.006070
0.004103
0.001567
-0.025588
-0.082958
0.083377
-0.059912
-0.038193
-0.025095
0.055132
0.024080
0.070006
-0.067751
0.001266
0.046649
0.074033
-0.069675
-0.066164
0.079664
-0.085310
0.091568
0.002285
0.023700
-0.036406
-0.078295
-0.072754
-0.039683
-0.003295
-0.006277
-0.062002
-0.056733
-0.063480
-0.005329
0.074251
0.023977
0.020576
0.002627
-0.054572
0.014100
-0.028564
0.016601
-0.014961
0.061456
0.056950
-0.009247
0.083502
0.034600
-0.016086
-0.065736
-0.001578
0.010277
-0.073588
-0.020969
-0.061971
0.018555
-0.074447
-0.069266
0.076802
0.078343
0.081641
0.051633
-0.018873
-0.047336
0.039275
0.005212
0.040828
0.067327
0.047738
-0.073482
-0.050245
-0.087154
0.066812
-0.009855
-0.086063
0.033459
0.051474
0.048245
-0.031415
-0.070292
-0.058090
-0.036439
0.007972
0.031643
-0.039965
-0.024108
-0.045971
0.026176
0.029236
0.058815
0.065660
0.016798
-0.029746
-0.052408
-0.050260
0.018212
-0.053193
0.001844
0.038017
0.040483
0.053685
0.030363
-0.000206
0.009410
0.039784
0.054774
0.076961
-0.012662
0.043093
-0.084538
-0.037604
0.075522
0.032159
-0.087919
-0.038067
-0.009920
-0.054331
0.027990
-0.062664
0.059667
-0.077838
0.007567
0.000874
0.011891
0.090727
-0.026171
-0.013364
-0.018649
0.048840
-0.071273
0.013460
0.088136
0.054471
0.016141
-0.055855
0.089918
-0.017323
-0.032763
0.092763
-0.006381
-0.055234
-0.074433
-0.075929
0.030212
-0.001621
0.090116
-0.082111
-0.077907
0.068700
-0.077292
-0.059306
0.037854
-0.077627
-0.057626
0.043389
0.025305
0.031632
0.008646
-0.018022
0.019184
-0.018186
-0.073193
0.074505
-0.038832
0.051711
0.011299
0.053945
-0.019737
-0.070712
-0.073270
0.036077
0.008818
-0.041905
-0.080637
0.078353
0.085382
0.007082
-0.060869
0.080515
-0.003096
0.059044
-0.081915
0.091092
0.076864
0.069726
0.039391
0.010204
0.062403
0.031734
-0.072072
0.008682
0.022096
-0.017471
-0.056328
-0.085519
-0.071431
0.078843
0.086915
0.053569
0.006305
-0.081488
-0.069034
-0.073965
-0.051588
0.002239
-0.015687
0.012511
-0.074509
0.025614
0.023468
-0.020455
0.009899
0.024038
-0.070876
-0.059460
-0.080541
0.012242
-0.006283
-0.060236
0.074173
-0.049521
-0.008602
0.003695
0.056283
-0.023232
-0.036220
0.067688
-0.072451
0.029954
0.043651
0.041042
0.085082
-0.054120
-0.084016
-0.051235
0.063437
0.017334
-0.044752
0.086280
0.075558
0.090297
-0.065638
-0.038051
-0.061600
0.001168
-0.043334
0.092333
0.061138
-0.037244
0.036486
-0.055817
0.073144
0.005972
0.020472
-0.047373
0.051410
-0.041664
0.054700
0.037967
0.015010
-0.034174
-0.032642
-0.046396
0.070757
0.059038
-0.070128
0.061642
0.050627
0.015925
-0.028390
-0.085136
-0.044881
0.038811
0.083364
-0.020518
-0.046356
0.002957
0.061357
0.048491
-0.038035
0.061989
0.058764
-0.009655
0.019121
0.018379
0.057572
0.018217
-0.041104
0.079104
-0.071708
-0.083416
0.066684
0.090503
0.074201
0.074040
0.025698
0.077327
-0.072277
0.079838
-0.078401
0.006022
-0.027466
-0.035735
0.012534
-0.017486
0.009392
0.088760
0.081803
0.055387
0.057860
-0.035925
-0.085487
-0.034726
0.050129
-0.076130
-0.035556
0.056155
-0.006617
-0.047581
-0.022598
-0.043330
-0.076409
0.078590
-0.024929
-0.054883
-0.054817
0.055811
-0.062560
0.059389
-0.083723
-0.076506
0.070477
-0.077038
0.056564
0.053958
0.045164
-0.069451
-0.027701
0.083025
-0.064543
0.042292
0.032713
0.083769
-0.064212
-0.039517
0.035579
0.018345
0.089877
0.005776
0.063485
-0.013165
-0.086153
0.024717
0.049428
-0.020575
0.020791
0.079955
0.036363
0.047439
-0.018346
0.002229
-0.015020
-0.014953
-0.027558
0.070871
-0.025215
0.087933
-0.050826
-0.013748
0.028593
-0.000495
0.001626
0.002011
0.054588
-0.063648
0.046711
-0.015486
-0.010187
-0.028535
-0.028983
0.050199
0.018968
0.002626
0.041386
0.092137
0.003627
-0.007668
0.091099
0.035232
-0.056999
-0.004414
0.078512
-0.052981
0.076534
-0.004370
-0.072234
0.005060
0.000592
0.089697
0.045591
-0.071295
-0.044670
0.017582
-0.091362
0.087587
-0.093146
0.058758
0.041340
0.056540
-0.073879
-0.071198
0.089266
0.030275
-0.018882
0.077133
-0.044431
-0.005915
-0.005356
-0.052472
0.050787
-0.080908
0.021991
0.077516
0.030994
-0.048125
0.002406
0.071383
-0.073505
0.030775
0.058277
0.020356
0.040378
0.058086
-0.087374
-0.028100
0.026600
-0.035424
0.013899
-0.076851
-0.003546
-0.081904
0.084031
0.045224
-0.016307
0.011760
0.012123
0.010418
0.069324
0.045352
-0.043607
0.027068
-0.087757
-0.053382
0.039710
0.036216
-0.019275
0.015304
0.069557
-0.061483
-0.071758
0.069177
0.057708
0.047252
-0.061588
0.011944
0.032710
0.051131
-0.062516
-0.070654
-0.032557
-0.008189
0.001636
-0.078025
0.051392
-0.049111
0.017653
-0.066003
-0.075414
-0.079374
-0.055283
-0.025559
0.043750
0.028457
-0.007821
0.046975
0.077852
-0.009636
0.087826
0.003254
0.067150
0.042840
0.021576
-0.068101
0.033418
0.016481
0.053766
-0.076344
0.083181
0.027325
-0.045335
0.033098
0.050970
-0.036453
-0.078907
0.064071
-0.049559
0.082869
0.008773
-0.052040
-0.005717
0.063603
-0.010866
-0.006582
-0.015090
0.058021
-0.072296
0.048683
-0.004911
0.070154
-0.071353
-0.065164
-0.003234
0.016183
-0.003677
-0.023214
0.072445
0.067109
-0.028793
-0.082617
0.014316
-0.036911
-0.010978
-0.091192
-0.073979
-0.046045
-0.014248
0.069272
-0.027865
0.056770
0.086303
0.021887
0.008931
0.049239
0.091991
-0.066484
0.030649
0.031023
0.030907
-0.026341
0.066541
-0.005429
-0.035529
-0.065866
-0.044511
0.003987
0.022707
-0.011823
-0.066572
0.047456
-0.005542
-0.056468
0.025391
-0.066156
0.011595
0.024568
0.037263
0.008016
-0.063800
0.075731
0.037333
0.008169
0.068700
0.058767
-0.028322
0.016908
0.027256
0.015186
0.073272
-0.003448
-0.007000
0.074757
0.007968
0.022015
-0.016227
-0.086473
-0.046030
0.020310
0.031468
0.017271
-0.037852
-0.077522
-0.037695
-0.047071
0.045085
0.005696
-0.009818
-0.089394
-0.018653
-0.020111
0.009417
0.052460
-0.038549
-0.002032
-0.009871
0.018040
-0.044363
-0.083185
-0.024449
-0.033860
-0.017414
-0.047329
0.035109
0.084470
0.058193
-0.056558
-0.052077
-0.027813
-0.079335
-0.004150
-0.040911
0.038789
-0.053167
0.085170
-0.028239
0.081922
-0.057898
-0.049650
